0.123452
0.460295
0.0355404
0.317086
0.341997
-0.0337744
-0.0282887
0.0330363
0.338005
0.137294
0.120928
-0.055585
0.169824
-0.118842
0.0900737
0.364881
0.0926363
0.140701
0.185907
0.0640018
-0.111154
0.0747369
0.152526
-0.29434
0.0858646
0.00980676
0.129193
0.382096
-0.345103
-0.00855141
-0.0263727
0.340047
-0.0497769
0.138844
-0.0686827
0.00532865
-0.00987837
0.0908725
0.605538
-0.0679569
0.406645
0.321278
-0.157614
-0.133826
-0.0401999
0.122423
0.131378
-0.13788
-0.0451949
0.121676
-0.0341842
0.249922
0.361571
0.465984
0.172291
-0.0188986
-0.153572
0.284327
0.0620476
-0.182725
0.236728
-0.0976712
0.244357
-0.240703
0.0700578
0.117456
0.213294
-0.256787
0.00645248
0.194698
0.123607
-0.108776
0.281788
0.10698
0.248723
0.121033
0.248151
0.145993
-0.170291
-0.0441419
0.097845
0.0169679
0.213608
0.201418
0.154938
-0.0531191
0.185742
-0.245674
-0.0256579
0.316676
0.0447364
0.218007
-0.0246776
0.528724
0.0993154
0.191658
0.103937
0.213969
0.210205
-0.012274
0.0169056
-0.201222
0.169495
-0.262191
0.110128
0.0705304
-0.0915435
0.537563
0.0262749
-0.0196978
0.00478268
0.089298
-0.0235734
0.299771
-0.326202
0.260273
-0.209321
0.0486852
0.0409363
-0.0961166
0.0395525
0.0515229
0.168867
0.116482
0.105712
-0.126593
0.154251
0.201892
0.0753023
-0.0308179
0.1277
0.0730135
0.062772
-0.0535819
-0.189709
0.0483088
-0.114503
-0.0183181
0.292843
-0.0279783
-0.0796171
-0.101027
-0.0898246
0.072696
0.0779721
-0.0552667
0.0826545
0.207377
-0.0426065
0.0351023
-0.0363225
-0.0655248
-0.110681
0.00768994
0.0643825
-0.153829
0.017214
0.0295069
0.00543636
0.398325
-0.00588755
0.0156082
-0.0184577
-0.28435
0.113944
0.189144
-0.0175531
0.158878
0.0288483
-0.0614407
0.0460538
0.160236
0.0444288
0.243538
0.100229
0.305154
-0.0170923
0.100582
0.136295
-0.097188
-0.131355
-0.0228921
0.000880117
-0.018642
0.00985481
-0.339993
0.229349
0.0052091
-0.157961
0.1235
0.315929
-0.200551
-0.0909047
0.143782
-0.0705066
0.150714
0.150228
-0.432663
0.142956
0.0667683
0.0741968
0.0873247
-0.0244708
-0.200773
-0.00308387
-0.00178193
0.191054
-0.00690844
-0.277922
-0.0730811
0.09058
0.0454988
0.279816
0.0569665
0.169539
0.0942315
-0.0336047
0.15606
-0.00118784
0.0380543
-0.0141384
0.0940142
0.288259
0.180496
0.192818
0.321268
0.0743638
0.105956
-0.00528751
0.0996749
-0.0318976
0.399203
0.195959
-0.124789
0.155991
0.262523
0.153181
-0.000723807
0.275586
0.120088
-0.207274
0.168481
0.156332
-0.11243
-0.104331
-0.0744074
0.282081
0.0675983
0.131454
0.136917
0.0830977
0.349749
0.0712782
0.136574
-0.0456572
0.0867552
-0.0135794
0.0467483
-0.0349042
0.0924495
0.0184396
-0.0229331
-0.0973152
0.0453961
-0.0808678
-0.0334515
-0.0450266
0.00725389
-0.0826324
0.0300927
-0.156436
-0.0540656
0.234147
0.265973
0.137336
0.0817014
0.151555
0.0699989
0.0420132
-0.0855994
0.0972661
0.00734191
0.174732
0.0867466
0.0784387
-0.0245553
0.207899
0.14575
0.314674
-0.0162372
0.21968
0.249922
0.0816809
-0.387952
0.238328
0.0970939
0.224486
0.29847
0.0688031
-0.0155512
-0.198036
0.0926355
0.143054
0.287519
0.135208
-0.143198
0.0352454
-0.0615012
0.199319
0.202029
-0.135862
0.204928
0.113794
-0.188361
0.102414
-0.308842
-0.184799
0.0348076
-0.142672
0.255653
0.368265
-0.0812846
0.236307
-0.149343
0.330535
-0.176217
0.089712
0.0445523
0.382294
0.315727
-0.154801
0.0273387
-0.0387762
0.13687
-0.244986
-0.0582895
0.0626784
0.0209994
0.139422
0.0176881
0.138574
0.158596
-0.0996763
0.0424792
0.194101
-0.325028
0.158784
0.21645
-0.224751
-0.204554
0.0109841
0.010203
-0.086959
0.0482907
-0.186821
0.00615382
0.0229921
-0.0999036
-0.119002
-0.191032
0.079396
-0.121246
0.0259264
0.424958
-0.0100537
0.147368
-0.127737
-0.130455
0.168151
0.00990113
-0.0510464
-0.134641
0.204983
-0.121985
-0.0552071
-0.179051
0.133294
0.0638702
0.00782903
0.191333
0.486751
-0.0523383
0.184147
0.115907
-0.261774
-0.175688
0.10972
0.01785
0.0186807
-0.154456
0.278745
-0.376282
-0.217887
-0.145156
0.00510477
-0.000366672
0.200042
-0.206177
0.00388891
0.203053
-0.0973075
0.0458877
0.162013
-0.2581
0.271497
-0.0388278
-0.248272
0.363031
-0.294368
-0.15725
-0.273831
-0.165652
0.176088
-0.137065
0.0502993
0.0169408
0.398628
0.124882
0.0157607
-0.0256841
0.224868
0.243437
0.103124
-0.131157
0.112494
-0.151
0.111138
0.174113
0.150953
-0.212689
0.1594
0.104319
0.133286
0.0964287
-0.003453
0.273716
-0.0856216
-0.18569
0.0965134
-0.22188
-0.0168097
-0.0291016
-0.0383975
0.232023
0.280169
0.608322
0.137119
0.0712345
0.096632
-0.12165
0.12256
0.0838213
-0.0649852
-0.0260396
0.0538692
-0.255816
0.183162
-0.049082
-0.0804903
-0.211115
-0.0271215
0.05211
0.0634963
0.0845199
0.153468
-0.0921254
-0.128839
0.0709491
-0.050613
-0.00975907
-0.118232
0.0532567
0.0842018
0.0975719
0.0927856
0.00622737
-0.292756
0.0298004
0.117678
-0.272841
-0.217318
-0.0105668
-0.135317
0.161901
-0.028474
0.235911
0.0497875
0.0531473
-0.0944023
-0.00886192
0.134989
0.191228
-0.161957
-0.157408
-0.261341
0.124092
0.111685
0.0619187
0.195351
0.105427
0.175729
-0.0898793
-0.166936
-0.0366507
0.0835299
-0.143125
-0.0575707
0.181492
-0.127304
0.0344679
-0.0239328
0.213546
-0.0357925
-0.0884618
0.0929716
-0.0162018
0.0495956
0.316524
0.014992
0.147425
-0.00488389
-0.32462
0.129962
-0.0594692
0.353727
-0.00491998
-0.255451
-0.165218
-0.200122
0.267253
0.00391014
-0.226742
0.291263
-0.0384849
-0.18188
0.251294
0.189293
0.246183
0.0872689
-0.0093464
0.201279
-0.213656
0.0876939
0.00801798
0.138759
-0.019848
-0.166471
0.0270576
-0.135896
0.159472
0.1586
0.187522
-0.106928
-0.0851081
0.0563553
0.204413
0.193786
0.105543
0.0953524
-0.202115
-0.0767834
-0.28838
-0.026689
0.0239963
0.349648
-0.294637
-0.0715927
0.00465602
0.0698723
0.0103657
-0.0366213
0.126257
0.00835245
-0.0398533
0.0881996
0.0659824
-0.394526
0.154216
-0.296624
-0.109376
0.0351199
-0.15377
0.204275
0.0313982
-0.133953
0.131634
0.274843
-0.0027127
0.0688893
-0.0674561
0.316466
0.055628
0.0567466
0.288824
0.174548
0.17377
0.00307309
0.00523976
0.321901
-0.0792572
0.267543
-0.192407
0.0451974
0.184533
0.21738
0.223841
0.209482
-0.00937789
0.198997
0.155587
0.179385
-0.0923563
0.260939
-0.0514911
0.249888
0.117589
0.0806759
-0.0494016
0.430592
0.0268528
0.0353651
0.00535954
-0.164438
-0.137615
0.046881
-0.180436
-0.0173685
-0.225502
-0.140482
0.272292
0.140551
-0.004332
0.00510874
-0.00923643
0.280667
0.175766
0.166103
-0.0677807
-0.0927077
-0.0320717
-0.0133501
0.101015
0.0534289
0.0731464
0.108662
0.102926
-0.121219
-0.137101
0.0786209
-0.152041
0.227362
-0.057194
0.179026
-0.102845
0.0890597
0.0281694
-0.289094
-0.0342619
0.114375
0.146742
0.0687184
-0.0269797
-0.158052
-0.0270392
0.127598
-0.074522
0.11765
0.0103073
0.0855707
-0.0853991
-0.202216
-0.158907
-0.159339
-0.0741455
-0.0457576
-0.102832
-0.167712
0.0784572
-0.143349
0.148271
-0.262251
0.160093
0.184877
0.000340077
-0.011247
0.055735
-0.114804
0.113692
0.155078
-0.0458984
0.212636
-0.0899122
-0.0998879
0.119056
0.0737049
0.1987
-0.0322636
-0.213908
-0.102479
0.0367917
0.103798
0.00966987
-0.143079
0.219839
0.140964
-0.132522
-0.181028
0.238069
0.327915
0.0210299
-0.100216
-0.0960809
0.258788
0.0757927
-0.0215618
0.0595976
-0.0288347
-0.208352
-0.0750253
-0.0548045
-0.33401
-0.189245
0.102484
0.0282368
-0.106831
0.0174246
-0.0471354
0.192701
-0.250655
0.158042
-0.0392831
-0.0817538
-0.131533
-0.160635
0.418292
0.154677
0.0488762
0.293145
0.279598
0.344249
0.152588
-0.0108632
0.342387
-0.031404
0.259695
0.175165
0.0877007
-0.301009
0.0679338
0.269425
-0.0158991
-0.11878
0.205402
0.298428
0.211016
0.58599
0.248045
0.117903
0.350149
0.221449
0.109144
-0.0334403
-0.105393
0.165696
0.353921
0.00848749
-0.135342
-0.0555403
0.27832
0.576744
0.210895
0.00314821
0.487194
0.237469
0.0431708
-0.0532635
-0.0270674
0.0945443
0.158257
0.210757
0.155402
-0.0185304
-0.060545
0.0753558
0.350544
-0.00975316
0.135405
0.139171
-0.226713
0.155869
0.317621
-0.147118
-0.286765
0.263182
0.106928
0.140397
0.222244
0.128716
0.263033
0.341356
0.209557
0.0492401
-0.117789
-0.167037
-0.121428
-0.120773
0.0799041
0.264528
0.25942
-0.0572583
-0.0740737
0.40479
0.0428944
0.160861
0.257566
0.21652
0.122083
-0.0781123
0.261107
0.40229
-0.111268
-0.119105
0.422193
-0.109592
-0.0897747
-0.010794
0.0194273
-0.0830201
0.120349
0.0243184
0.0733175
0.00648682
0.111445
0.106149
-0.0335204
0.416826
-0.153392
0.111784
0.29961
0.0498262
-0.011368
-0.199344
0.0826937
0.075781
0.249434
-0.217804
0.356894
-0.151091
0.254034
0.115486
0.12015
0.0611806
0.381277
0.12867
0.253191
-0.0355041
0.0846061
0.164682
-0.100371
-0.0922706
-0.0242344
0.321222
-0.0721774
-0.228922
-0.206309
0.163441
-0.250841
0.055295
-0.154207
0.133913
0.233342
0.0708418
0.086264
-0.370669
0.167374
0.437701
-0.0794011
0.125798
0.157153
-0.125663
-0.0444789
-0.0243273
0.0631444
-0.163061
0.0010797
0.115285
-0.237496
0.0997566
-0.00889342
0.294579
0.416674
0.155153
0.112668
0.308687
0.0656176
0.295518
0.0174319
-0.158455
0.0609349
-0.193103
0.0315668
0.0206969
0.0916563
0.17566
0.00538355
0.29118
0.0363173
-0.0347504
0.0311075
-0.0707714
-0.0378852
0.0568674
-0.0604253
-0.0124168
0.0215693
0.212861
-0.228092
-0.000738076
0.169444
-0.244075
0.107359
-0.0255772
0.0566176
0.0108004
0.0839088
0.0602531
0.00542541
0.246272
-0.229932
0.162686
0.125575
-0.0694583
0.209613
0.316717
-0.0703673
0.0228222
0.229237
0.211624
0.0525633
0.113462
-0.0615813
0.206421
-0.119484
-0.0419579
0.0863837
0.225695
-0.00382447
-0.0404333
-0.167626
-0.141052
0.0225988
0.194646
-0.245072
0.268879
0.243518
-0.0570632
-0.0984274
0.0275236
-0.205667
-0.140027
-0.134227
0.123742
0.129294
0.12297
-0.051389
-0.100812
0.187144
0.138353
0.00840086
0.0807221
0.164785
0.0102934
0.187595
0.0874321
-0.00626993
0.274655
-0.247311
0.0197568
0.107736
-0.137609
0.277267
0.0684351
-0.319893
0.21338
0.275182
0.33904
0.0857685
0.258781
0.291863
-0.0499109
0.0915907
-0.0664092
0.17828
0.38832
0.127021
0.0660959
0.0186436
0.154578
0.0406012
0.460983
0.0952846
0.0439548
0.245622
0.206169
0.311294
0.133087
0.159308
-0.227328
0.306229
0.183466
0.0663406
0.21562
0.116852
0.281075
0.235841
-0.156613
0.135288
0.31825
-0.0562552
0.376979
0.101015
-0.105093
-0.203019
0.462692
-0.0463285
0.419836
0.103951
-0.00878019
0.248264
0.231708
0.0988363
0.0900621
0.100831
0.0398547
0.0598247
0.196883
-0.102434
0.0429126
0.251187
0.124688
0.0112238
-0.123074
0.0834078
0.305824
-0.195507
0.228393
0.168284
-0.0889744
0.0992835
-0.0494014
0.22414
0.0270653
-0.16112
0.153409
0.115491
0.220398
0.0366164
0.179973
-0.0823398
0.124817
0.10827
0.170351
-0.0830169
0.201464
0.206603
-0.0281892
0.0874895
0.0463534
0.0700642
0.439744
0.00517609
-0.148372
0.360367
0.156495
0.0978581
0.0393416
0.0184161
0.391897
0.307224
-0.0994575
0.256159
0.0429239
0.251464
-0.0578002
0.142913
0.245868
0.0998698
0.0920688
0.116122
0.26424
-0.148676
-0.390021
0.0780192
-0.0394169
-0.0497435
0.120098
0.121734
0.0948706
0.0181095
0.051543
0.0287895
0.0155421
0.0100759
-0.114821
0.107762
0.287694
0.185326
0.11973
-0.209366
0.068625
0.0909192
-0.206773
0.136598
-0.208033
0.171418
0.11153
-0.0767156
0.0294892
0.0336973
-0.289688
-0.0724563
0.00164403
0.272269
0.0585082
0.196436
-0.115711
-0.0128334
0.179033
0.14622
0.226565
-0.00030024
-0.297008
-0.115879
-0.0720754
0.118302
0.00732675
0.0357743
0.139879
-0.0444261
0.0168315
0.152707
-0.257154
0.118162
0.131867
0.21233
0.231031
0.00571204
-0.155803
-0.146398
-0.428377
-0.0964016
0.0568839
0.0159553
0.127623
0.0440188
0.0187194
-0.134854
-0.0279022
0.0331994
-0.250895
0.136509
0.0938022
-0.271195
0.0880945
0.0241078
-0.0652899
0.120422
-0.090552
0.111901
-0.132143
0.0393359
0.188338
-0.12616
0.416873
0.302954
-0.189949
0.0239422
0.355662
0.0525438
0.0896863
-0.326603
0.239013
0.0327082
0.0531668
-0.015684
0.329177
0.218913
0.333766
-0.299248
-0.516327
0.254764
-0.184669
0.0913175
0.0836627
0.138537
0.0836254
-0.0822772
0.148212
-0.0722502
0.132763
0.0151946
0.208767
0.272802
-0.143618
0.31784
0.164499
-0.0171114
-0.0995448
0.076026
0.0350839
0.18446
-0.178797
0.183661
0.282971
0.0677084
-0.047371
0.381192
-0.124208
0.0809512
0.437464
-0.0100177
-0.503284
0.060605
0.235507
0.263123
0.408509
-0.0103428
0.0849222
0.0159516
-0.118895
0.114997
0.139193
-0.165709
-0.4432
0.0407214
-0.0602397
-0.0302139
-0.0394654
0.499996
-0.0498607
0.0513065
0.177751
-0.259396
0.442292
-0.216732
0.241162
0.22016
-0.0331498
-0.018573
0.267402
0.190221
0.513793
0.234999
0.513718
0.557113
0.165407
0.0767694
0.193154
-0.164574
-0.243006
-0.0388685
0.0922886
0.0101431
0.166829
0.0761452
0.298923
0.230542
0.081059
0.142788
0.465304
-0.0432048
0.307366
0.219928
0.484936
0.4236
-0.181619
0.213265
0.0123791
0.0314643
0.248064
0.205228
0.0703576
-0.170954
-0.108932
0.140106
-0.141531
-0.0658882
-0.422412
0.0824449
-0.0850726
0.263244
0.167607
0.102877
-0.105905
0.0897593
-0.0985008
0.282601
0.233471
0.276416
0.259944
0.230838
0.293779
8.49376e-05
0.0510121
-0.196842
-0.161677
0.189234
0.207666
-0.14104
0.0559445
0.0209904
0.252179
-0.0682526
-0.134024
0.031176
0.0467347
-0.142397
0.15287
-0.00471999
0.250958
-0.145322
0.0886875
0.00205423
0.0917275
-0.233729
0.0478811
0.147654
0.0118597
0.252516
0.300715
-0.00933997
-0.0553174
-0.0465277
0.0550093
0.109351
0.086427
-0.323458
-0.211264
-0.0701019
-0.283231
0.135471
0.259232
0.125814
0.250115
0.108505
0.158221
0.285358
-0.234551
0.160341
0.102998
0.321244
0.0671062
0.0225174
-0.299143
-0.0326202
-0.0329353
0.279628
-0.109562
-0.264181
-0.0745557
0.128255
0.266894
0.155772
0.171251
-0.0114374
-0.067184
0.0748492
0.0131922
-0.0879448
0.144578
-0.0297658
0.0262146
-0.108834
0.239315
0.201459
0.447617
0.22843
0.0299321
-0.104609
-0.0809024
0.0523918
0.182074
-0.208658
0.319911
0.273246
0.0381279
-0.0908434
0.273492
0.228276
0.25064
0.155176
-0.187727
0.306145
-0.0792923
-0.0535865
0.103285
0.109576
0.0241251
0.355347
0.122627
-0.065687
0.239516
0.266301
-0.249881
-0.0422629
0.300551
0.106931
-0.00361525
-0.139451
-0.0563788
0.0212144
0.140779
-0.229087
-0.239759
0.0217243
-0.0449302
-0.0685092
-0.23781
0.0505786
0.155586
-0.152937
0.0231893
0.0944527
0.110439
0.220752
-0.0699749
0.158501
0.00284168
0.0653413
0.188725
0.0285066
-0.0133652
0.253691
-0.17532
0.138455
0.072839
0.155459
0.0726966
0.0989681
0.276379
0.330667
0.161722
0.203784
0.0155951
0.0430349
0.0648283
0.0488599
0.0408629
-0.186755
0.0873516
0.313242
0.021047
0.120019
0.0831975
-0.252478
-0.0724746
0.299184
0.000220935
-0.202625
0.0638575
-0.492405
0.216203
0.0397486
0.0250752
0.132215
-0.0330546
0.336554
-0.0316979
-0.0323819
-0.0182899
-0.0928353
0.120984
-0.139025
0.188005
0.20481
0.177734
0.218363
0.145712
0.105411
0.205963
0.325543
0.198821
-0.00595789
-0.17091
-0.0942813
-0.117178
0.121718
-0.0306975
-0.202497
-0.214622
-0.0732892
-0.290027
-0.226199
0.0279315
0.0331126
0.0421948
0.131038
0.224935
-0.0732267
-0.271407
0.150766
0.112795
-0.116954
0.0657703
-0.125914
0.194892
-0.0872862
-0.314522
-0.0146282
0.0470543
0.200248
-0.177081
0.104049
0.235461
0.0791233
0.167181
0.0242898
0.356103
0.0358544
0.143603
-0.0032994
0.0907387
0.46597
0.242301
0.125399
0.0929838
-0.115758
0.135421
-0.016013
0.180797
0.134398
0.199456
0.0964438
-0.060806
-0.332837
0.17505
-0.0344994
0.0817221
-0.0759499
-0.166278
-0.184609
0.0114132
0.0585128
-0.171683
-0.0805855
0.241355
-0.0431446
0.268465
0.0611909
-0.0764661
0.146203
-0.0563233
0.22126
0.148343
0.02338
0.190136
-0.200521
0.0255392
-0.0078591
-0.141668
-0.00923322
0.0431804
-0.0876854
0.1452
-0.283182
-0.0282967
-0.0695574
-0.0546231
-0.0752584
-0.0642837
0.287566
-0.0627982
-0.321615
-0.138208
-0.0159259
0.140243
-0.24629
-0.210845
-0.00351755
-0.069005
0.164263
-0.258264
-0.0721884
0.0866055
0.201334
-0.0584403
0.234495
-0.211975
0.283499
0.0818973
0.0511776
0.206209
0.050314
0.0206167
0.146474
0.11399
0.277889
-0.0888897
0.124696
-0.178823
0.269167
-0.0807455
0.0779465
0.0480792
0.54772
-0.0125846
0.0239574
-0.0961469
0.300305
-0.04559
0.0454494
-0.277421
-0.113045
-0.181019
0.115212
0.0683142
-0.0366217
0.0646519
0.0862268
-0.0137872
0.103485
-0.268645
0.30476
-0.223944
0.133129
0.407504
0.0957028
0.0318816
0.0572005
0.201831
-0.0410163
0.0296817
0.0317642
0.289933
-0.15728
0.203415
0.0630206
-0.192358
0.400728
0.0127929
-0.182873
0.0480625
0.0202131
-0.175247
-0.0540749
0.178907
-0.0355425
-0.408547
0.00598498
-0.00552963
0.273487
0.00681824
0.0560308
0.200506
0.168117
0.0444806
0.163628
0.100963
0.0951783
-0.154084
0.00743591
-0.0614008
-0.0459899
-0.0569588
-0.105959
-0.135606
0.150581
-0.143857
0.252282
0.0876633
0.0388071
0.244
0.218058
-0.0291026
-0.232157
-0.0730862
0.0384309
-0.0194243
-0.183755
0.0239067
-0.202065
-0.150275
0.0490504
-0.0140818
-0.150122
0.060845
0.0528043
-0.0112194
0.251407
-0.0842462
-0.0533587
0.227329
0.130681
-0.204488
0.184811
0.121479
-0.023961
-0.122179
0.0443054
-0.0170709
-0.0833678
0.346096
0.148677
-0.208401
-0.163095
0.232848
-0.143019
-0.213668
0.0512823
0.0397457
0.24873
-0.0486828
0.132716
0.00317524
-0.273772
0.342568
0.197376
-0.0287382
0.146492
0.0363061
-0.00365217
0.127264
0.0192914
0.170931
0.174969
-0.0869561
0.269217
-0.177458
-0.127961
0.205116
0.116265
0.321452
0.281887
-0.0619072
0.051945
0.173572
0.0206301
0.128759
0.28204
0.234896
0.028555
-0.107368
0.188356
0.0509175
-0.0103177
-0.0873669
0.151231
0.103464
0.011653
0.353955
0.098194
0.0579558
0.0517013
0.151387
0.15304
0.0463606
-0.036625
0.0105482
-0.0865423
0.153085
0.0207366
-0.0576207
0.114153
-0.315085
-0.0668649
0.191606
-0.158494
0.328839
-0.0855369
-0.0106847
-0.0343887
0.073518
0.105091
-0.0715252
0.122132
-0.0703745
0.000302171
0.151097
0.0629781
0.105334
0.0240674
-0.146316
0.167584
0.29197
-0.278086
0.221962
-0.126867
-0.193683
0.160882
0.0161169
0.123276
-0.121654
0.00572141
-0.010338
0.253336
0.0809675
-0.156882
0.0987983
0.0935544
0.0462938
0.00504201
-0.0678795
-0.128687
0.0641642
0.359825
-0.0796503
-0.0302926
0.0130131
0.138624
-0.0771814
-0.0729523
0.191691
0.279168
0.0174297
-0.131428
-0.151071
0.293002
0.00690453
0.0728071
-0.0368385
-0.00397914
0.0419731
0.12648
0.00638814
-0.149195
0.201845
0.172322
0.124882
0.311405
0.200022
0.00311883
-0.0870799
-0.284445
-0.235687
0.0991495
0.299924
0.100175
-0.0301602
-0.0689248
0.127741
0.199596
-0.111039
-0.0167279
-0.0184544
-0.16045
0.306399
0.125994
-0.0849958
0.0749412
-0.0836477
0.204142
0.179971
0.233734
0.11263
-0.00517898
0.412161
0.258221
0.0256974
-0.00284029
9.87591e-05
0.264263
0.221797
-0.00939472
0.256696
0.163413
0.112817
-0.101948
-0.0454636
0.0451324
-0.0930693
-0.0734572
0.0217747
-0.169348
-0.0784168
0.28168
0.225485
0.0439406
0.553485
0.397762
0.0171806
-0.0153465
-0.236572
0.106872
0.180251
-0.0229347
0.125521
0.15032
0.40108
-0.116411
-0.0189544
-0.250359
0.18813
-0.261067
0.054747
-0.0656131
0.0415192
0.0231977
0.0616454
-0.183391
0.0973103
0.0898074
-0.0181311
-0.0943205
-0.351233
0.0722919
6.49417e-05
0.0643572
0.407961
-0.0216971
-0.0197451
-0.118279
-0.219566
0.1067
0.243828
0.0926566
-0.0866797
-0.02893
-0.218716
-0.0164148
-0.0409777
0.108759
-0.235449
0.00648442
-0.127826
-0.0912827
0.125185
-0.192368
0.0964703
0.147289
-0.0581075
-0.2117
-0.117662
-0.265628
-0.0795564
0.085723
0.0379452
0.0107652
-0.0126986
0.0755051
-0.0799664
-0.000251952
2.79853e-05
-0.0183691
0.334553
-0.170023
-0.163791
0.220368
-0.214446
-0.0286432
0.0844434
0.0503555
-0.0309465
-0.118806
-0.18469
-0.0630543
-0.348549
-0.220526
-0.204423
0.0924879
-0.196884
0.0783095
0.157178
-0.0169661
-0.0725198
0.00231423
-0.0018959
-0.231183
-0.00249195
-0.199944
0.00839368
-0.0954359
-0.0199168
0.210381
0.0993997
-0.0335779
-0.0111965
-0.0783707
0.00245727
-0.0245087
-0.0218158
0.0599809
-0.295142
-0.208038
0.236764
0.134832
0.0163837
0.242944
0.0951893
0.383571
0.159542
0.21137
-0.0988612
-0.00263927
0.0058434
-0.452028
0.0220174
-0.0621598
0.00101109
-0.196381
0.221211
0.0733044
0.0296656
-0.25594
-0.124068
0.226062
-0.281397
-0.0722341
0.130271
-0.238578
-0.0851883
-0.304749
0.319917
0.366924
0.163704
-0.0637465
0.335802
-0.688972
0.196757
0.188994
-0.385211
0.188821
-0.106148
0.161879
-0.259666
-0.0959184
-0.130268
-0.0845415
-0.143041
-0.0098698
-0.114056
0.316661
0.0956012
0.0356304
0.0498576
-0.0832702
-0.122644
0.180276
-0.0868952
0.160943
-0.0636684
0.334038
0.280439
0.132116
0.151397
0.115565
-0.182609
0.0930735
0.379118
0.185005
0.0400728
0.137699
0.297619
0.0604163
-0.0187281
0.486138
-0.244207
0.193623
-0.304309
-0.0531606
0.0720008
0.0924476
-0.0357005
0.0199275
-0.0334139
-0.154584
0.162215
0.108845
-0.142975
0.209509
-0.0446706
0.0103686
0.425291
0.444229
-0.155202
0.164063
0.291616
0.151837
-0.464813
0.0127838
-0.042471
0.302235
0.294338
0.0446068
-0.372146
0.193819
0.169987
0.148911
0.150236
0.310999
-0.393862
0.383422
0.421908
0.0374291
0.111562
0.281562
0.124835
-0.0862297
-0.137657
-0.180177
-0.0940246
0.0186232
-0.0721607
-0.0388679
-0.286435
0.049805
-0.189481
0.218744
0.206189
0.00651003
0.203061
-0.00419583
0.351178
-0.209633
0.110739
0.244503
0.279742
0.0666449
-0.12989
0.176409
0.175937
0.0873662
0.0239476
0.0639936
-0.104949
-0.107227
0.0654653
0.317062
0.0924336
0.304633
-0.168465
-0.247052
0.0202397
-0.00110165
-0.166587
-0.0296426
0.158284
-0.0261289
0.0569935
0.166431
0.0623174
0.089701
0.112801
-0.103596
0.121229
0.140895
0.014952
0.0207695
-0.0892096
0.277959
0.322915
0.0175542
0.163083
-0.12085
-0.0185974
-0.0118791
0.206784
0.129042
0.101027
0.369116
0.048841
-0.0171935
-0.00659632
0.120294
-0.188931
0.0947481
0.0371838
0.23779
0.011509
0.162591
0.0986126
0.0188862
0.298989
0.255198
0.265533
-0.0478502
0.137236
-0.0221717
0.219668
0.128634
-0.00604069
-0.154436
0.300576
-0.0034585
0.197621
-0.345914
0.186337
0.283058
0.377181
-0.0892981
-0.0149536
0.0601403
-0.287391
0.341112
-0.0404851
0.130235
0.0189407
0.072216
0.0533185
0.200605
0.293663
0.181217
0.652374
0.073896
0.0442241
-0.0687179
0.0591133
-0.101576
0.34553
0.102732
0.0151803
0.0408413
0.0949087
-0.0815112
0.00879736
-0.0792313
0.160587
0.0176841
-0.0792846
0.0155818
0.0612341
0.162873
0.0219526
0.222594
-0.20977
0.0491232
0.0629082
-0.00160805
0.144047
0.00102372
-0.178948
0.278899
0.134966
-0.174692
0.000945123
0.083034
0.0555654
0.154209
0.252132
0.264554
-0.137987
-0.00580766
0.0219961
-0.0992529
0.195763
0.0795948
0.00988444
-0.223218
-0.229757
0.0169305
0.0559262
0.129551
0.039469
-0.0952388
-0.161442
-0.197442
-0.204664
-0.0968031
-0.0231981
0.214814
0.0460928
0.0783069
0.192107
0.191625
0.0354958
0.12671
0.0616089
0.0786837
0.211276
0.208935
0.150052
-0.0827848
0.192021
0.280689
-0.0783076
0.192488
0.102677
-0.0117239
0.0549007
0.131666
0.110367
-0.230109
-0.0267235
0.0160427
-0.360189
0.0681066
-0.0959937
-0.0129364
-0.122626
-0.0249373
-0.0244382
0.0707581
-0.0660919
-0.373745
-0.0289942
0.0625933
-0.176404
0.0596219
-0.166008
-0.104623
-0.0472757
-0.158654
-0.0427058
-0.0233591
0.0432015
-0.149996
0.234075
-0.0125876
-0.179138
0.143729
0.0487135
-0.179644
-0.0370937
-0.0361529
0.0740417
0.0511828
0.00322096
0.0306952
0.0328784
0.0286471
-0.131501
-0.0374031
0.0919485
0.163811
-0.174741
0.0175071
-0.0750238
-0.208899
0.159882
-0.109772
-0.23548
-0.133773
0.200003
-0.173097
0.12382
-0.0378311
-0.0891552
-0.15925
-0.267193
0.0803406
-0.191339
-0.136801
-0.203968
-0.181159
-0.0363549
-0.175496
0.0644086
0.0394347
-0.130273
-0.113993
-0.208066
0.105634
0.0317301
-0.0950232
0.0451389
-0.017334
-0.0335352
0.183791
-0.0313842
-0.00943907
0.234792
-0.224332
-0.0912415
-0.0473025
0.0363736
-0.176792
-0.0779286
0.112405
0.20146
-0.00820051
-0.0590217
-0.0651388
0.237784
0.347303
0.512124
0.0637825
0.116001
-0.0927755
0.0457756
0.0611937
-0.0682313
0.224005
-0.029466
0.333635
-0.00433989
0.120867
-0.221332
-0.202296
0.0039557
0.123535
0.127351
-0.0790237
0.236189
0.0639872
0.00869809
-0.173692
0.236183
0.158554
-0.143882
-0.206408
-0.0330241
-0.108102
0.187561
-0.197174
0.0326486
-0.295395
0.0831853
0.27163
0.187621
-0.070514
0.19335
0.25689
0.31445
-0.0973326
-0.0164619
0.302247
0.1246
-0.201442
0.126539
0.137063
0.0548692
-0.00575434
0.294257
-0.0973843
0.0778983
0.058671
0.209018
-0.0348769
0.338371
0.0593891
0.303119
-0.128356
0.0895072
-0.139578
-0.0595512
0.288546
-0.269478
0.152756
-0.31607
0.520216
-0.164077
-0.206588
-0.129454
-0.189238
0.141643
0.0772121
-0.0169486
-0.106975
0.267557
0.173407
0.130877
-0.315453
-0.303215
0.170502
0.155622
-0.308237
0.238886
-0.0868962
-0.000842638
-0.262058
0.286355
0.105888
0.244151
0.136662
0.249546
-0.111536
0.0106012
0.150171
-0.272019
0.197939
0.179091
0.126408
-0.0324393
-0.0422531
-0.246149
-0.216912
0.0448595
0.0471041
-0.0711173
0.168305
0.421607
0.0677268
0.0908642
-0.0891398
0.0914185
0.219939
0.00793766
0.182891
-0.399383
0.0616557
0.14602
0.244327
-0.0610982
0.100031
-0.0672824
0.132341
-0.190545
-0.037582
0.0696361
0.332589
0.0526077
0.487064
-0.027495
0.130657
-0.206213
-0.13858
-0.0941829
0.0566155
0.271491
0.160377
-0.129843
-0.290286
0.190339
0.0769658
0.191741
0.196757
-0.012458
0.343244
0.250428
-0.303295
-0.0757216
0.551312
-0.177595
-0.0156378
0.303826
0.466594
0.0202984
-0.114254
0.0927769
0.0342574
0.675081
0.17259
0.494291
-0.0491955
-0.00194886
0.26353
-0.489237
0.280285
-0.330582
0.355436
-0.0777275
0.0739954
0.506729
0.0374173
-0.187157
0.346373
-0.177612
0.275442
0.0601566
-0.0402004
0.308203
-0.0914229
-0.059945
0.339219
0.0795612
0.308417
0.0176135
0.240797
0.403882
0.243829
0.237348
-0.0786201
0.102729
0.147945
-0.00799748
0.101435
0.0584285
0.197945
-0.12767
0.0684804
-0.200412
0.246301
0.0541413
0.180063
-0.142291
-0.156726
0.0636895
0.389133
0.0576139
0.313927
0.333604
0.294279
-0.151477
0.0561611
0.00782598
-0.0494588
0.14609
0.121563
-0.0238501
-0.12063
0.0226132
0.395611
0.471809
0.0632835
0.0680705
-0.123606
-0.0887593
0.295052
0.038267
0.0669837
-0.0240423
0.0705534
0.164136
-0.210973
0.131627
-0.153106
0.302868
-0.180563
0.0737498
-0.0351515
0.203477
0.333979
-0.174274
0.0326223
-0.166647
0.0724863
0.125146
-0.22386
-0.161152
-0.203328
-0.121237
-0.092141
0.292422
-0.00805825
-0.00613992
0.00249157
0.0599516
0.175901
-0.251454
-0.0144232
-0.0130151
-0.0200748
-0.00455574
-0.31681
0.00661271
0.0590061
0.0454079
0.427992
0.0360971
-0.0073886
-0.211638
0.307544
-0.0927563
-0.0888118
0.137647
0.0435418
0.254361
0.00452071
-0.309552
0.0411348
0.251244
0.103638
-0.0479704
0.23612
-0.0858492
0.322293
0.117358
0.0629574
-0.0322958
0.124277
0.0791293
0.0930669
-0.0655287
-0.0506233
-0.149795
0.0608088
-0.0920424
0.111136
0.173059
-0.0209802
0.219865
0.0494892
0.212618
0.275706
-0.218192
0.232874
0.104275
-0.302683
-0.182069
-0.0288643
0.139244
0.0611657
-0.0664206
-0.191444
-0.0812607
-0.0225395
0.175243
0.175331
0.171292
0.0983624
0.0966261
-0.167914
0.199329
-0.0142644
0.149103
-0.0854212
-0.0386941
0.336082
0.067176
-0.18873
0.0868215
-0.0942713
-0.0584598
-0.198105
-0.110841
0.144503
-0.0715138
0.225157
-0.0105596
0.0448359
0.0678995
0.194031
0.302932
0.167918
-0.0768951
0.194588
-0.155691
0.0323129
-0.0703262
0.244307
0.190582
0.0117978
-0.0615004
0.107141
0.000648775
0.00919061
-0.0908298
0.0513532
0.243169
0.109818
0.0281566
-0.214151
-0.0839859
0.230574
-0.056694
-0.101537
-0.0244198
0.21573
0.0173995
0.185545
-0.0992164
-0.00898935
0.0818525
0.106371
-0.104303
0.126111
-0.148786
0.029113
-0.0132489
0.064012
0.166509
0.189645
0.134629
0.108635
0.353772
-0.0122277
0.0307022
0.289422
0.168476
0.113808
0.153191
-0.137255
0.154397
0.269127
0.354647
-0.189537
-0.0857831
-0.00289229
0.019378
0.343871
-0.028411
0.310846
0.0810514
-0.259089
0.200752
0.240736
-0.0294767
0.0679144
0.140617
-0.0442191
0.0275944
-0.0159822
0.101563
-0.266221
0.140211
-0.204881
-0.0326249
-0.0136972
0.00788294
0.104579
0.150901
-0.172335
-0.235322
0.0710641
-0.00909585
0.19739
0.366296
0.00177788
0.0398449
0.226809
0.032606
-0.0321307
-0.19084
0.139283
0.192944
0.00554623
-0.177847
0.228922
0.190782
0.0961808
0.059494
-0.281485
-0.0523736
0.441779
0.225209
-0.0427483
0.0842274
-0.035212
0.00776424
0.18606
0.183436
0.202823
0.142951
0.225099
-0.13694
0.162085
-0.0674307
-0.0529124
-0.0340611
0.09197
-0.0315527
0.186919
0.502664
-0.363267
0.166217
-0.205948
-0.0154781
0.299067
-0.485625
-0.317928
0.266889
-0.360539
-0.00216156
-0.365926
0.180332
-0.26445
-0.153615
0.0451416
0.0260213
0.160586
0.362471
0.190639
0.478129
0.128927
0.146742
0.316935
-0.0454459
0.163611
-0.0573053
0.22444
0.422183
0.101158
0.113526
0.226971
-0.189054
-0.135571
0.119474
0.0357611
-0.0164567
0.115284
0.0968802
-0.0632717
0.10069
0.377993
-0.20411
0.414877
0.174654
0.3663
0.327435
-0.173395
0.11319
0.214239
0.390046
-0.0769127
0.0612316
-0.0177201
0.09566
0.244382
-0.183982
-0.151598
-0.0115427
-0.165282
0.297025
0.349365
-0.0369466
-0.306663
-0.111044
0.231321
0.147417
0.0788864
0.321987
0.292292
0.21281
0.240416
0.0933285
-0.148008
0.176624
0.0298231
0.0476065
0.199968
0.161573
0.552209
0.18485
0.339603
-0.186365
0.0651019
0.381288
-0.0540402
-0.394769
-0.0450371
0.039088
0.202799
0.0867042
-0.0778863
0.268406
0.102641
0.0913577
0.0074408
-0.0489764
0.096725
0.0290479
0.124479
-0.234299
0.0475345
0.117829
0.0396548
0.25517
0.18129
0.0999788
-0.151054
0.137403
-0.0479052
0.0825895
0.408457
0.0749214
-0.0218851
0.170544
0.00326351
0.0614386
-0.161748
0.0899347
0.208603
0.060889
-0.143877
-0.107065
-0.0262187
0.187482
0.083459
0.105844
-0.0313711
0.0704235
-0.0131882
-0.086866
-0.149233
-0.136137
0.174337
0.100333
0.0261092
-0.120235
0.00882758
0.262117
-0.13642
-0.073297
-0.135039
-0.123605
0.178593
0.00726338
0.0756934
-0.123895
-0.0151054
0.205658
-0.0411318
0.22686
0.234987
0.145124
-0.0917811
-0.172775
0.0616753
-0.0762008
-0.0992216
-0.148404
-0.159096
0.131928
0.131137
0.0307461
0.0628194
-0.175796
-0.0416001
-0.0026373
0.048071
-0.00708034
0.20066
-0.0311209
0.0150319
0.220471
0.0844703
0.10411
-0.0691406
-0.213828
-0.313492
0.0409163
0.25633
0.507937
-0.196995
-0.180827
0.152142
0.152512
-0.339816
-0.0259466
-0.151213
0.252643
-0.107212
0.0448936
0.15201
0.138307
-0.0827868
0.0793152
-0.21839
0.170605
0.305027
0.144073
-0.112973
0.0803084
0.263861
0.040022
0.00136849
0.0162045
0.00324291
0.355384
0.044385
0.179759
0.000965981
0.14456
0.336677
0.0997146
0.238062
0.324124
0.0698798
0.209533
-0.00994928
0.0875377
-0.0275324
0.149309
0.22297
-0.0079842
-0.0738328
-0.354457
0.0398289
-0.220081
-0.0209848
-0.155217
-0.14407
0.164061
0.0947736
-0.0615456
0.293274
-0.111936
0.355027
-0.0340794
-0.0956606
0.208988
0.130321
0.220303
-0.00642723
0.0102586
0.157632
0.0226029
0.259396
0.109176
0.358304
-0.0309678
-0.159151
-0.114219
0.0517927
-0.062593
0.0637806
-0.200501
0.166153
0.081188
-0.28726
0.112571
-0.0787397
0.0657498
0.00365193
0.140145
-0.00536193
-0.00479012
-0.108363
0.0184584
-0.427576
-0.230362
-0.0924963
-0.120122
0.146923
-0.0343656
-0.0278959
-0.154974
-0.00874976
0.0218455
-0.239808
-0.0934778
0.390016
0.133733
0.291816
0.296542
-0.0385371
0.154058
0.0906139
0.125261
0.01244
-0.282979
-0.0231131
0.366383
0.217434
0.0580272
0.245911
-0.108921
-0.0881235
-0.150916
0.119725
0.124513
-0.0599305
0.00649332
0.131326
0.0844917
-0.0242076
-0.0506451
0.0404623
0.38616
0.0859158
0.131628
0.0357796
0.100342
-0.182846
0.0641166
0.114685
0.24551
-0.0773923
0.147076
-0.0156394
-0.0274351
0.20877
-0.0351206
0.232934
-0.0294264
0.0403325
0.423264
-0.0918644
0.0860721
0.0952077
-0.327343
-0.254253
0.22774
-0.026974
0.135913
0.0433838
0.0971071
0.282848
0.089466
0.178286
-0.194938
-0.517958
0.004417
-0.111443
0.0598148
0.455687
0.0418213
0.275062
0.153352
0.0217125
-0.127651
0.293629
0.228264
0.0174745
-0.168044
0.125443
0.1175
0.0182742
0.0259534
0.135466
0.280582
0.134473
0.00373916
-0.258416
0.0195626
0.161273
0.00830792
0.104085
0.00556332
-0.289345
-0.180948
-0.0264352
0.222575
0.239615
0.0305305
0.000653456
-0.114517
0.350839
0.0110694
-0.237839
-0.275199
0.24256
0.19211
0.215707
-0.00550611
-0.0155411
0.0346053
0.160104
0.123174
-0.0447412
0.176257
0.0516437
-0.206235
-0.0764309
0.112763
0.268206
0.244919
-0.172919
0.151997
0.122717
0.22962
0.249476
0.181801
-0.0536414
0.145276
0.0669044
-0.0539796
0.205117
-0.335858
0.0167629
0.252019
-0.13073
-0.180482
0.0889894
0.165266
-0.0117858
-0.148931
-0.0224257
-0.25688
0.326346
-0.00390736
-0.0360809
0.0989623
-0.193026
-0.0177042
0.190732
-0.202451
0.178357
-0.00963052
0.0284579
-0.0336336
-0.0768171
0.276547
0.00867346
-0.0521712
0.0917339
-0.268917
0.131606
0.0951538
0.0112227
0.0531078
0.0239555
-0.0983038
-0.0791638
-0.294293
-0.113175
0.0978325
0.234644
-0.0227058
-0.115841
0.140167
0.13094
-0.182559
0.0739534
-0.181759
0.432986
-0.115381
0.0910772
-0.182186
-0.13878
-0.19902
-0.382644
0.257875
0.368298
0.265096
-0.00864493
0.0650496
-0.0177002
-0.091476
0.254465
0.435891
0.0185482
0.265841
0.241938
-0.0950758
0.165251
-0.00956558
-0.319862
0.140983
0.00903692
0.254016
0.265723
-0.180182
0.09381
0.173886
0.141193
0.132264
-0.117177
0.238801
0.00584482
-0.217748
0.158457
0.202096
0.236407
0.0362632
-0.129356
0.041543
0.253446
0.231279
-0.0637508
0.433119
-0.124111
0.24336
0.148133
0.0101447
0.126225
0.0528163
0.105113
0.41174
0.19014
-0.0159225
-0.0889304
-0.189897
0.250317
0.085804
0.17427
0.181985
0.0519262
0.174137
-0.087742
-0.0119311
0.3439
0.00721575
0.182962
0.24083
-0.0254721
0.29201
-0.0414587
0.310163
0.102497
0.349878
0.12656
0.417509
-0.102489
0.164531
-0.154253
0.196106
0.0779238
0.470128
0.259158
0.397759
0.100479
-0.086507
-0.112418
0.0781134
0.228693
-0.374836
0.009745
0.131072
-0.011109
0.0106243
-0.0770784
0.390045
0.121332
0.137621
-0.0878936
0.0239525
-0.102756
0.0622316
0.251444
0.438874
0.185718
-0.145773
-0.114423
-0.206121
-0.109501
-0.040598
0.0419342
-0.1834
0.116909
-0.280912
0.16246
0.135487
0.185216
-0.106099
-0.0866517
-0.037817
0.162459
-0.0170774
-0.158504
-0.0217173
0.306688
-0.0230025
-0.147735
0.229393
0.0138285
-0.0483006
-0.0278498
0.160169
-0.0965408
0.17261
0.0658436
0.231154
0.0171724
0.22476
-0.113008
0.317766
-0.170036
-0.376118
0.202422
0.0869879
0.123224
0.00172843
-0.0869229
-0.136585
0.121661
0.26393
0.0289676
-0.203838
0.0321815
0.050547
-0.194534
0.0987354
0.364773
-0.255023
-0.148675
-0.00817275
-0.225187
0.121083
-0.324703
-0.0538991
0.232398
0.0725334
0.0986123
0.0901842
0.165251
-0.0367087
0.0235233
0.259407
0.126875
0.0114183
0.463454
0.061617
-0.134445
0.202038
0.2853
0.172619
-0.448081
0.107713
0.329557
0.00917496
0.286142
0.285582
0.00188371
-0.0854226
0.277151
0.112743
-0.11266
-0.122977
0.420004
-0.0670232
-0.00281305
0.0440433
-0.186056
0.126777
0.124516
0.105744
-0.0121702
-0.00158957
0.0376033
0.624408
-0.292879
0.0318305
-0.157509
-0.00585774
0.145531
-0.294874
0.0922546
0.154245
-0.00403245
-0.0111221
-0.000574868
0.206387
0.28103
-0.439241
0.316149
0.229761
0.0604432
0.33662
0.169926
0.283382
0.179289
0.00116583
-0.010239
0.178248
0.101242
0.0649837
0.336174
-0.0705555
-0.0221511
0.116118
-0.133761
0.33621
0.0398363
-0.105861
0.190196
-0.116519
0.318089
-0.0143117
-0.208234
-0.198755
-0.00722321
0.131966
0.0611217
-0.0358833
0.173468
0.0764633
0.194787
0.0513434
-0.0547309
0.146932
0.105732
0.259371
0.332234
-0.0860566
-0.00398274
0.105293
-0.0887346
0.452164
0.188435
0.115267
0.0916409
0.234657
0.143878
0.19662
-0.192278
0.00210467
0.106887
0.118125
-0.0576378
0.104192
0.256348
0.025349
0.241802
0.408136
0.216615
0.233509
0.0102814
-0.234056
-0.0168666
-0.226574
0.153876
-0.0550317
-0.382996
0.00866818
0.29024
0.22057
0.126312
-0.0260796
0.0442107
0.287397
0.26557
0.160323
0.0801765
-0.239304
0.170073
-0.35427
0.257434
0.0204308
0.297894
0.116246
-0.0350146
-0.0478327
-0.11278
-0.218625
-0.0437478
0.337977
0.11602
-0.0277121
0.052128
0.201904
-0.0444176
0.0341075
-0.075193
-0.4678
0.629694
-0.183563
-0.0757862
0.464027
0.058705
0.260257
-0.25187
0.164695
0.388155
0.339987
-0.0631488
0.120817
0.0995406
0.56309
0.156422
0.601419
0.269984
-0.0679221
0.460052
-0.137256
0.5498
-0.176777
0.612668
0.133719
-0.137984
0.600277
0.0358327
0.129684
0.279786
0.125529
-0.0418221
-0.0952408
0.191976
0.166316
-0.102805
-0.0466156
0.407619
-0.062525
0.204042
-0.0248688
0.424878
0.381782
0.0233497
0.533147
0.0365322
-0.0568902
0.0811234
0.0512549
0.0402514
0.231137
0.232441
-0.225092
0.226443
-0.0430189
0.16102
-0.271095
-0.0406491
0.0616626
0.291962
0.197037
0.133372
0.379911
0.135496
-0.250737
0.0850646
0.254729
0.107291
0.192758
-0.229666
-0.0581479
0.153194
0.110759
-0.0622064
0.0393198
0.460613
-0.0202524
0.470106
0.501511
0.125807
0.130773
0.15613
0.320864
0.0199098
-0.0393735
0.14634
-0.0507942
0.346801
0.273512
-0.295646
0.242042
0.0955012
0.262228
-0.0671158
-0.0261286
-0.137178
-0.174158
-0.153963
0.0193508
-0.189036
-0.153588
0.0980447
0.0730277
0.421757
0.275107
-0.130756
0.38066
-0.181244
-0.103772
0.261347
0.1116
0.246456
-0.0117946
-0.101309
-0.134662
0.298582
-0.0158379
-0.253549
-0.139148
0.0942582
0.30186
0.0894186
-0.0328645
-0.0689695
-0.0125898
0.354066
0.387415
0.361835
0.0364429
0.13062
0.294194
-0.0740542
-0.0497163
-0.398083
-0.39498
0.17351
0.452827
-0.280848
0.188892
-0.229129
0.164416
-0.240098
-0.241738
0.18521
0.0930122
-0.11973
0.117972
-0.0494468
-0.26832
0.0073166
-0.194035
-0.19507
-0.203829
0.0519868
-0.0219148
0.248703
0.287437
0.228718
0.248914
0.338997
0.00838054
-0.182267
-0.11572
0.296638
0.025066
0.208152
0.0168772
0.229081
0.158284
0.236999
0.118603
0.0889628
-0.00111615
-0.368411
-0.15094
0.149224
-0.0309391
-0.122736
0.00219605
0.148674
0.136657
-0.0117276
-0.00438067
-0.445951
-0.0944788
-0.00629893
-0.239422
0.101091
0.0812134
-0.0509175
-0.0357145
-0.172651
0.11474
0.107888
-0.0431198
-0.066304
0.260015
0.0514834
0.258839
0.0720774
-0.2408
-0.139059
-0.0401504
0.157706
-0.0236569
0.277119
-0.16389
0.0927469
-0.0369879
0.182799
-0.0848705
-0.150147
-0.136073
-0.0740998
-0.229113
0.170821
0.0516702
0.187611
0.483467
-0.196071
-0.0399366
0.268271
0.111521
0.0575741
0.143134
0.0376083
-0.180652
0.131526
0.235832
0.137659
-0.142313
0.172517
0.0433468
-0.016975
-0.0316749
0.0335069
0.143125
-0.0428899
-0.134175
-0.0465855
0.0718725
0.122449
-0.261716
0.262485
0.103844
-0.108825
-0.024992
0.274309
0.050792
0.145042
0.0540574
0.201519
0.355923
-0.200051
-0.0458683
0.158795
-0.103374
-0.0452229
-0.0538337
-0.0590995
0.0192668
0.141792
-0.179059
0.061349
-0.0160841
0.0350273
-0.0341874
-0.092169
-0.0447926
0.419223
0.37235
0.211746
0.0674195
0.332529
0.0568844
0.0406932
0.192969
-0.0938401
-0.187079
0.339471
0.0630775
-0.165884
0.16606
0.349616
0.0806461
0.46332
-0.0650702
0.0288694
0.0515157
-0.276528
-0.0785088
-0.163687
-0.180478
-0.0897085
-0.143809
0.262856
0.169645
0.101546
0.276945
-0.0890126
0.149801
-0.0939964
-0.00781624
-0.0873378
-0.239371
0.0795089
0.246844
-0.176384
-0.0564602
0.0267425
-0.0847257
0.228496
0.142378
-0.156661
0.0091984
-0.0981406
-0.0564392
0.352719
-0.0691322
-0.0256116
0.214563
0.12944
0.191849
0.0356389
0.0428863
0.107269
-0.0280764
-0.152461
0.265529
0.128951
0.183026
-0.0240752
0.281788
-0.112413
-0.0911045
0.183291
0.176657
0.0449926
-0.0716614
0.110745
-0.221507
0.150212
0.105233
-0.126612
-0.17843
-0.0614044
0.201433
-0.108072
-0.216126
0.242696
-0.127846
0.217731
0.0136181
-0.0939131
0.304564
0.30779
0.0899535
0.615283
0.0415482
-0.0143262
0.0696546
-0.0659758
0.144145
-0.0977081
-0.0398177
0.203593
-0.0705875
0.180155
-0.0485858
0.139829
-0.0079952
0.0403546
-0.0399784
0.0790468
-0.264193
0.109126
-0.309311
-0.0906338
-0.119022
-0.055875
0.000750995
0.0267844
0.0282757
-0.0134411
-0.0174343
0.0263067
0.29734
-0.090915
-0.0973516
0.159901
0.133891
-0.266575
0.098755
0.0628908
0.169542
0.151407
-0.0927035
-0.0308933
0.0101762
0.111392
0.00375248
0.109141
0.00531593
0.0784781
-0.0080628
-0.0533977
0.0374983
-0.0161802
0.00505433
-0.17876
-0.180412
0.0715273
-0.00667892
0.142992
0.227429
0.0690898
0.0326288
0.141038
-0.247726
0.0119212
0.0815615
-0.04983
-0.113644
0.162322
0.171195
0.0175834
0.0877085
0.302973
0.111646
0.273045
0.0061576
0.209462
0.217308
0.00519341
-0.189403
0.0595208
-0.0545545
0.235438
0.117021
0.11497
-0.0294839
-0.108017
-0.0347212
-0.21305
0.0900346
0.101605
0.0689254
0.327539
-0.0499323
0.00363521
0.221181
0.0898383
0.0223579
-0.106752
0.049131
0.0984613
-0.022192
-0.331122
0.138664
0.258556
0.220634
0.16431
0.174798
0.056657
0.233746
0.188231
0.0734024
0.365021
-0.254887
0.078319
0.139837
0.0242429
0.263071
0.192771
-0.0802348
-0.0780095
0.203363
0.280125
0.466634
0.09956
0.113791
0.277886
0.220503
0.0867632
0.17417
-0.015523
0.25153
-0.126773
-0.0223344
0.130622
-0.12096
0.0154134
0.0138227
0.219028
0.320947
-0.0680134
-0.014018
0.157621
0.0586616
0.181896
-0.167356
0.20126
0.105774
-0.298359
0.571729
0.267904
0.0156126
0.0819202
-0.103156
-0.152298
0.131937
0.0891184
0.184481
0.160313
-0.0363076
-0.0971619
0.128165
0.0884274
0.0516014
-0.256086
0.252171
0.156258
-0.305748
-0.246786
-0.0285148
-0.225613
-0.403303
-0.123987
-0.191533
-0.317027
0.0857661
0.103252
0.243871
0.0186108
0.186985
-0.0728205
0.0802719
0.0096083
0.0334086
0.109101
-0.413819
-0.2363
-0.105269
0.148575
0.0904245
0.0327583
-0.201453
0.0337911
-0.351634
-0.0366564
0.0929243
0.129107
0.197596
0.285985
0.171984
0.157487
-0.0969364
0.109213
0.377037
0.231797
0.268907
0.19967
0.300663
0.0245367
0.0120924
0.332511
0.102161
0.140762
0.282728
0.168451
0.0209003
-0.0591338
0.00918804
0.247917
0.000725057
0.341469
0.360694
-0.0862716
0.115572
0.289479
-0.230513
0.193627
-0.0978091
0.121214
0.108579
-0.023581
0.370622
0.125059
0.182149
0.0707627
0.135389
0.0139462
0.195062
0.229527
0.144675
0.182366
-0.138438
0.0908339
0.0162315
0.0463231
-0.0351562
0.0330713
0.131229
-0.151326
0.104511
0.200471
-0.184731
-0.0152553
-0.116761
0.217239
0.092238
0.266696
0.0717176
0.0959763
-0.0022227
0.0901317
-0.00316621
-0.184
-0.230331
0.182123
-0.169508
0.00861024
0.323971
-0.242737
0.300288
-0.255912
-0.0941628
0.252126
0.0874871
0.0842541
0.31956
-0.146362
-0.0254936
0.0986422
-0.0894192
-0.0162755
0.193235
0.287112
-0.176074
0.252114
0.102763
-0.00914602
0.0508146
0.171422
-0.175755
-0.0311744
0.0630333
0.19149
-0.092924
-0.187558
0.226153
-0.0502751
0.437566
0.0421243
-0.0421062
0.28813
0.0421243
-0.0485182
-0.342802
0.0141651
-0.106961
-0.0369843
-0.0101388
0.205777
0.116805
0.0514464
0.0796698
-0.00739891
0.118662
0.331814
0.236857
0.0642854
-0.0191751
0.0331265
0.260087
0.240574
0.494063
-0.0366765
0.108743
0.15983
-0.227798
0.0695788
0.399743
0.168911
-0.144352
0.410988
0.129329
0.261806
-0.348993
0.18549
0.181267
0.0159974
0.134757
0.0242418
-0.0593771
-0.128918
-0.247369
0.372241
-0.130748
-0.12316
-0.100893
-0.0118666
-0.174237
0.0668995
0.0925256
0.152543
0.12835
-0.0835431
-0.185267
-0.124304
0.232146
0.178868
0.0684594
0.30473
0.0449145
0.0576619
0.243511
0.181028
0.254885
-0.0689644
-0.0359454
-0.157725
-0.272586
-0.0103593
-0.0215662
0.0996513
0.141889
0.267749
0.0542333
0.147668
0.0911931
0.122128
0.0799071
0.0209074
0.176262
-0.0441071
0.286272
-0.0451201
0.0139097
0.321639
0.200251
0.230322
-0.00835497
-0.336996
-0.00190438
-0.058288
-0.0482486
0.070201
-0.236081
-0.118705
0.145881
-0.220121
-0.0139287
0.0870453
0.0404099
0.217606
-0.189005
0.111836
-0.00800322
-0.0740452
-0.314027
-0.0674558
-0.0883756
0.35484
0.309117
-0.287051
0.0898761
-0.153487
-0.0630804
0.209995
0.0343294
0.227358
0.0842967
0.129543
0.19378
-0.239448
0.29717
0.0125991
-0.120306
0.0916782
-0.305081
0.184621
0.221434
-0.405131
0.432091
-0.0563808
0.18528
0.0842841
0.158609
0.110325
-0.0935423
-0.0280011
0.339896
0.165854
0.292416
-0.140778
-0.328841
0.0412097
0.126802
0.216185
-0.0747725
0.204589
-0.326377
-0.00856262
-0.177216
0.241015
-0.140945
0.230548
0.19348
0.108023
0.114513
-0.173419
0.156334
-0.187504
-0.0140278
-0.143542
0.368649
0.0877404
-0.427875
0.164119
0.107627
0.0212093
-0.0439903
0.0436036
0.120777
0.123437
0.0580104
-0.0140254
0.110415
-0.102445
-0.0699018
0.152711
-0.314175
0.359845
-0.14682
0.0178679
-0.06186
0.148692
0.145871
0.0713608
0.0791888
0.021698
0.0192115
-0.115113
0.0498644
0.0590149
0.143395
0.0139543
0.406877
0.151775
0.0917017
0.490304
0.129182
-0.109455
-0.120943
0.0513224
0.250983
0.204771
0.136082
0.210401
0.0610206
-0.0311538
0.331083
0.0671437
0.297556
0.0793158
0.460794
0.125423
0.191712
0.059602
0.191018
0.121376
0.195089
0.0722213
0.469911
0.144724
0.075129
0.0631234
0.0658844
-0.163985
0.126577
0.0743417
0.10983
-0.116231
0.11121
-0.0583343
0.151286
-0.0411611
0.0822377
-0.0961442
-0.0839096
0.00262674
-0.12531
0.381314
0.0647199
0.321855
0.0345608
0.188772
0.142856
0.175729
-0.0497285
-0.0270745
-0.0295339
0.320118
0.0826802
0.150898
-0.170859
0.0690337
-0.093286
-0.0103792
0.30786
0.116034
0.162217
0.157286
0.0274056
0.24923
-0.134883
0.174644
-0.0721437
0.142647
0.0294107
0.109845
0.0977092
0.0175368
0.173388
0.242081
-0.0520064
0.303115
-0.112587
-0.271814
-0.0511599
0.141195
0.18696
-0.0810575
0.0199024
-0.0349392
0.0249598
0.363177
0.010916
-0.273162
0.0990302
-0.0110072
0.00458125
0.271756
-0.0328811
0.195765
-0.149498
-0.15206
-0.103803
0.0198457
-0.331818
0.0156424
0.217497
0.0894212
-0.00811639
0.0532842
0.0601086
-0.17233
-0.0930238
-0.105533
-0.170151
0.0651022
-0.107893
-0.221411
0.42637
-0.0192441
0.207127
-0.180292
-0.171259
0.298597
-0.242972
0.0678611
-0.101941
0.176058
-0.360348
0.299333
-0.0845591
-0.0789463
0.0116028
0.226289
0.123009
0.00324504
-0.0954352
0.266126
0.0747653
-0.114448
0.0514549
0.182205
-0.1941
0.0720788
-0.0802914
0.0668895
0.182283
0.0780679
-0.354987
0.237556
-0.0465562
0.0372366
-0.0956396
0.00829175
0.150737
0.140775
-0.0972206
0.092494
0.201601
0.036909
0.237596
-0.073926
0.22972
0.0901009
-0.12306
0.480143
0.102199
-0.165541
0.175202
0.072105
-0.0774082
-0.0269514
0.0957302
0.230362
0.20115
0.269054
0.0459065
0.165832
0.27184
0.0195161
-0.121853
-0.157225
0.166519
0.0523889
0.321849
0.0931407
0.107596
-0.0162089
-0.023672
-0.101556
0.154807
0.0775025
0.0345417
-0.0100315
0.133644
0.131164
0.0762779
0.0339584
0.29726
0.00124967
0.013876
0.117371
0.338358
0.139381
-0.244783
0.176465
0.263365
0.176708
0.0865153
-0.120313
0.198883
-0.16349
-0.0211236
0.107484
0.0972637
0.00378869
-0.112111
0.217768
-0.048658
0.00894811
0.0402337
0.266161
0.128403
0.244968
0.245957
0.188464
0.251684
-0.162918
-0.122825
0.0345052
0.256097
0.126148
0.148509
0.101968
-0.0228571
-0.105644
0.0198566
0.152046
-0.0480513
0.259238
-0.187978
0.0330177
0.0484581
0.0337375
0.315578
0.127124
-0.148351
-0.114098
0.0676625
-0.0617347
0.230576
-0.273191
-0.0179044
0.0494064
0.095288
-0.279201
0.171557
0.16561
0.142423
-0.274316
-0.0675624
0.426539
0.12448
-0.0396653
-0.0230699
0.123368
-0.105613
0.344202
0.298859
-0.0821754
0.0234485
0.117604
0.225586
0.550632
-0.0403544
0.248009
0.297232
0.099248
0.212495
0.19406
0.314381
0.00321312
-0.0982832
-0.00609271
-0.061796
0.142379
0.380562
-0.0237914
-0.0899337
0.0446784
-0.238229
-0.0598286
0.0894316
-0.362563
0.179646
-0.267896
-0.0613806
-0.147915
-0.11817
0.171922
-0.157983
0.0741787
-0.147156
0.0987804
0.032016
-0.0892497
-0.102023
-0.131224
-0.0806821
-0.0614326
0.0298874
0.0112116
-0.0137198
-0.157482
-0.0479098
0.0690813
-0.128414
-0.0980196
-0.148083
-0.0712634
-0.0223916
-0.175479
-0.0392087
0.0513992
0.0694751
-0.243714
-0.0891335
-0.190723
0.158937
-0.160224
-0.120994
-0.382929
-0.14899
-0.0878012
-0.0235022
0.252732
-0.00940871
-0.0418698
0.0467399
0.0472866
-0.0158822
0.0212441
-0.0291853
0.0126153
0.0632829
-0.179003
-0.014667
-0.220643
-0.120368
-0.107363
0.107754
-0.369184
0.120221
-0.0538067
0.00113969
0.335861
-0.0028031
-0.206979
0.00215735
0.168595
0.261613
0.123866
0.0551664
-0.0806424
-0.0207282
0.347929
0.0196751
0.0890784
-0.151479
0.270931
-0.0863978
-0.154378
-0.102701
-0.0109136
0.256557
0.106676
-0.288986
-0.0255226
-0.00268946
-0.118147
0.237076
0.112316
0.186037
0.00685662
0.244205
0.263797
0.398342
0.0276143
-0.0197819
0.214198
0.0950624
0.427409
-0.184235
0.205598
0.239361
-0.0149745
0.309358
-0.0524811
0.187476
0.102475
0.390634
0.143828
0.325523
-0.150396
0.0372551
-0.053661
0.390149
0.397547
0.0367531
-0.0571432
0.0232267
0.209774
0.18406
0.053733
0.418669
0.318815
0.120706
-0.21776
0.184986
-0.126043
-0.245041
-0.0258179
-0.125774
0.106469
0.0441615
0.0324378
0.12705
0.0960924
-0.108022
-0.0674299
0.0385689
-0.156684
0.18185
-0.0888336
-0.0209023
-0.228759
-0.0523219
0.0442811
0.0263079
-0.0290482
-0.16984
0.0107899
-0.0946437
-0.154796
-0.0660749
-0.206902
-0.0587736
-0.0188044
0.0438442
0.0935978
0.102926
-0.0201143
0.105579
0.0931211
0.0967651
-0.162527
0.0342729
-0.170416
0.000693666
0.0283115
-0.031712
0.028046
-0.0114243
0.0351801
-0.253363
-0.0224945
-0.291325
0.0312472
-0.0436824
-0.0874025
0.0987549
-0.185274
-0.0515731
0.102868
0.138374
-0.358539
0.00874743
0.0516688
-0.150018
0.170255
-0.0089221
-0.134268
0.218924
-0.0901791
0.242112
0.0510701
0.14858
-0.0873201
0.294509
0.388058
0.302468
0.238607
-0.270033
0.429002
-0.0842322
0.095765
0.0689224
0.323963
0.0645876
0.0644596
0.360688
0.253327
0.0439693
0.0503575
0.177766
0.0574469
0.124265
0.329543
0.304491
-0.100294
0.0480785
0.322829
0.0518019
0.151539
0.194045
-0.095848
-0.0492121
-0.0341632
0.276149
0.207573
-0.00307791
0.106755
0.00789603
0.335576
0.239948
-0.086484
-0.118015
0.05067
0.00740949
0.30833
0.0887927
-0.232312
-0.158489
0.174666
0.141623
-0.0534781
0.193384
0.0888845
0.298283
-0.132411
0.408343
-0.0911502
0.29313
-0.0721049
-0.18188
-0.00770423
0.0977106
-0.268908
-0.160181
0.14191
-0.0427451
-0.0183902
0.11761
-0.0557347
-0.0366493
-0.068376
-0.181044
-0.155108
0.0979754
0.0305231
0.32594
-0.0424243
-0.0422186
0.021151
0.167035
0.312961
-0.0729577
0.11008
0.0132806
0.0620522
-0.235054
0.148081
-0.0711023
0.0301888
-0.0780136
-0.258779
-0.0609094
-0.0385283
-0.00578644
-0.0302303
-0.0131448
-0.0483801
-0.130409
0.0702836
0.029646
-0.0596746
-0.0294556
0.0290587
0.0111599
-0.0353268
-0.1302
0.0187994
0.343818
0.0693986
-0.125772
-0.0438544
-0.208252
-0.300225
0.0148206
0.0312817
-0.152154
-0.164259
-0.177169
0.331375
0.014273
0.0292709
-0.0155107
0.0556456
-0.263831
-0.0790109
0.265757
-0.144403
-0.0631236
0.143405
0.0667066
0.214418
0.0370838
0.0439319
-0.124843
0.0660489
-0.0344207
0.170402
0.0670152
0.23009
0.0307565
0.165513
-0.203303
0.0521172
-0.134448
-0.165036
0.153296
-0.0690597
-0.0343983
0.219276
-0.00130479
-0.0344227
0.00144779
0.0265764
-0.0987934
0.105458
0.1277
-0.075214
-0.205599
0.212809
-0.0949118
0.228045
-0.315878
0.117275
-0.104844
0.151799
0.152593
0.00335407
0.178169
0.216685
0.480453
0.0290428
0.111717
-0.0754336
-0.274672
-0.110737
0.259538
-0.484911
0.00357235
-0.279777
0.13011
0.10346
-0.0991341
0.295808
0.0263131
0.0920352
0.0664428
0.101718
0.395088
-0.227507
0.0642949
0.129389
0.0539688
0.127197
0.0123579
-0.0694675
-0.0500818
0.136635
0.377317
-0.208694
-0.0154327
-0.129055
-0.131939
0.180541
-0.11007
0.217537
0.262132
0.0352563
0.0934803
0.212417
0.0570242
0.16012
0.0915716
-0.18163
0.266519
0.213869
0.297137
-0.263283
-0.0355245
0.220744
0.186489
0.194214
0.0708054
0.395759
-0.0806578
0.29307
-0.0369236
0.169896
-0.315531
0.197737
-0.075307
-0.0286232
0.317243
0.0278979
-0.0810221
0.316119
-0.193001
-0.168333
-0.0319407
-0.11709
0.232869
0.132037
0.0703222
0.051999
0.118674
0.247482
-0.0717964
0.246897
0.0584588
-0.0270422
0.455365
-0.225685
-0.0646276
-0.11523
0.19632
0.0217646
-0.237153
0.22232
0.0258408
0.0818564
-0.0799428
0.102894
-0.21402
0.0332035
0.0560672
0.122049
0.108331
0.0165176
0.0858969
0.0415798
0.0354983
0.26028
0.0161589
-0.0376881
-0.027265
-0.10723
0.0266425
-0.185547
0.112459
-0.189644
-0.184169
-0.0995423
-0.228828
0.0710588
0.188867
0.216323
-0.169619
0.277346
0.168844
-0.0263943
0.190575
0.0503836
0.0624111
0.104502
-0.0904142
-0.184447
0.0730975
0.0698018
0.0628951
-0.175469
0.312664
0.0949486
0.0433796
0.149165
0.112219
-0.15145
0.337533
-0.0569189
-0.0738873
0.4559
-0.032859
-0.130253
0.121572
0.168371
0.0823641
0.235676
-0.0989482
0.169952
0.0981944
0.0694193
0.143114
-0.00549623
0.103913
-0.0802541
0.119708
0.0342097
-0.0478819
0.132029
0.000439619
0.258994
-0.118748
-0.448935
-0.0250228
0.42054
-0.159315
0.327659
0.240681
-0.0789263
-0.083058
0.00400365
0.00201481
0.0766867
-0.224066
-0.0323622
-0.142719
0.102561
0.24211
0.183944
-0.0890165
-0.0214395
0.172494
-0.309934
0.0407787
-0.0488577
0.205208
0.0383266
-0.252239
0.0608347
0.158531
0.252694
-0.0559625
0.0167714
0.119102
0.149564
0.00898103
-0.0902579
0.310475
0.164092
0.120605
-0.0223463
0.10142
-0.253885
0.230666
0.0476706
0.0080751
0.328101
0.0496811
-0.0915939
-0.0180561
-0.118264
0.0068441
-0.0704091
0.151245
-0.0689497
0.0869834
0.054602
-0.0528473
0.087772
0.0505093
0.183278
0.298717
-0.184244
-0.0864234
0.0630862
0.172607
0.154716
0.16204
0.195413
-0.132938
0.121096
-0.0844626
0.135447
0.0597263
-0.134766
0.0167806
0.116994
-0.105561
0.0823534
-0.2164
0.093552
0.13249
0.281609
0.14743
-0.0568935
0.0817359
-0.0390468
-0.00190972
0.190619
-0.0871671
0.351145
0.163157
-0.0263467
0.129926
-0.146134
0.192457
0.0196809
-0.103687
0.181215
-0.00906414
-0.0483984
-0.134848
-0.131839
0.144501
0.373092
-0.118062
-0.185575
-0.0119425
-0.128529
0.204898
-0.094095
0.139898
0.12771
0.11659
0.121313
0.190963
0.221001
0.0553405
0.198147
-0.0216821
-0.264709
0.293057
0.250644
0.16379
-0.427313
-0.254552
-0.0528571
-0.3004
0.259038
0.086211
0.153394
-0.192957
-0.147635
-0.198215
-0.155856
-0.249052
-0.033657
-0.0710718
0.0567553
0.331311
-0.07085
0.0769407
-0.00956324
0.284347
0.131432
-0.0307769
-0.214272
0.0701755
-0.0315839
0.30816
0.104162
-0.277096
0.342524
0.455242
0.235114
0.0192938
0.13815
-0.0744855
0.183078
0.0708632
0.0465209
-0.0540606
-0.0528084
0.254186
-0.0783816
0.225193
-0.0479641
0.247978
-0.124699
0.0271026
-0.0340307
0.30601
0.204176
-0.087818
0.175708
-0.00565597
-0.262546
-0.00804166
0.0865339
0.0442994
-0.0960457
-0.243631
0.10393
0.102881
0.040156
0.0346147
0.0662103
0.0069394
0.0606816
-0.0388488
0.0345734
-0.167684
-0.17265
0.0753996
-0.148863
-0.0119385
-0.172824
0.229764
0.0501186
-0.147021
-0.0880876
0.0525232
-0.0333683
-0.0451444
0.034496
-0.10649
0.28259
-0.0467214
-0.26138
-0.0250195
0.263325
-0.101103
-0.0656581
-0.0785823
0.0300473
-0.0762761
-0.151055
-0.0805721
-0.116951
0.197333
-0.433749
-0.0116834
0.174918
-0.219945
0.00862552
-0.00708525
-0.218062
-0.0894708
0.0172389
0.000410801
-0.263752
-0.0654558
-0.0824862
-0.221354
-0.0625266
-0.25187
-0.0739547
-0.211314
-0.357284
-0.27329
0.0897284
-0.201146
-0.0134217
0.0335405
-0.0372066
0.227743
-0.17306
-0.17707
-0.00131155
0.0812221
-0.259717
-0.0556155
0.0833646
-0.231359
-0.154496
-0.0631145
-0.0586033
-0.156492
-0.142947
0.0328364
-0.020371
0.0175078
0.17227
0.187577
-0.042219
0.0105958
0.0188037
-0.0115123
0.232664
-0.263861
0.173527
0.135805
-0.211976
0.094369
0.0907363
-0.135535
0.0737324
-0.0325197
-0.14948
0.241279
0.0122312
0.277721
-0.0894669
-0.0848143
0.0518394
-0.0351027
0.109855
-0.0401986
-0.139466
-0.163447
0.124752
-0.032879
0.0973824
-0.233529
0.0069778
0.105379
0.291407
-0.117691
0.361055
0.173711
0.215872
-0.0191492
-0.131094
0.240981
-0.0228407
0.157659
0.0233635
-0.14355
0.164067
-0.193581
0.125073
-0.0533868
-0.14246
0.0182047
-0.0610147
0.0296328
0.257933
0.153748
0.229212
-0.0194397
-0.238466
-0.06417
0.00266112
-0.0335661
0.145887
-0.132118
-0.0945932
0.18877
-0.215781
0.00307654
-0.0586424
-0.320936
0.174439
0.194405
0.353626
0.13959
-0.0446166
-0.102943
-0.252516
-0.0784914
0.0947136
0.0822438
0.192236
0.0220122
0.0434992
0.276249
-0.134837
-0.145253
0.27961
-0.132141
0.171672
0.135089
0.0474613
-0.126656
0.525845
-0.116604
0.182764
0.231718
-0.253028
0.0779291
-0.159191
-0.104907
0.135214
-0.158954
-0.285684
-0.0872139
-0.0693918
-0.0868592
-0.0714946
0.109529
-0.00957269
0.0359596
-0.182183
0.0170887
0.130572
0.0975517
0.0664295
0.394252
-0.00274704
0.0579906
0.012226
0.123461
-0.19584
-0.227182
-0.140028
0.0626608
0.10995
0.0501537
0.129343
0.119009
0.239288
0.0830054
0.294484
0.14844
0.318832
0.125008
-0.013692
0.178248
0.0585248
0.180214
0.102235
0.132762
0.0479896
0.596336
0.319662
0.434093
0.108725
-0.0173687
0.0909182
0.0826628
0.207891
-0.0852397
0.181126
0.0872254
0.0197227
0.463105
0.167651
-0.222731
0.0478543
0.111539
0.287928
0.207022
0.00689409
0.197785
0.092227
0.150375
0.174746
0.125807
0.0618949
-0.0578043
0.327523
0.0579157
0.0534194
0.0637184
0.322341
0.301022
0.211065
0.155455
0.0622371
0.140991
0.0407501
0.186458
-0.0910091
-0.0108172
-0.0733085
0.11099
0.138426
-0.202977
0.0206432
-0.152027
0.12234
0.137779
0.0786171
-0.0144937
-0.193277
0.11915
-0.164985
-0.0496434
0.225497
0.347024
-0.0930082
-0.109244
0.171299
0.186544
0.0047813
0.245366
-0.387463
-0.108286
0.253792
0.0586944
-0.117425
0.28044
0.170817
0.161237
-0.00244465
0.0162707
0.321469
-0.0204385
0.236821
0.0979577
0.0936889
0.0822927
0.351166
-0.117993
0.242167
0.160805
-0.152105
0.0754878
0.301427
0.37081
0.0978863
0.0468319
0.0465751
0.0305828
0.18416
0.195503
0.177415
-0.120207
0.0872988
0.0411742
-0.10451
-0.425038
0.0384402
-0.169753
-0.0975883
-0.120283
0.0105294
-0.0177712
0.218947
-0.0268877
-0.129063
0.0202254
-0.0523969
-0.130423
0.0312645
0.0247568
0.0100036
0.0862291
-0.097102
0.094189
-0.0566364
-0.0185259
0.00553291
0.0257536
0.034921
-0.0257323
0.172798
0.0833523
-0.0488359
0.000948796
-0.0364518
0.107816
-0.17785
-0.13563
-0.0981431
-0.0891822
-0.216041
0.0455662
-0.0933333
0.0469402
0.123141
-0.144423
0.0487703
-0.0149867
-0.211572
0.0607886
0.0327177
-0.0196506
-0.0582825
0.0805125
0.0927593
0.0786629
0.090323
-0.0543202
0.0971276
-0.170239
-0.018266
0.152437
-0.0229791
-0.0670984
0.0961538
0.257111
0.0530352
-0.0521249
0.220192
0.191701
0.0753171
-0.188833
0.0219762
-0.0530258
0.317842
-0.0514984
0.162365
0.052941
-0.107044
-0.123639
-0.232628
0.113828
0.137682
-0.168598
-0.271005
0.0118397
-0.0397264
-0.218486
0.0379952
0.0669189
-0.160336
0.183029
0.0157757
0.418937
-0.179445
0.184923
-0.0395169
0.0168174
-0.14555
0.163986
0.196586
-0.101266
0.138501
0.237127
0.235313
-0.154888
0.0681735
0.132581
-0.0711481
-0.116294
-0.177427
-0.0859281
0.369528
0.0965658
0.0150223
0.164659
0.0333792
0.285114
0.0422541
0.00534113
-0.00881526
0.111017
-0.120892
0.203718
0.0561244
0.0615906
0.27714
-0.0743403
-0.0613403
-0.248644
-0.00958738
0.167368
-0.16567
0.0414358
-0.0025772
0.0644876
-0.0352082
0.114189
0.0748047
0.123076
0.0700603
0.0255213
0.131005
-0.0583372
0.264169
-0.149402
0.0357908
-0.0775023
-0.23682
0.0831061
-0.0318333
-0.0665722
0.180313
0.0234597
0.0971186
0.095289
-0.140592
0.106274
-0.264758
0.242833
0.147234
-0.0422102
0.121273
0.235591
-0.0873405
0.21447
0.0311633
0.534385
0.260763
0.387155
0.224626
0.0261432
0.172121
0.121738
0.382753
0.0943497
-0.109736
-0.307104
-0.149849
0.0707781
-0.2524
0.109127
0.193658
0.320539
0.165375
-0.0890521
-0.0250653
-0.0937273
0.0381355
0.0570899
0.135302
-0.235832
0.0904393
-0.125024
0.241153
0.00394729
0.182157
0.0113168
0.122292
0.123673
0.0470323
-0.0582188
-0.0382376
-0.367212
-0.0979543
0.388438
0.0191684
0.0800894
-0.153761
0.216127
0.385563
0.163139
0.268633
0.308878
0.0118217
-0.10374
0.315142
0.243229
-0.486516
-0.110439
-0.148347
0.236571
-0.142686
0.166333
0.274163
0.208866
-0.236786
0.17071
0.0727236
0.128146
0.189209
5.82987e-05
0.0416081
-0.421451
0.140718
0.195927
-0.0615951
0.285969
0.280475
0.268944
-0.0180085
0.0457315
0.612267
-0.0708804
-0.0616612
-0.113208
-0.058435
0.187105
0.1872
-0.175615
0.354024
-0.388837
0.388824
-0.219069
-0.0372571
0.231415
0.261942
0.0641782
-0.0532807
0.189152
0.0925836
0.0921999
0.138063
-0.225744
0.0155308
-0.089929
0.0100022
-0.195813
-0.145039
0.191412
-0.110699
-0.31549
-0.307485
0.205742
0.280577
0.00520925
0.039671
0.104544
-0.104944
0.164143
0.129439
0.115822
-0.0700824
-0.192044
0.253921
-0.0479483
0.134262
0.230594
-0.0298409
0.0424496
0.153408
0.235867
0.378868
0.11986
0.0803125
0.0813593
-0.124679
-0.0230745
-0.092313
0.232951
-0.177908
0.354211
0.363689
0.179928
-0.0550882
0.0230834
0.292649
0.0400931
0.0194508
-0.0623619
0.31033
0.155006
0.273243
-0.0548569
0.069939
-0.212891
0.186699
-0.0300277
-0.104637
0.0677512
-0.145713
0.000456748
0.0468485
0.298806
0.09478
0.243305
-5.19786e-05
-0.124155
0.207876
0.386571
0.18462
0.0690889
0.109888
-0.0386493
0.00950431
0.20543
0.172426
0.129414
-0.349739
-0.0510917
0.0247629
0.0893846
-0.0528474
0.23085
0.237741
0.0977923
0.0439963
0.37213
-0.0257378
-0.025234
0.19597
-0.210456
-0.09683
0.189059
-0.0165174
0.393238
0.203865
0.180814
0.231301
0.441715
0.186328
0.231039
-0.351336
0.111484
0.510524
0.0589253
0.247481
0.215671
0.316812
0.0817
0.0171139
0.149882
0.168218
0.210919
0.0736489
0.113071
0.0862383
0.280159
0.131904
0.0687323
-0.131225
-0.137495
0.437149
0.0597636
0.067634
0.162353
-0.600948
0.156142
-0.12311
0.225336
0.0242409
-0.12698
0.077213
0.0386942
0.276001
0.253979
0.233047
0.187267
-0.105296
-0.166958
0.242687
-0.0109979
-0.0885121
0.125442
0.27516
0.00736285
0.254658
-0.149439
0.143937
0.0380179
0.155525
0.224521
0.33962
0.0764324
0.196859
-0.111088
0.0795345
0.0256616
0.208662
0.232247
-0.0897075
0.116473
0.0545111
-0.132969
0.0657902
0.298558
0.201014
0.0958934
0.503141
-0.0833034
0.193485
0.349969
-0.0130727
-0.0705901
0.144372
-0.0515606
0.0170545
0.0801416
-0.281117
0.293973
0.199402
0.0332602
-0.160246
0.0456976
-0.0548355
0.103193
0.0738611
0.235564
-0.172262
0.225203
0.255064
0.444771
0.109078
0.473014
0.190643
0.195181
0.209221
0.101156
0.0258237
0.254471
0.0331631
0.211645
0.328591
-0.0730442
-0.0636057
0.253262
-0.206742
0.083174
0.0534735
0.0992427
-0.114597
-0.183877
0.142749
0.0738124
0.213849
-0.0327109
-0.315714
0.471503
-0.119871
0.0741779
-0.0209762
0.0822454
-0.242211
0.112201
-0.153058
0.0759386
-0.114654
-0.218014
-0.00652728
0.264971
-0.069087
0.238051
-0.107503
-0.278495
0.139556
0.0614274
0.0118805
-0.059673
0.115516
0.0685016
-0.0584704
0.152127
-0.0605903
0.00999867
0.323232
-0.0260237
0.0429536
0.295552
0.0861483
0.219808
0.0944369
0.137688
0.30055
0.0319122
0.333685
-0.149536
0.297339
0.295738
0.14847
-0.017612
0.135161
0.104554
-0.261291
0.119186
-0.00352307
0.0946546
0.217155
0.0202826
-0.0374298
0.385699
0.0921418
0.178588
0.0943597
-0.00993945
0.0569995
0.155354
-0.0459416
-0.000271453
-0.14005
0.175514
-0.172493
0.0666714
0.0499142
0.0628812
0.128448
0.244508
0.0639736
-0.0316463
0.148506
0.313819
0.133959
0.148831
-0.20957
0.220535
0.195657
-0.278772
0.292178
0.381833
0.157143
0.264004
0.093075
0.0629169
-0.0727524
-0.0567719
0.0799601
0.23426
-0.00636004
0.025199
0.135625
-0.20642
0.327697
-0.243126
0.199957
-0.10311
-0.0665311
-0.0798786
-0.0702761
0.190811
-0.42434
0.0168155
-0.143753
-0.0235915
0.23479
-0.0475726
0.124947
0.121621
0.120151
0.252305
0.00566929
0.403221
-0.0657317
-0.198071
0.0352377
-0.0468074
0.0782462
0.184305
-0.119596
-0.101656
0.186892
-0.0717915
0.0205239
0.176094
0.211812
-0.0317826
-0.240788
-0.161379
0.111444
0.0641585
-0.2372
0.132096
0.248314
0.302386
0.185909
0.363139
0.242623
0.522144
0.175654
0.428527
0.127469
0.156691
0.121425
0.400525
0.369378
0.466565
-0.168067
-0.128715
0.167088
-0.301126
0.298614
0.184497
-0.1254
0.192308
0.19662
-0.114316
0.227769
0.084638
0.130396
0.183546
-0.0154773
0.128415
0.277196
0.118092
-0.135115
0.00151539
-0.0819218
0.0743529
-0.00178036
-0.228453
0.101944
0.131176
-0.116175
0.102592
0.18159
0.226556
-0.0315467
0.0620025
-0.056389
0.129512
0.236743
0.0879401
0.132945
-0.0964116
-0.0759244
0.143035
0.0649425
-0.0111202
-0.00647928
0.175361
-0.282935
0.0524454
-0.113099
0.212339
0.212315
0.311576
-0.0286318
-0.254525
-0.20147
-0.108084
0.128738
0.143686
0.102932
0.20721
0.14862
0.101035
-0.0700513
0.390048
-0.1155
-0.0696642
-0.0717847
-0.0404462
0.0589741
-0.0750436
0.152435
-0.226693
-0.0782655
-0.141576
0.147445
-0.200998
0.107829
-0.101566
0.260469
-0.0341976
-0.0290163
0.0425137
0.15671
0.0641201
0.160481
-0.0372808
0.311205
-0.199916
-0.0826753
0.0475915
0.199986
-0.11862
-0.037154
0.187776
0.327301
0.252669
0.0904754
0.104452
-0.00856634
-0.112077
0.166913
-0.255488
0.369271
0.0486468
0.317735
0.0148385
0.229704
-0.0189787
-0.0268077
0.0651502
0.386953
0.10579
-0.113887
0.229852
-0.106133
-0.014515
0.141468
-0.0990598
0.320747
-0.0904882
0.143864
0.0487065
0.123463
0.0140397
-0.228539
0.0594162
0.123409
-0.0590261
-0.165477
-0.0844967
0.249093
0.034382
0.0268465
0.0924599
0.220162
-0.124613
-0.197856
0.0998142
0.120203
0.236923
-0.0814878
0.117612
-0.0243768
0.299372
0.211208
0.373676
-0.136199
-0.0402582
0.00295385
-0.268
0.0443031
0.126201
0.148258
0.0587188
0.160935
0.0891982
0.063186
0.138944
0.117367
-0.314188
0.0271996
-0.142134
0.154026
-0.10842
-0.0939415
-0.00675705
0.171835
-0.298463
0.098677
0.0613914
-0.0834944
0.0633981
0.186196
0.0495122
-0.123233
0.189914
0.10478
-0.0166179
-0.0441746
0.0232392
-0.186765
-0.103244
-0.0437011
-0.00922316
-0.157206
0.124201
0.136031
-0.0464818
-0.101657
0.331948
-0.0421895
0.175128
-0.223388
0.0666034
0.096785
-0.498514
0.0426364
0.26815
0.33688
0.176437
-0.00692949
0.0208301
-0.413499
0.0772144
-0.116046
0.215099
-0.323062
-0.0799501
0.567225
-0.135811
0.243518
-0.029186
0.344049
-0.249
-0.0810945
0.177153
0.181781
-0.0905634
-0.029886
-0.184515
0.245055
-0.0293765
0.103579
0.0514531
0.149964
0.0432002
0.123276
0.097337
0.243038
-0.00758689
-0.0396753
0.039073
-0.0116371
0.329302
-0.239516
0.20736
-0.0395533
0.196863
-0.232017
0.199303
0.149428
0.372132
-0.145859
0.0311313
0.100366
0.202525
0.231105
0.223186
0.0200646
-0.0534678
0.0435953
0.0200528
0.481492
-0.0697183
-0.140648
0.0129315
0.0261483
0.36712
0.288257
0.168626
0.231183
0.160443
0.00886775
0.0247321
0.169813
-0.00191508
-0.0702279
0.00821525
0.194619
-0.253089
0.229673
-0.0525582
0.161062
0.14587
-0.233101
-0.0762554
0.1018
0.0188314
0.152029
0.131204
-0.0269546
-0.145041
-0.0777687
0.135583
-0.290028
-0.0973566
0.121205
0.208178
-0.00472479
-0.0981155
0.00230577
0.0166058
0.0640926
-0.105667
0.393033
0.0566883
-0.0164977
0.256536
0.082265
-0.0780441
0.156998
-0.0430535
0.166544
0.189699
0.0278659
-0.156249
-0.144944
-0.356284
0.177806
0.0972688
0.103349
0.160275
-0.009476
0.219184
0.039773
0.197578
0.233946
-0.130328
-0.11956
-0.325412
-0.00830744
0.104096
-0.235388
-0.0321351
0.176398
0.183615
0.25278
-0.121721
0.0172643
0.0383895
0.0992405
-0.0849038
0.132396
-0.146408
0.0615991
-0.0504953
0.132093
0.0935662
0.179166
0.229677
-0.103504
0.428516
-0.00641628
-0.0889626
0.0716471
-0.0478755
0.181246
0.196347
0.305247
0.107161
0.199027
-0.00353612
-0.118363
0.17125
0.150087
-0.0127992
-0.305029
0.133067
0.391504
0.173415
0.00411695
0.0536599
0.159929
-0.0304468
0.0102219
-0.056757
0.29308
0.351092
-0.0436672
0.120746
0.00115864
0.221122
0.00679093
0.350607
-0.475569
-0.167746
-0.118277
0.0529676
0.188518
-0.0740765
0.0870838
0.00332873
0.209105
0.356243
-0.0313708
0.022236
0.177434
0.132833
-0.0843605
-0.0598224
0.0774269
0.0193225
-0.0572801
0.258464
0.278874
0.0678756
-0.040811
-0.00294761
-0.0675937
0.209314
0.0918228
0.408057
0.131819
-0.0472736
0.0428967
0.244371
0.153808
0.0710565
0.252464
-0.188181
0.00227961
0.0467235
0.203845
0.264407
0.132128
0.0485089
-0.0687738
0.0498629
0.143498
0.156323
0.0408522
-0.158628
-0.0634155
0.0170717
-0.060155
0.0748436
-0.00030852
0.158839
-0.162669
0.277462
-0.227635
0.33604
0.102022
0.170124
-0.153995
0.266681
0.102771
0.0597468
-0.114065
0.401716
0.0931063
0.0437298
0.229933
0.181869
-0.109054
-0.144074
0.206179
0.0908715
0.28048
0.00441318
0.089435
-0.297551
0.0798508
0.197802
0.274161
0.174051
0.303985
0.125707
-0.134072
0.205774
0.452933
0.33966
0.0361636
0.0909985
0.154672
-0.0250667
-0.12784
0.0547088
0.250225
0.00522833
0.0614816
0.232095
0.266059
0.0932318
0.177724
-0.345064
-0.198368
-0.0879451
-0.114386
0.123557
-0.187007
0.231907
0.0484913
0.177415
0.499666
0.193588
-0.0706633
0.251225
0.12743
-0.449734
0.163644
-0.198955
-0.067214
-0.124745
-0.0679843
-0.0834149
0.284702
0.366651
0.434639
0.461886
0.256819
0.376862
0.221626
0.466837
0.475089
0.1449
-0.00539665
-0.378736
0.241356
-0.0527213
0.0713336
0.247505
-0.0129331
0.562833
0.280186
0.0622252
0.430919
-0.139689
-0.350261
-0.00319371
-0.114637
0.186659
-0.107591
-0.558324
0.191421
0.121414
0.308372
-0.314595
0.0559237
-0.13704
0.275278
0.169874
0.261671
0.0969739
-0.353197
0.104764
-0.157026
0.0669185
0.106128
0.0198013
-0.224411
-0.0202659
0.260457
0.0761879
0.128689
-0.0173675
0.297103
-0.108065
-0.0364477
0.237183
0.132854
0.0973478
0.282892
-0.0740875
-0.0207245
-0.062823
0.0446127
-0.00254523
0.032745
-0.179999
0.222911
0.405466
0.0485662
-0.195007
0.412995
0.14749
-0.0406255
0.229479
0.31907
-0.298995
0.188115
0.358521
0.259213
0.0677277
0.201892
0.1871
0.0638004
0.456647
0.0225121
0.118991
0.289549
0.0725655
0.212036
0.14073
-0.206429
0.0682811
0.0211562
-0.0933109
-0.037471
-0.330105
0.0832915
0.0970886
0.080511
0.146589
-0.300988
0.0593143
0.13712
-0.225501
0.0277057
-0.0500746
0.0810578
0.0669862
-0.0778838
-0.0971989
0.0243731
0.130123
0.0343264
0.195414
0.295899
0.0749767
0.0934211
0.145782
0.165795
0.0938996
0.149275
-0.270811
0.270664
0.422684
0.158141
0.000158763
0.281193
-0.161543
0.0786431
-0.030271
0.0143953
0.114339
0.097413
-0.23024
0.115551
0.205416
0.0401982
0.216002
-0.12858
0.138048
-0.0801253
0.0372229
-0.155104
0.015417
0.0803369
0.23128
-0.146495
0.0603801
-0.126815
0.294713
0.227721
0.164038
0.211994
0.118635
-0.0897953
-0.0775972
-0.147609
0.209845
-0.15024
-0.0587167
-0.114769
0.0704632
0.0840155
0.0366927
0.0353964
-0.0193592
0.100534
0.179286
0.033936
-0.237321
0.0279497
0.126276
-0.309489
-0.077631
-0.292029
0.151531
0.107867
-0.00966413
0.142262
0.189581
0.0800347
-0.203632
0.0715966
0.0947823
0.198088
0.174396
-0.0867007
0.102832
0.0793411
-0.0205716
0.160156
-0.194144
0.22434
0.10336
0.268782
0.174408
0.0546283
0.297066
0.124914
-0.0544817
0.12677
0.100615
-0.0601186
-0.0870745
-0.0358731
0.0540638
0.0806053
0.165094
-0.169658
0.0598214
-0.164477
-0.0317383
0.0854122
0.141992
0.295349
0.205282
0.171247
-0.209402
-0.0553419
0.24527
-0.059165
0.177076
0.0908062
-0.152397
-0.0958801
-0.0178708
0.0208422
-0.0470661
0.149427
-0.150169
0.106396
-0.0501973
0.143204
0.113789
0.0534319
-0.116669
0.0767834
0.0253449
-0.135049
-0.180181
0.206749
0.233574
0.158607
0.081752
0.169957
0.179938
-0.219008
0.0389008
0.192387
0.0535722
0.291003
0.170961
-0.109418
-0.0231753
-0.0519761
-0.0848933
0.169639
0.0478127
0.0748141
-0.0651119
0.0121446
0.0428837
0.142924
0.290525
0.118932
0.290982
-0.114892
-0.130565
0.319464
0.207596
0.0352322
-0.145906
0.337646
0.449845
0.428434
0.0972087
0.120631
-0.0429981
0.0701049
0.294449
-0.0267135
0.27735
0.0390277
0.140609
-0.141039
0.17801
0.433323
-0.0381218
-0.0285449
-0.10286
-0.0659936
0.0112276
-0.0936034
0.195234
0.109477
0.135776
-0.0512763
0.108117
0.0244529
-0.255881
-0.00662891
-0.0402325
0.0482816
-0.201705
-0.0490425
0.241495
0.205395
-0.0315526
-0.183729
0.0629831
0.0784393
0.213415
-0.301139
-0.0801213
0.276759
-0.0678252
0.0769095
-0.0250952
0.0532965
0.52676
-0.16897
0.20477
-0.263011
0.12685
-0.00222434
-0.0622915
0.329699
0.11137
0.359821
0.236716
0.154726
0.0519841
0.196945
-0.0799595
0.120408
-0.267691
0.0569667
0.185566
-0.216188
0.363625
0.104352
0.294571
0.127877
0.0854681
0.257999
0.104264
0.391069
-0.0499642
-0.160806
0.15165
0.0546993
-0.072457
-0.187027
0.0490895
0.386527
0.0621565
-0.264584
0.327648
0.282727
-0.111011
-0.11256
0.0952598
-0.014219
0.25744
-0.412366
-0.220759
-0.0318554
0.0521555
0.133765
0.176101
-0.136227
0.0707373
-0.029595
-0.352674
-0.0250716
-0.0346831
0.208234
0.174358
-0.0849547
0.163445
0.368921
0.0435122
-0.128703
0.037421
0.172796
0.0924171
-0.0658611
-0.103404
0.115752
0.204184
0.0610546
0.0783545
-0.0276314
-0.0160009
-0.174632
-0.0301795
-0.0168673
0.0807096
-0.0482297
0.042689
0.0880895
-0.179016
-0.0435639
0.0227753
0.085363
0.0246149
0.0733266
0.29852
0.0488035
-0.190603
0.19595
0.0767174
-0.0724191
0.117821
-0.0439894
0.270855
-0.0127039
0.00692221
0.234026
0.171682
-0.0994098
0.243472
0.0825633
0.269725
-0.457597
-0.0272086
-0.249776
0.138928
0.187991
-0.0326092
0.128104
0.321458
0.0228978
-0.114175
-0.0918396
0.0480116
-0.055779
-0.176419
0.0247769
0.0290815
0.241115
0.0077803
0.0860565
-0.0673944
0.180867
0.0828566
0.1566
0.0753696
0.0983708
0.183843
0.016923
0.32546
-0.0790294
-0.241896
-0.116906
0.0636424
-0.111662
0.177557
0.172877
-0.0139909
0.0556838
0.227394
0.0233246
0.125378
0.0220996
-0.107815
0.0490669
0.0867491
0.0258738
0.068822
0.0191029
0.0620833
0.354677
-0.0535244
-0.117215
-0.240903
-0.0365208
0.244724
-0.120606
-0.30882
-0.000430698
0.265708
0.112868
0.121727
-0.00889465
-0.00643667
-0.0103876
-0.345229
0.374016
-0.0328737
0.0797328
-0.210412
0.365772
0.0129409
-0.224683
-0.238918
0.319532
-0.0473174
-0.0369508
-0.0390204
0.18435
0.319049
0.0410392
0.127084
0.271175
0.104884
0.365749
-0.0996728
-0.163091
0.273734
0.00995033
-0.265895
-0.00257398
-0.00570288
0.0305911
0.0815452
-0.0733506
0.0906082
0.309015
0.267646
0.231057
0.19249
0.135779
0.308078
0.136236
-0.0180327
0.0281893
-0.442059
0.0929947
0.215157
0.170088
-0.0476283
0.321857
0.209652
0.0706081
-0.297
0.169352
0.13888
-0.144006
-0.270567
-0.0838611
-0.25439
-0.138725
0.196118
0.448242
0.127786
0.0519299
0.429431
0.0793833
0.0927497
0.288983
-0.116996
0.0188713
0.236528
-0.10098
0.133373
0.16044
0.155751
0.258625
-0.0942802
0.0308705
-0.225332
0.176782
-0.17605
-0.115783
0.215182
0.00461355
-0.0154346
-0.0483906
-0.06724
0.363028
0.295447
0.252108
-0.0953671
0.037541
0.205683
-0.0682557
0.394398
-0.0834686
0.049797
0.0960497
-0.116506
-0.0923725
0.0143197
0.225053
0.121755
-0.2537
0.295457
0.285446
0.0851541
-0.231647
-0.0342844
-0.144183
0.170584
-0.167806
-0.20846
0.181288
0.230625
-0.0766441
0.221695
0.291867
0.00734082
0.276993
0.137113
-0.246432
0.201241
-0.00157037
0.300327
0.277874
-0.2848
-0.147816
0.12388
-0.241781
-0.189401
-0.0595711
-0.174209
0.242886
-0.00663886
-0.0153642
-0.0488958
-0.0813064
-0.14614
0.276978
-0.109375
-0.289649
-0.0350857
0.170861
0.0479915
-0.181905
0.158751
0.115978
0.0232318
-0.233423
-0.208224
-0.0224548
-0.164408
-0.102507
0.00751508
0.0654407
-0.513675
-0.0702179
0.151189
0.0647021
0.286538
-0.047461
0.1714
-0.0662576
-0.277313
-0.030926
0.397297
-0.0105536
0.154632
0.460982
-0.11845
-0.441411
0.0186389
-0.0645105
0.126275
0.25937
0.0685267
0.4546
0.00810459
-0.332985
0.268753
0.00579215
-0.109772
0.148006
0.0751684
-0.0243963
0.0612172
-0.0573919
0.0339227
0.0621867
-0.0412453
-0.00907774
-0.103632
0.0482405
0.0216421
0.231812
-0.0765542
0.0458088
-0.0249841
-0.121935
-0.0326539
-0.0134473
-0.357814
0.0472802
0.0613308
0.171473
-0.0682347
-0.0961883
0.106983
-0.0561673
-0.0233845
0.201018
0.189233
-0.109686
0.0285743
-0.0943257
-0.00865009
0.0516945
0.0399927
0.205187
0.0680721
-0.0746298
-0.190801
-0.0324559
-0.120223
0.0359479
-0.189559
-0.0122294
0.00353087
-0.0653727
-0.452262
-0.02033
-0.0202656
0.0223803
-0.206502
0.109593
-0.0252576
0.0299345
-0.197144
-0.0153418
-0.0774491
-0.140303
0.112981
-0.0139323
-0.0533582
-0.148487
-0.19773
-0.00843705
-0.0425585
-0.113105
0.318722
-0.249318
-0.0828797
0.0650641
0.123566
0.0497093
0.0381838
-0.159576
-0.0797611
-0.0595091
0.0594282
-0.0337587
0.115106
0.17617
0.209876
0.363978
-0.10981
-0.343477
-0.0750672
-0.0514558
0.242104
-0.0913113
0.0747646
0.1385
0.236642
0.291234
0.302789
0.198001
0.135181
0.170544
-0.127118
0.0127979
0.221101
0.0733999
-0.0852557
0.257145
0.0584816
0.019358
0.12116
0.140048
0.163842
0.301927
0.325932
0.216356
0.24588
0.335026
0.357546
0.0864943
0.177987
0.0861051
0.149539
0.249338
0.304257
0.039751
0.25356
0.080552
-0.0439304
0.152153
-0.358955
0.0280135
-0.101168
0.116959
-0.00792188
0.140998
0.0694518
0.0624396
-0.117705
0.0909741
0.0859879
0.128273
0.227202
0.0288631
0.170175
0.136471
-0.00581321
-0.0765204
-0.0811732
0.0285893
0.112348
-0.044867
-0.0722464
-0.0177144
0.280732
0.174095
0.345199
-0.0226389
-0.0216487
-0.0350119
-0.129016
0.18034
-0.05866
0.0509728
0.0668926
0.0662174
0.345288
-0.133205
0.189818
0.0768938
-0.0692577
-0.0419645
0.0527195
-0.0554048
-0.100059
0.336169
0.0539542
0.0948552
-0.112678
-0.0530455
-0.109461
-0.0139963
-0.0484647
-0.0581787
0.0328874
0.127013
0.0314694
-0.261264
-0.139212
0.157932
0.283322
0.155859
0.201791
0.24617
0.142323
0.336883
0.0316073
-0.158298
-0.11562
0.147879
0.234969
0.177774
0.14761
0.302393
-0.360901
0.327239
0.00012742
-0.15173
0.198835
-0.449515
0.0974554
0.0528076
-0.0232507
0.0397988
-0.33949
0.184756
-0.0707502
0.301683
0.162646
0.348463
0.0304315
-0.00691188
-0.0432604
0.108006
-0.0953519
-0.354953
0.0741695
0.215839
-0.0275217
0.141181
0.132277
0.0448341
0.146684
0.0848391
0.139574
-0.143354
0.361076
0.177096
0.0547799
0.1216
0.277214
0.2144
0.333562
0.190454
0.124812
0.328218
0.153685
0.19303
0.153437
-0.0122137
0.223985
0.172974
0.239828
0.0956469
0.250505
0.164814
0.163968
0.12461
0.146359
0.131998
0.120131
-0.156846
0.107989
0.365309
0.107241
0.173129
-0.135182
-0.0342202
0.252082
0.265568
0.220859
0.252165
-0.0320111
-0.0862701
-0.0985925
0.130745
-0.0125149
-0.0913357
0.133116
-0.116259
0.126963
0.0515504
-0.36323
0.0440935
-0.250939
-0.0297862
0.0736755
-0.033984
-0.21875
0.0145709
-0.0790377
0.150839
-0.185524
0.125865
0.224448
-0.00470682
0.0306634
0.06669
-0.186133
0.0392888
0.0790716
0.183234
-0.236702
-0.037484
-0.0250228
-0.0963729
-0.0947537
0.25534
-0.0126344
0.190896
-0.0371807
-0.0917782
-0.141839
-0.0701409
-0.0582997
-0.162251
-0.136534
-0.098176
0.148685
0.107327
-0.016408
0.196786
0.0512021
0.405436
0.166096
0.337352
0.0390997
-0.0987166
0.202097
-0.158008
0.0576822
0.274999
0.00483179
0.223441
-0.090667
0.344549
0.0873881
0.10159
0.126907
0.314184
-0.17672
0.0707175
0.0820818
-0.0310996
0.192588
0.22945
-0.0645528
-0.0460908
-0.113476
0.0801795
-0.0677016
-0.137577
0.0186151
-0.0735887
-0.10069
-0.311082
0.053807
0.042024
-0.147152
-0.017187
-0.0207924
0.0752467
-0.134915
-0.060771
-0.162035
0.105632
0.165344
0.100784
0.386035
-0.0902154
0.361069
-0.0800224
-0.077144
-0.0331454
-0.0777075
0.243818
-0.227537
0.084912
0.231192
0.085909
-0.198068
-0.133162
0.110179
-0.0575662
-0.172564
-0.050289
-0.115088
-0.00765214
0.17314
-0.0964385
-0.0113677
-0.0737028
0.011419
0.103938
-0.0447604
0.0307052
-0.0905621
0.240444
-0.0432976
-0.000770401
0.071325
0.258016
0.277549
-0.0731454
0.293596
0.00373549
-0.0247713
-0.103951
0.00212684
0.0906715
0.0807756
0.178927
-0.168925
0.27499
-0.0145963
0.0940835
-0.100801
-0.00261066
0.127951
0.306129
0.119578
0.236001
0.210466
0.0219556
0.0417325
-0.163903
0.00973193
0.0635826
-0.201661
-0.1296
-0.0933975
0.130669
0.0950538
-0.0636375
0.0932753
-0.182479
0.00320944
-0.125298
-0.0639407
0.151688
0.289964
0.0196713
-0.0806223
-0.148062
0.353052
0.0632479
0.0514329
-0.0493039
-0.198955
-0.0159102
0.189733
0.0586317
0.288353
-0.0930438
-0.0274366
-0.305649
-0.0609324
-0.22851
0.240979
-0.0620135
0.0952371
-0.13438
0.120536
0.137374
0.218857
0.0801484
0.0197297
-0.158016
0.0378575
0.0392497
0.0204022
-0.280146
0.0999335
0.276331
0.0814959
0.0937484
0.386089
-0.129954
-0.310073
0.233334
0.0536793
0.231025
0.132015
0.0662664
0.205614
-0.0211732
0.0807365
0.24125
-0.271538
0.0763606
-0.0990665
0.217365
-0.0164884
0.042852
0.334261
0.311587
0.147218
0.121601
0.302366
-0.311751
-0.023284
-0.0434259
0.133944
-0.0879605
-0.315738
0.145081
0.369655
0.0385166
-0.0499529
-0.0130809
0.332429
0.0652307
-0.194242
-0.0246173
0.0530018
0.399921
-0.0632584
0.0023953
0.260246
0.0473677
-0.240003
0.196641
0.0489077
-0.164339
0.0933381
0.202465
-0.318401
-0.024371
-0.0621155
-0.0616999
0.160393
0.0352381
0.149621
0.185791
-0.191406
0.206879
-0.0842291
0.119943
0.0500753
0.041152
-0.103969
0.0116457
-0.114274
-0.186337
0.165226
-0.0282331
-0.0822164
0.115857
-0.0842925
0.0894044
-0.163396
0.16392
-0.0888373
0.290256
0.207456
0.00740355
0.249467
0.136865
0.140305
-0.123885
0.00632014
0.0288804
0.112341
-0.227839
0.196839
-0.033288
-0.21136
0.144959
0.328826
0.0736901
-0.0661819
-0.0241969
-0.081748
0.209054
0.0335112
0.173066
0.0866503
0.0846391
0.171213
0.144875
0.10709
0.0923295
0.0639227
0.0721161
-0.0921236
0.107543
0.410038
-0.167905
0.198625
-0.0295463
-0.154579
-0.237629
-0.135511
0.0255787
-0.138943
-0.170949
0.00956494
-0.0735187
0.077825
-0.189635
0.0322681
0.351224
-0.142889
0.0998373
-0.118551
-0.260499
-0.0915379
0.0103492
0.0367199
0.10774
-0.0166775
0.420019
0.111327
-0.153784
0.201853
-0.0230406
-0.403282
0.116871
0.15878
0.270718
0.27843
-0.234005
0.078406
0.265508
0.054228
-0.105077
0.0301362
0.0674369
0.0854451
-0.148477
0.152358
-0.0162195
-0.233407
0.246662
0.0153231
0.243883
-0.0446315
0.22274
-0.0628523
0.316297
-0.0527912
-0.0354535
0.422838
0.145691
0.132548
0.105563
0.131716
0.0466158
-0.00961045
0.0253059
0.075747
-0.186485
-0.00707404
0.181854
-0.104624
-0.2427
0.0386919
