0.0158601
0.0577045
0.000147049
0.00635045
0.039537
0.117715
0.105486
-0.0192002
-0.0433895
-0.0284513
-0.0945458
-0.0292509
0.063376
0.000626941
-0.00606392
0.0476456
0.0382589
0.0207178
-0.0571138
0.00823614
-0.052879
0.0403146
-0.0179427
-0.0395982
0.0320264
-0.0973268
-0.0704432
-0.0315138
-0.0779623
-0.0164554
0.0318174
0.0252372
0.0466125
0.0238881
0.0457243
0.0119256
0.0305228
0.0685532
0.0317229
-0.0557361
-0.000985743
0.0271508
-0.0572799
-0.0140241
-0.0206386
-0.0335487
-0.0931023
-0.108485
0.0675643
-0.0289808
0.0189175
0.0384754
-0.0365114
-0.0368435
0.021481
0.000594216
-0.0134645
-0.0240932
-0.0144047
-0.0391093
0.00426516
-0.0810123
0.0305473
-0.00589911
-0.0596935
0.0170942
-0.0141796
0.017411
-0.0169675
-0.0414152
0.0401779
-0.0670269
-0.0547967
0.0444523
-0.0112613
-0.0284298
0.0222527
-0.121673
-0.0379783
-0.0571762
-0.026973
-0.0293625
-0.0435389
-0.0394998
-0.0502886
0.018613
-0.0427294
-0.0271084
-0.0183243
-0.00474212
0.10135
-0.000840564
0.0212971
0.0849001
0.0124143
0.00217088
-0.061871
0.0329827
-0.00983539
-0.0684282
0.0107078
-0.0213161
-0.0630477
0.0638294
0.0193422
-0.0380901
-0.0928692
0.100059
0.0281268
0.00297995
0.0464939
-0.0867003
-0.0440462
-0.0186244
0.0285197
0.00849981
0.0285071
-0.0112762
-0.0256365
0.0387188
0.00540106
-0.0638482
-0.011733
0.0591752
-0.00114765
-0.0237513
0.0684506
-0.00155746
0.0602078
-0.0513316
0.0399504
-0.0389839
-0.0108691
-0.00731619
-0.00829082
-0.0412173
-0.00998109
-0.0275316
-0.0470373
0.016314
-0.0556859
-0.0624345
-0.00195663
0.0811388
0.0331588
-0.0158414
-0.0731809
-0.0456781
0.0399796
-0.00841428
-0.0195348
-0.0182681
0.0307123
-0.00855391
-0.0241677
0.00859769
-0.0503828
-0.0776384
0.0490181
-0.0437615
0.0358017
-0.0137129
0.0328065
0.0706303
0.0042725
0.0218991
0.0413835
0.0733551
0.0842114
-0.00522581
-0.0198702
-0.0403749
0.0442604
-0.00861816
0.0408737
-0.117553
-0.116639
0.030043
-0.0554251
0.0285595
-0.0243191
0.0270863
-0.000340176
0.0498145
-0.124457
0.03179
0.0360418
-0.0396949
-0.00762729
-0.0154824
-0.159773
-0.0310674
-0.0105209
-0.00282215
-0.0839928
0.0308791
-0.0165718
0.0105665
-0.0885177
0.00470605
0.0419841
-0.0294159
-0.0767073
0.0192406
-0.0180106
-0.00477341
0.0598613
-0.0647967
0.0169856
-0.0141668
-0.0418891
0.101126
-0.0441675
0.0146064
-0.068678
-0.0281069
0.0333752
0.02319
0.0328008
0.0743533
-0.0254984
-0.0381881
0.0313071
0.023935
0.0289793
-0.0216313
-0.0496166
0.0623855
-0.0645483
-0.0749924
0.0515518
-0.0660623
-0.0250101
0.0228638
0.00385519
-0.0307091
-0.00973254
-0.0153476
0.0734867
-0.00665352
-0.01823
-0.0556543
-0.018949
0.0444284
-0.0660111
0.0596296
-0.0281828
0.00388877
-0.00220019
0.065317
0.0457128
-0.00900581
-0.00472574
-0.00773923
0.0307556
-0.0499369
0.0327138
-0.000521199
-0.0911902
-0.0160322
0.0568641
0.124367
-0.0651297
0.0260316
-0.0312406
0.0302337
-0.0303206
-0.0152986
-0.0722173
-0.00508789
-0.046144
0.0341724
0.0194477
-0.0241008
-0.0108727
-0.031654
0.0459855
0.0614021
0.0485089
0.00245009
-0.0099451
-0.0415833
-0.0402637
-0.0311084
-0.0508805
0.00063853
-0.0630265
0.0495248
-0.0621758
0.00967355
-0.00888097
-0.00809425
0.111087
0.0202439
-0.03111
0.00868367
0.0110676
0.059468
0.00374226
0.0477939
-0.0278078
-0.0105018
0.0306767
-0.0498945
-0.0218124
0.0108923
-0.0382558
0.0103519
0.00621034
-0.0425851
-0.00559865
-0.0372041
0.0877652
-0.00602609
-0.0253257
0.00356805
-0.0380062
-0.0566928
-0.0468633
0.0445737
-0.00485136
0.0365823
-0.0907154
0.0821257
0.0470451
0.0500428
-0.0350193
0.0179482
-0.0257939
0.0993877
-0.0402194
0.0740384
0.0659544
-0.0220944
-0.0213567
-0.055405
0.0131268
0.0537894
0.0254904
0.0302848
-0.0560008
-0.0650962
-0.0240287
-0.0644556
-0.00068441
-0.0192487
-0.0148247
-0.00842702
-0.0875991
-0.0434069
-0.00462265
0.0144151
-0.013435
-0.032049
-0.0977786
0.0681346
0.0373992
0.0957551
-0.03427
0.0270901
-0.0361149
0.0261995
-0.0132527
-0.0086028
-0.0635496
-0.000841821
0.0554494
-0.0388183
-0.0463039
0.00399451
-0.00324988
0.0387659
-0.0386141
0.109692
-0.0804129
0.0556592
-0.020127
0.0619225
-0.0177315
0.0690513
-0.0039015
0.0409362
-0.0860976
-0.0443513
0.116365
-0.0242704
0.00546588
0.0400024
-0.00686991
0.0727709
0.00291604
0.0879134
-0.0313457
-0.0471202
0.0249721
0.0413104
-0.0618707
0.0229459
-0.0474355
-0.0933148
-0.0247663
-0.00464428
0.0495667
-0.056817
-0.0209398
0.00261913
-0.0426729
-0.104093
-0.00375221
0.0351298
-0.106177
-0.0853118
-0.0200611
-0.0373491
-0.0286236
-0.0168755
0.087136
-0.0181481
-0.030072
0.0423527
0.0696232
-0.00237404
0.0391996
0.0402183
0.0225716
-0.00123378
0.00437172
0.0608107
-0.0152766
-0.0667332
0.0151048
0.0342626
0.00744134
0.0492503
-0.0653382
-0.0750137
-0.0424205
-0.0518903
-0.100884
-0.021018
0.0316538
-0.0242718
-0.0818831
-0.0467094
0.00449999
0.0927446
-0.0141288
-0.0623643
0.0980169
0.00363558
-0.0327323
-0.0276897
-0.0457392
0.019464
0.00224256
0.10034
0.0281561
-0.173508
-0.0363974
0.015402
0.031502
-0.0521309
0.0542245
-0.0577064
0.0582122
0.0695951
0.0167595
0.0237293
0.024906
0.0372081
0.106958
0.00214156
0.00191842
-0.0672166
-0.0493576
0.0817062
-0.0195683
0.0317581
0.0645769
0.0195156
-0.0467097
-0.0222999
0.0513991
-0.0374391
-0.00525897
-0.00899585
-0.0171873
0.00364014
0.0516789
-0.00629506
0.0188968
-0.0284209
0.129202
0.0530214
-0.0378416
0.0483493
0.0881715
0.0171895
0.0274719
-0.058299
-0.0164028
0.00287706
0.0235608
-0.0537028
0.0981512
-0.03115
0.0151936
0.0463016
-0.00734921
0.0306985
-0.0531385
0.0908545
-0.003976
0.010703
-0.00433442
0.00190942
-0.00532398
0.0384969
0.0265066
0.0273937
0.00633869
-0.114828
-0.0879229
-0.106201
-0.0311231
-0.0344821
0.0609308
-0.0704341
0.0374207
0.0176719
0.00197557
0.00626462
0.0314621
-0.0266857
-0.0470619
0.00507754
0.0238989
0.0374167
-0.0657797
-0.0131042
0.00543529
0.0534332
0.0474246
0.0497743
-0.0122545
0.0321278
-0.0409299
0.0603308
0.0225759
0.0208102
-0.0223543
0.0203148
-0.108827
0.00210419
0.0403723
-0.100917
-0.00993179
0.0247021
0.089382
-0.00206351
0.000825842
-0.0222747
0.0747789
0.0229665
-0.025447
0.0277747
0.0207064
-0.0488267
-0.00961075
0.00125218
0.0252037
0.0817645
-0.0261454
0.108415
0.0356035
-0.0412363
0.024492
0.0159731
0.0918657
0.0621905
-0.0387737
-0.0853993
-0.0656038
-0.0303292
-0.0172801
-0.0105247
0.0407387
-0.0538778
-0.00361653
0.0898126
0.0119469
0.00242769
-0.00194514
-0.0199577
0.0932041
0.0243645
0.0478159
0.0112905
0.0113919
-0.0422902
-0.086342
-0.0299118
0.0204542
-0.0150488
0.0588995
0.0317867
0.0842091
0.040191
-0.00849112
-0.0533847
-0.102589
-0.0263915
-0.0631712
0.0122893
0.00459899
0.066033
0.00558057
0.0846439
0.0144413
-0.0578262
0.0226743
0.0190289
-0.0327982
0.0132343
-0.0668648
-0.0552086
-0.0172711
0.0982688
-0.0396856
-0.023208
-0.0206769
-0.00785161
0.0124038
0.0211551
-0.0661606
0.0713464
-0.0565662
0.0370047
-0.0175393
-0.0194213
-0.0252782
-0.00475669
-0.0028804
0.0595489
0.0373389
0.00545622
-0.0519044
0.107735
0.0167006
0.0320775
0.0473636
-0.0179015
0.0171181
-0.0134236
-0.0847961
0.0171549
-0.0625653
-0.0425826
-0.0964
0.0234757
0.0197043
0.041767
-0.0379591
0.0773589
-0.00757889
-0.059479
0.000958736
0.0911799
0.0837502
-0.0623679
-0.0178936
0.062924
-0.0351704
-0.0117969
0.0121277
-0.0427829
-0.0544355
0.0294418
0.0353997
-0.0908972
-0.0874507
-0.0525164
-0.000332629
-0.0434152
0.048451
-0.0549707
0.0566831
-0.119259
-0.0702158
0.0523866
-0.0488341
0.0297529
0.0538341
-0.0214182
-0.0866974
-0.0294879
-0.0357852
0.0307021
-0.0478126
0.0411972
0.0357017
-0.0418972
0.0202622
0.00886667
0.00971228
-0.013474
-0.0613449
-0.0914629
-0.0191283
-0.0059883
0.000861753
-0.0343952
-0.0384512
-0.0296728
0.0644724
0.0315034
-0.00739279
0.0365922
-0.00328082
0.0504328
-0.0214677
-0.0270022
0.0279488
-0.00326389
-0.0296547
0.00109473
0.0401673
-0.00830875
0.0741871
0.0287432
0.0394629
-0.0254652
-0.0257999
0.034207
0.143757
-0.0673323
0.0209318
-0.0221652
-0.0412682
-0.0265689
-0.0145226
0.0103905
-0.101768
-0.024736
0.0112054
-0.0883854
-0.0605183
0.0123746
-0.0278803
0.043769
0.0122994
-0.0146002
0.0334157
-0.00485112
0.0102705
-0.0447839
-0.00521409
-0.0621773
-0.12517
-0.0135141
-0.100006
0.0634711
-0.0183524
-0.048455
-0.0457074
0.0383004
-0.0992022
-0.00758528
-0.0186593
0.0404938
0.0636463
-0.0572633
0.0276171
0.0625625
-0.00611756
0.0548208
-0.0254192
-0.0205898
-0.0601746
0.0618979
-0.0146704
0.0405733
-0.00855861
0.0360025
0.0154459
-0.0113764
0.0269104
-0.0569755
-0.0138442
-0.00777686
0.112243
-0.0465433
-0.0070513
-0.0392669
0.029322
-0.00500662
-0.0160651
0.0602184
0.0293556
-0.019781
-0.085605
-0.00740489
-0.0360748
0.0466104
0.030371
-0.0475288
0.0192835
-0.00479256
-0.0859891
0.00718958
-0.0214578
0.0846616
0.0895321
-0.0115734
0.0480296
0.0463337
0.0423936
-0.00558514
0.0113582
0.0677095
0.0404842
0.038366
0.000598484
0.0445939
0.023437
0.0453606
0.0168226
0.0129154
0.011222
0.0200144
-0.0231113
0.0426794
-0.0440323
0.0499726
-0.0796973
0.0266256
0.00396013
-0.0230875
0.023132
0.0546238
0.0613844
0.122191
0.0696296
0.00984451
0.0178416
0.0606527
0.0725152
0.0945392
0.0843453
-0.0261582
-0.0161624
-0.0977024
0.049695
0.0102128
0.0637731
-0.0265206
0.034203
-0.0482972
-0.0280216
0.00930215
-0.0603732
-0.0576341
0.0621567
0.0311112
-0.0222909
-0.043802
0.0117378
0.0662334
-0.0223047
0.00232309
0.0915122
-0.00739552
0.077454
-0.00102655
-0.00642622
-0.0540034
0.0245716
0.0397162
0.00243734
0.0333422
-0.0154734
-0.00770003
-0.0531916
-0.031437
0.0128937
-0.0542924
-0.0797912
-0.069838
-0.0245581
-0.000503167
-0.0289161
-0.0325143
-0.0104723
0.0042661
0.0235325
-0.0500255
0.0290789
-0.0633279
-0.0137328
-0.0245084
-0.0139507
-0.00149859
-0.00579673
0.00765559
0.00701093
-0.050988
-0.0946786
-0.077426
-0.0108911
0.0181527
0.0603048
0.0096767
-0.0236157
0.0411075
-0.0772064
0.0545247
0.0282733
-0.0200472
0.0734351
0.0408406
0.0145371
0.00418634
0.0688231
-0.0121757
-0.01451
-0.0805494
-0.00804369
-0.0536787
0.045711
0.0819414
0.0517104
0.032385
-0.0729299
0.0587008
-0.0531485
0.0246104
-0.0347538
-0.0289479
-0.0207004
-0.00440251
0.0610834
-0.0528684
-0.0875507
-0.0769245
-0.0191336
0.0205142
0.0531627
-0.0293962
-0.0171076
0.0413423
0.0160527
-0.133988
-0.033321
-0.0695427
-0.0393121
-0.0163186
-0.0775739
0.0444443
0.0152097
0.0292732
-0.11053
-0.061959
0.010398
-0.027636
-0.0657267
0.0160033
-0.0154911
-0.0429993
0.0155263
0.0366017
0.0311237
0.0175018
-0.0955836
0.0302862
-0.00370539
0.00950971
-0.0804561
-0.0335938
0.0152466
-0.0223469
-0.00864175
0.0556571
-0.0906227
-0.0898503
0.018687
-0.0339082
-0.0621462
0.0214919
-0.0811813
-0.0101878
0.0888168
-0.0623405
-0.00498369
0.0806592
-0.0683782
-0.0128223
0.0252403
0.01436
0.0387792
-0.0116869
0.000458111
-0.0220887
-0.0496622
-0.0449286
0.0011763
-0.0387397
0.0402644
-0.00712407
-0.016218
0.0100581
0.0130579
0.048692
-0.0277507
-0.0262402
0.0894868
-0.0789331
0.0261058
0.00844943
0.0734292
0.0815814
0.0292056
-0.0374364
-0.0234775
-0.0123115
0.102358
0.0333983
0.0345724
-0.0495951
0.050587
-0.0199046
-0.0411891
-0.0284669
-0.0443854
0.00537947
0.000595078
0.0169278
-0.0671763
0.0496706
-0.00183242
-0.00333906
-0.059761
0.00979777
-0.0487445
-0.0626885
-0.0411406
-0.049349
-0.0118285
0.0740132
0.0499122
0.0173634
0.0997976
-0.0011803
0.111162
0.0781148
-0.0203379
0.029246
0.0754409
-0.0871953
0.0172619
-0.030549
0.0495594
0.00279988
-0.0300347
0.0115874
0.0959297
-0.0503949
0.019526
0.051348
0.0696915
0.0881696
0.0437873
-0.0128809
-0.00237074
0.0118536
-0.0152977
0.057256
0.0087473
0.0445015
0.0101984
0.0644728
0.000105185
0.0948965
-0.00395297
-0.0111413
-0.0590598
-0.104787
0.0441949
0.0204606
0.000456442
-0.0323868
0.0356602
-0.0141403
0.0470686
-0.0335067
0.0488725
0.0243626
-0.0922484
0.0138817
-0.018886
0.0684694
-0.0313107
-0.0154562
-0.0238466
0.0573807
0.0669974
-0.0383825
-0.0286012
0.0500751
-0.0720304
-0.0391869
-0.0050755
0.0528075
-0.0643722
0.0512735
0.0153909
0.00245412
0.0475918
-0.0148105
-0.0641528
-0.0463872
0.06114
0.014264
-0.067028
-0.0229443
0.0249773
0.00839028
-0.0383635
-0.0525951
-0.0212304
0.0664722
0.0987122
0.107458
-0.00577332
-0.0545917
-0.00751418
0.066211
-0.0344762
-0.0514464
-0.0178563
0.0550948
0.0780677
-0.00865622
0.0613257
-0.0186813
0.087495
-0.00453757
0.139111
0.0156033
-0.0878938
-0.0263093
-0.0442321
-0.0741726
-0.0144182
-0.0130829
0.00293914
-0.0901592
0.0857925
-0.00337328
0.0208411
-0.016041
-0.0433528
-0.0529084
-0.056528
-0.000239403
-0.00643554
-0.0230825
0.0637217
0.0255772
0.0604598
0.0226965
0.0178202
-0.0026661
0.065204
0.0490489
0.0172767
0.0392783
-0.0414564
0.0225802
-0.0237681
-0.0541905
-0.018188
0.0846384
0.0209017
-0.0192746
0.0189679
-0.0028682
0.0516145
-0.0600598
-0.0542718
-0.0413631
-0.00627982
-0.00027461
-0.0147088
0.0151638
0.109719
-0.0105546
-0.0067208
6.1824e-05
0.080172
0.1109
-0.00144288
-0.00726886
-0.030979
0.00313492
-0.0692894
-0.0907264
-0.000833135
0.0440024
-0.00422585
-0.0249126
0.061668
0.0355769
-0.014588
0.0723874
0.0184987
-0.0412847
-0.0412986
0.0279569
-0.0633998
-0.100731
-0.0418559
0.003118
0.00243223
-0.012388
-0.0443067
0.208141
-0.033678
0.0947979
-0.0775562
0.0644383
0.0377435
0.0108187
0.0592183
0.101847
0.0607708
-0.00610214
0.0575662
0.0404725
0.0573511
-0.011743
-0.0121766
0.0161175
0.0214791
0.0236834
-0.0396926
-0.0636737
0.0617637
0.0340454
-0.0300618
-0.014014
-0.013981
0.0192685
0.0316462
-0.00237421
-0.0048647
0.0414104
-0.0310426
-0.026433
0.0598288
-0.0362714
-0.049897
-0.00564355
0.0569382
-0.0757707
0.0578073
0.0212957
0.0366511
-0.0164203
0.0546002
0.0312596
0.0246658
-0.0374186
0.0104139
-0.0736013
-0.0107885
-0.0159108
-0.0371666
-0.0375811
-0.0060722
0.118075
-0.0443363
0.0165911
-0.0834069
0.0831513
0.0443753
-0.0710956
-0.0306299
0.0354379
-0.00376362
0.0271217
0.0698182
0.0695411
0.0761168
0.0831204
-0.0144172
-0.0402157
0.111146
-0.0610164
-0.0847097
0.0424506
0.012053
-0.11111
0.0321726
-0.0605667
-0.0512607
0.0871276
0.00616057
0.0241866
-0.0167431
0.0500098
-0.00182851
0.0270572
-0.0290003
0.0207633
-0.0858751
0.0366936
0.0882027
-0.0232226
0.0274473
0.0500601
-0.0367356
-0.0190233
-0.031394
0.0157687
0.114928
-0.00946797
-0.0818156
0.0213536
0.0663044
0.127714
-0.0368746
0.00539363
0.043306
0.0325466
0.00459006
0.00530536
-0.034123
-0.0297556
-0.0478106
0.0377681
-0.0568332
0.0177358
-0.0216962
-0.067536
0.0258646
0.0886663
-0.00272411
0.0681032
0.0240419
0.0315246
-0.0257342
-0.0262165
-0.0232475
0.00352419
-0.0333386
0.0342311
0.024553
0.107953
-0.0053282
-0.0292986
0.0624038
-0.0768458
-0.0323792
-0.0502291
0.068983
-0.0926575
0.00855454
-0.029356
-0.0572077
-0.0888504
-0.00115098
0.0120502
0.0118665
-0.0998209
-0.00454637
0.0501625
0.00286122
-0.0291328
-0.0212743
0.0955511
-0.0357978
0.0647513
0.0151567
-0.0271272
0.0504797
0.0508068
0.0524163
0.0311108
-0.0124418
-0.0081041
0.0577348
0.110926
-0.0589411
-0.016315
-0.0420449
0.0439401
-0.0424415
-0.0200637
-0.0411685
0.046852
0.0168699
-0.00857342
0.096523
-0.0262908
0.0195096
0.0470671
-0.088353
-0.0241061
-0.0423275
-0.00584144
-0.00590978
0.0364243
-0.0302384
-0.134227
0.109918
-0.00576058
-0.117306
-0.0385249
0.0522759
0.00567816
0.0485609
-0.0128915
-0.00956525
0.0808026
0.0432488
-0.0540408
0.005586
-0.0360967
0.0588709
-0.0478498
0.0443647
0.0613123
0.011405
0.0295164
-0.132472
-0.0319452
0.00571391
-0.0462206
-0.0596012
0.0723186
-0.0543056
0.0229103
0.0343184
-0.0324133
-0.0297108
0.0784742
-0.0116639
-0.0241048
0.0225527
0.0151473
0.01028
-0.0207223
0.0221756
0.0191867
-0.0198628
-0.0368808
0.0137194
-0.114232
-0.086428
0.015964
0.0326066
0.0173696
0.00974107
-0.0610282
-0.00905142
0.0892447
0.0251177
-0.0328888
0.0718853
0.0309682
0.0456105
0.0537483
0.0791584
0.0864432
0.0314842
0.0549041
-0.0151443
-0.0635764
-0.0262497
-0.00834503
0.0376702
-0.0508685
-0.00772926
0.0660277
-0.00899561
-0.0511416
0.0404498
-0.0227134
-0.0290979
-0.025672
0.0153727
0.00630107
-0.0793191
-0.0737778
-0.0768124
-0.129408
-0.0342628
0.0311008
0.00777239
0.00510185
-0.0130051
0.00715632
0.0474816
0.109024
-0.0811076
0.0188921
-0.0824787
0.118619
0.0233405
0.0692814
-0.0401736
-0.0219904
-0.00490269
0.0264939
-0.0501042
0.028621
-0.019832
-0.0189088
0.115165
-0.0357181
0.00584433
0.000608649
-0.0775717
0.0518934
0.0292093
0.0227352
0.0223712
-0.14777
0.0684254
6.67402e-05
-0.0585675
-0.0511982
0.060482
-0.0819757
-0.0704513
-0.00161108
-0.0218141
-0.104765
-0.114757
0.0193804
-0.0440909
-0.0116539
-0.00746946
-0.131771
0.0184539
0.1577
-0.128131
0.0706822
-0.00556097
-0.0450024
0.0157423
0.0646725
-0.031602
-0.0470487
-0.030742
-0.0580965
0.0750408
-0.049719
-0.0459262
0.0511641
-0.0423921
0.0247909
-0.0106497
-0.0340564
-0.00638988
-0.109732
0.0338422
-0.124382
0.027868
-0.0516759
-0.0464992
0.0612715
0.0595688
-0.0234658
0.00297816
-0.0606363
-0.0339591
0.0621192
-0.027059
0.0823859
0.00497379
-0.0343231
0.0150802
0.0495396
0.000627639
-0.0177819
-0.020488
0.0380473
0.100159
0.0156174
0.0877193
-0.0116834
-0.0376644
0.0698325
0.00846177
0.0286518
-0.0358045
0.00013564
0.0715266
0.0286926
-0.0208824
0.0385176
0.030396
-0.0478969
0.0421218
-0.00964582
-0.04441
0.0223283
0.0333718
-0.0478603
-0.12954
0.00175944
-0.00418113
0.0482011
0.0109181
0.0632845
0.035116
0.0244284
0.0177606
-0.0104543
0.0952068
-0.0597633
-0.00619859
0.0452071
0.0778926
0.0393417
-0.0198424
0.066883
-0.0837956
0.0600217
0.0675585
0.00226016
-0.0170705
-0.0191646
0.0996988
-0.0337823
-0.0154136
-0.0394476
-0.0242997
0.0343715
-0.0230797
-0.0885033
0.0991281
0.0180245
-0.0490627
-0.0192679
0.0114661
-0.0498857
-0.105421
-0.0927289
0.00652217
0.0623222
-8.40457e-05
-0.044754
0.0185415
-0.117625
0.079974
0.00934981
-0.0304243
-0.075144
-0.0362631
0.0752132
0.101404
-0.0758926
-0.00925493
-0.0211386
-0.047197
-0.0104712
-0.030468
-0.0147444
-0.0126088
0.00649371
-0.0494893
-0.0980092
-0.0311586
0.00507252
-0.0904154
0.0471989
0.0654699
-0.0227957
0.125155
-0.012385
-0.102825
0.0209085
-0.0599061
-0.00497507
-0.0236941
-0.0108173
0.0127442
-0.0845075
0.0387175
-0.0301579
0.00419668
0.0675168
-0.0248615
-0.0863276
-0.0564216
-0.098726
-0.00289988
0.0178508
0.0395073
-0.0114418
0.114155
-0.0218425
0.0104974
-0.061568
0.111073
-0.00128718
0.0570268
-0.0539728
-0.0430277
-0.133275
-0.00997207
-0.0136473
0.0129824
0.00947832
-0.0337439
0.0346002
-0.013854
-0.011941
0.0132692
-0.0721614
0.0095948
-0.0036463
0.0468658
-0.0289154
-0.0229523
-0.120067
-0.0983342
-0.0477
-0.0141671
-0.0301767
0.0983601
0.0863854
-0.00279121
0.0219445
-0.0247597
0.11596
-0.0308574
0.0245447
-0.0244943
-0.013462
-0.0636037
-0.0625591
-0.0294224
0.125291
0.117731
-0.0355784
0.109787
-0.00927644
0.0590867
-0.0345153
0.0556083
0.0280574
0.0475302
0.0235643
-0.0498853
0.093978
0.10739
0.0397419
0.0510166
0.0792362
-0.0642219
0.0260459
-0.035921
-0.0679487
-0.0154879
-0.0240513
0.0308146
0.00639978
-0.0357332
-0.00584082
-0.0246016
-0.0575867
-0.0212546
-0.00461976
0.0366598
0.0511777
-0.0300244
-0.0589804
0.0386618
0.0415359
-0.0365888
-0.0196449
0.00244458
-0.0642619
-0.0293112
-0.00405519
0.0392999
-0.0195013
0.00035249
-0.00382443
-0.0338365
-0.0271978
-0.0176144
0.0247711
0.0286742
-0.0510909
0.00666594
0.028263
0.0119454
-0.0316058
-0.0146541
-0.0225643
-0.0587327
0.026932
-0.0560783
-0.0300038
-0.00649481
-0.0117587
-0.00796903
-0.00716579
-0.0693889
0.00785079
-0.00611297
0.117009
0.102505
-0.0688602
0.0291032
-0.0486043
0.0739153
0.164159
-0.116953
0.0470519
0.0248236
0.0316973
-0.00330232
0.071183
-0.066408
0.103768
-0.111865
0.0171743
-0.0640743
-0.00319685
0.00232835
0.0316152
0.0777695
-0.0234169
-0.0130424
-0.0475996
0.016192
0.0114113
0.102284
-0.0664566
-0.0675764
-0.0328318
-0.106597
0.00410879
0.0211965
-0.0647911
0.0134653
-0.00855132
-0.0462422
-0.0640881
-0.0226039
-0.0136776
0.0840164
-0.121718
-0.0160684
0.00454934
0.00992268
-0.0101199
-0.0578352
0.171686
-0.0394587
-0.0362433
-0.0501015
-0.0435769
0.00344917
0.0283345
0.10451
0.0486731
0.0123289
0.0693311
0.083829
-0.0812047
0.0740672
-0.0034875
0.0396581
-0.0833848
-0.0915321
-0.00508889
0.0357948
0.0217722
-0.109671
-0.00877041
0.112222
0.030832
-0.060575
0.0172142
0.0323737
0.0349024
0.0258032
0.00587775
-0.000626581
-0.0682616
0.103716
-0.0262012
-0.0751629
0.0123303
-0.00468447
-0.00239207
0.0829909
0.115308
0.022985
-0.00292078
0.021684
-0.00231117
0.0284093
-0.0593108
0.032032
0.0551653
0.0149576
-0.0106454
0.0229362
0.16177
-0.00204451
0.0408885
-0.035571
0.0385974
-0.0284086
0.00820981
-0.0112782
0.0279287
-0.0156439
0.0309837
-0.0269171
-0.115255
-0.0115554
-0.00952273
-0.0259598
0.107558
-0.0892903
0.0784832
0.0865608
0.00605275
-0.0282264
-0.0521896
0.0497355
0.0477151
0.0228796
0.0925323
0.0555184
0.0170889
-0.121296
0.0540711
-0.0261431
-0.0522866
-0.0102172
-0.00759156
0.128488
-0.0279918
-0.0385233
-0.0117043
0.0244233
0.0243991
0.0689732
0.0267176
-0.0155382
0.0957254
-0.0148984
-0.0109138
0.0222475
0.0248842
-0.0278319
0.0112858
-0.0432482
0.0322193
-0.0240134
0.103274
-0.0763669
-0.00105025
0.0683498
-0.148879
0.0242871
0.0282512
0.0224687
0.0335599
0.0212707
0.0297815
-0.0285169
-0.000790132
-0.0864018
0.0657568
-0.0300059
0.00190649
0.0154249
0.0298822
0.0140236
0.0838921
0.0866169
-0.0315987
0.0217359
0.00138756
-0.0237274
-0.0412242
0.0109223
-0.0624095
-0.0127072
-0.0902916
0.019988
-0.00602171
0.028094
0.0290107
-0.0374018
0.021834
-0.00133895
0.0585039
0.051768
0.0681024
-0.0273821
-0.043715
-0.0226198
0.0504846
-0.135072
-0.0559034
0.072554
-0.0711687
-0.00748868
-0.00922549
-0.0381787
-0.00483919
0.0591631
-0.0253599
0.0868688
0.00369531
-0.00559673
-0.101783
0.0121662
-0.00550033
-0.0529314
-0.0656387
-0.0886476
-0.0390592
-0.129774
-0.00713868
-0.0566061
0.0227031
0.0365783
0.0523132
-0.0411174
0.0297145
0.0387091
-0.0168113
0.10041
0.11402
0.00140692
0.0474532
0.0386597
0.0579794
-0.0724514
0.00339004
0.000806592
-0.00984701
-0.0075269
0.0561118
0.0372526
0.0432695
-0.00318324
-0.0435103
-0.040067
0.000768374
-0.0142528
-0.0576475
0.0157723
0.0600079
0.0393575
-0.0516576
0.103848
-0.0551313
0.028292
-0.0796683
0.00295821
-0.00251387
0.0120819
-0.0114227
-0.00139095
0.0618199
-0.00619765
-0.00675069
0.0750026
-0.0328185
-0.016342
0.0148753
-0.0125411
-0.0459676
0.025691
-0.0803404
0.00312561
0.03771
0.0240929
-0.040569
0.0179312
-0.0434002
-0.00664072
0.058298
-0.022781
0.0242826
-0.0162573
0.0128686
-0.00611821
-0.00316052
-0.0533644
0.0402501
0.00153511
0.0435977
0.072124
-0.0361267
0.0878556
0.018093
0.0669687
-0.100941
0.0131132
0.0508363
0.0234783
-0.0118458
0.0214509
-0.072655
0.0600037
0.0722025
-0.017967
-0.0955899
-0.0781666
-0.0807099
0.0636858
-0.0525819
-0.00529826
0.0430628
-0.0913388
-0.051704
0.0815171
0.0534603
-0.0415785
-0.0546742
-0.0325826
-0.121927
0.080423
0.0479239
0.01494
-0.049267
-0.0048386
-0.0256398
-0.0168295
0.112389
-0.00228807
-0.0129032
-0.0764708
-0.0420245
0.125256
0.0976769
0.040324
0.0680223
0.0297761
-0.101271
0.0922007
-0.00617188
0.0203005
0.0414909
-0.0255402
0.108554
0.0102653
-0.0492684
0.0329596
0.0650111
0.0373751
-0.0497639
0.0069834
0.00887174
-0.0508817
-0.0414478
0.017749
-0.0301554
-0.00780421
-0.0478839
0.0534358
-0.0200146
0.0601988
-0.0796351
0.0687746
0.0127012
0.00493138
-0.0825603
-0.022219
-0.0417135
0.0499353
0.044028
0.0412947
-0.0474101
-0.0119068
0.0217996
-0.0308182
-0.0412173
0.142414
0.111525
-0.0336833
-0.00712262
-0.0507364
0.0291658
0.0555902
-0.00316422
-0.00799043
-0.0635406
-0.0344523
-0.0109703
-0.0469228
-0.0594712
-0.0203162
-0.0137182
-0.0555648
-0.0364127
0.0932953
0.0620754
0.0262012
-0.0439347
-0.0477478
-0.00965568
0.0626795
0.0212237
-0.0277433
-0.0385012
0.119872
-0.129412
-0.0149256
0.0455967
0.00865038
-0.03235
0.0327934
-0.0700374
-0.0276393
-0.016704
-0.0271985
0.00497531
-0.107053
-0.0220285
-0.0670111
0.0456663
-0.1174
-0.015153
0.0320615
0.019407
-0.0764704
-0.00405245
-0.00446647
-0.0383284
0.0154685
-0.00719476
0.0267392
0.000800205
0.0471046
-0.046365
0.0686915
0.0783442
-0.0478586
-0.00525284
-0.167587
-0.0379115
-0.00514746
0.0112231
-0.0844354
-0.0232614
0.03577
-0.0669912
-0.0416265
0.0458537
-0.0141267
-0.0165739
0.0120548
0.0462203
0.0549452
0.00453044
-0.0641727
-0.0357907
0.0271219
-0.026706
-0.100619
-0.0252825
0.00281549
-0.00963071
-0.0372467
0.0668455
0.00911535
0.0422802
-0.00196447
0.0518889
-0.11993
-0.0448766
-0.0271464
0.0706604
0.0256146
0.0333744
0.0641977
-0.059017
0.029351
-0.0802974
0.00463509
-0.0299599
0.016757
0.0377633
-0.0489658
-0.0197943
-0.031214
0.0121962
0.0568067
0.0693799
-0.0483475
-0.0783759
0.0148374
-0.0538603
0.0138953
0.00868926
-0.00767378
0.0129824
-0.0173513
0.0540756
-0.00264436
-0.0364355
-0.00095776
0.0479416
0.0165276
-0.00387601
-0.048786
0.043269
-0.0188978
-0.00092192
-0.0219986
0.0480552
0.0554292
-0.00696315
0.113688
0.0513302
-0.0465314
-0.0307645
-0.0235889
0.0622021
0.0384157
-0.00665375
0.0243063
0.0837026
0.0157625
-0.0455261
0.052307
-0.0665675
-0.0965807
0.000293412
-0.0626225
0.108227
-0.0247775
-0.0118957
-0.0418285
-0.029505
0.0348648
-0.0449081
0.0219346
0.0922932
0.0886444
-0.042287
-0.00135416
-0.0265543
0.0858308
-0.0259934
-0.119854
-0.0555062
-0.0478477
0.0129427
0.0720223
0.106915
0.0316478
-0.00652678
0.0253449
-0.0226816
0.0306536
0.0349512
-0.0129098
-0.00705715
0.0167796
-0.0888122
-0.00630337
0.00296038
-0.0322501
-0.0210686
-0.0173434
-0.039068
0.0299284
-0.0457992
0.0653324
-0.0304156
-0.0115292
-0.0937038
-0.0752676
-0.074524
-0.0565847
-0.132055
-0.027362
0.0179133
-0.125754
0.0356413
-0.103074
0.058382
0.0252157
-0.0787786
0.0652804
0.0794262
-0.0194627
-0.0439624
-0.0103627
0.0816409
0.0765507
0.0147033
0.0967946
-0.0140292
0.0390465
-0.117429
0.0253971
0.0278381
0.0578596
-0.00331422
0.0254638
-0.0289534
-0.00836482
-0.0306664
0.0742417
0.0366865
-0.0711152
0.0100072
-0.0191851
-0.0729527
-0.05362
0.0351319
-0.0376809
0.0830369
0.036926
-0.000386902
0.00463652
0.00762177
-0.00474889
-0.00624999
-0.0965329
0.0137025
-0.0487603
0.0312208
0.0501799
-0.0480631
-0.0749649
0.0387382
0.0368403
-0.00205171
0.0394661
0.0123291
-0.0983982
0.0486841
0.0133867
0.00418396
0.0486101
0.0715986
-0.00448641
-0.0521733
0.0237361
-0.0884897
0.102476
0.00885754
-0.0709242
0.00246349
-0.0547045
-0.0756165
-0.0221209
-0.0667477
-0.0405379
-0.0520445
-0.00537625
-0.0183325
0.0443209
-0.0349921
-0.0499403
0.0386643
-0.0528951
0.0131163
-0.0297429
0.00532992
0.037482
-0.0514752
-0.033834
-0.0366993
0.0770948
-0.0646695
0.0268206
0.0454839
0.00740794
0.0130433
-0.0795485
0.000465388
-0.0916001
-0.11183
0.0780994
0.0400972
-0.0220651
0.0271164
0.0729284
0.0251867
0.0221768
-0.0288006
0.0199093
-0.0324758
0.0142639
0.0831808
0.00274348
-0.0492444
0.0722111
0.054092
0.0807762
0.01635
0.0723871
0.0206743
0.00330068
0.00827574
0.0163576
-0.0253705
0.00508399
0.0515937
0.0756354
0.0530482
0.0111649
0.0745856
0.00519995
0.00592087
0.0618532
0.0434763
0.0655641
0.00967471
-0.0254568
0.0386066
-0.00223286
-0.0862323
-0.0778398
-0.0249348
0.0815567
0.0496468
-0.051312
-0.0440588
0.0627877
-0.0538501
0.039574
0.0307921
0.0110195
0.0200078
0.0997986
0.0939023
0.00111147
-0.0664598
-0.0308286
-0.00877074
0.0406335
-0.000225658
0.0372524
0.0965149
-0.000618415
-0.019933
-0.0481505
-0.0295436
-0.0247271
0.0357853
-0.0531772
0.0113147
0.0472819
0.0154399
-0.0267558
0.0631936
0.000125796
0.0232643
-0.0602924
0.0676046
0.028031
0.00789533
-0.0851763
-0.0843132
-0.0145924
0.0117524
-0.00824575
0.0401695
0.0608575
-0.0145763
-0.066885
-0.086592
-0.0444645
-0.0469035
-0.0646092
0.00927808
-0.000148539
-0.0445786
0.0171171
0.0584784
0.0492687
0.00097956
0.0370913
-0.0672551
-0.0375712
-0.0918784
0.0172878
-0.0146369
-0.00714394
-0.0696817
-0.0365813
-0.0254759
0.031764
0.0287835
0.0359826
-0.117666
0.0266543
-0.084477
0.0203397
-0.0336791
0.0623679
0.0410081
0.000554314
-0.0107171
0.0173939
-0.0401159
-0.00716383
-0.00229629
0.0197589
0.0370897
0.0434528
-0.00925566
-0.0153414
0.0153729
0.0141663
0.0568954
-0.0180067
-0.0904408
-0.0603521
0.100427
0.00615544
-0.035611
0.0292584
0.0753661
-0.0698283
0.023347
0.00401068
0.0745652
0.0767089
-0.0725857
-0.0212534
-0.0175105
-0.0416847
0.0131726
0.00505831
-0.0581919
-0.0051047
-0.00473305
-0.0549633
-0.0219741
-0.04408
0.0910543
-0.026106
-0.0422689
-0.0637574
0.0254482
0.10626
0.0385399
-0.0111266
-0.0636526
-0.0414138
-0.00430225
0.0643203
0.0119838
-0.0338259
-0.000885581
-0.00250675
-0.0731748
0.0386039
0.0556043
-0.0821835
-0.109361
0.00949637
-0.00483966
-0.0145425
0.0116466
-0.0280938
-0.0223069
-0.0294538
-0.0593659
-0.0210304
-0.0385804
0.0725503
0.0616303
-0.0415397
0.0299158
0.0608713
-0.00106463
-0.0388738
-0.0689054
0.00700585
-0.0124031
0.0399203
0.0460012
0.0733007
-0.0348418
-0.00922467
-0.0563644
0.0219843
0.0913525
-0.041285
0.026592
-0.00948869
-0.0445255
0.031549
-0.0438241
0.0118104
0.068915
-0.0264337
0.0279222
0.0287646
-0.0360091
-0.0660872
0.00299449
0.0905924
-0.0427836
-0.0396273
0.0754295
-0.0300005
0.0160192
-0.0187768
-0.0925086
0.0420775
-0.00798638
0.0525285
-0.0154657
0.0740073
-0.0194408
0.0246682
-0.0583698
0.0012285
0.00494271
-0.00657531
-0.0275126
0.0529762
0.0219291
0.00815624
0.0495408
-0.0306541
-0.000437383
0.0390818
-0.00766412
0.0240723
0.0184841
0.0276754
-0.111316
-0.0536324
0.052703
-0.109354
-0.032953
0.0344692
-0.113217
-0.0418304
0.0347632
0.133037
-0.137873
0.0122686
0.0612179
0.0708934
-0.0437849
0.00879151
0.0122723
0.115265
0.0755565
-0.0125265
-0.0966628
0.0391351
-0.00348012
-0.0274944
-0.00681579
0.172169
-0.00458448
0.00031197
-0.0222692
0.0232163
-0.0645474
0.0606981
0.0194933
0.0395074
0.080461
-0.00558773
-0.037699
0.0902849
0.0683217
-0.00479933
-0.0152279
0.00677646
0.0440533
-0.022157
-0.037532
-0.0317258
-0.0230632
0.0748958
0.0457699
0.00153068
-0.0476614
-0.0262019
-0.000424342
-0.0611865
4.50689e-05
-0.0105414
-0.0296878
0.0533422
-0.0177007
-0.0419781
-0.0412815
-0.00254789
0.0257255
-0.0801795
0.070892
0.0948837
-0.00764148
-0.0312667
-0.0351957
-0.0124521
-0.0254891
-0.0678111
0.0220737
-0.00446063
0.0823909
-0.0810942
-0.0408207
0.012444
-0.0636003
-0.0638462
-0.120009
0.0796962
0.0254083
0.0183184
0.0419878
0.0105933
-0.0556498
-0.0154291
-0.083877
-0.0020101
-0.0103269
-0.0130764
0.0196732
-0.0730711
0.0406385
0.0137014
-0.113268
0.0263804
0.0248579
0.00871313
0.0675667
0.0589328
-0.0632608
0.0019579
0.000908057
-0.0150725
0.00557896
-0.0360212
0.00369704
-0.0298238
-0.114011
0.0526677
-0.0307598
-0.00649622
0.0886071
0.0232834
0.0403219
0.0344539
0.121456
0.0406031
0.0426457
-0.035492
-0.0153238
0.00346668
-0.0743341
0.000368171
-0.00182262
-0.112296
-0.0702306
-0.00487024
0.0383092
0.0199626
-0.101638
0.0553104
-0.0328888
-0.037775
0.0154616
0.0196918
-0.0171507
0.0187835
-0.0533045
0.0857484
-0.0380432
-0.0601403
0.0237545
0.00125563
0.00496522
-0.0249091
-0.0225088
-0.0140627
-0.0731125
0.0590458
-0.0410089
-0.0269186
-0.0523615
0.00636166
0.0136694
0.014193
-0.0282628
-0.0701112
0.0220744
-0.0487481
-0.0291967
-0.0772011
-0.0156191
0.0456206
-0.0276018
-0.0394713
-0.0394108
0.0286217
0.0175811
-0.0132213
-0.0112789
0.0145853
-0.069908
-0.000430879
-0.0154903
-0.0823189
-0.0483741
0.0388222
0.0889468
-0.0579628
-0.0440449
0.0921949
-0.00833843
0.130936
0.0938768
-0.0279013
0.0198851
-0.083601
0.0361673
-0.00732821
0.0205756
-0.0496572
-0.00840376
-0.0336849
0.0854204
-0.0353364
0.0438701
-0.0381366
-0.0359546
0.018419
0.0920824
-0.132935
-0.0503829
-0.0846846
0.00625777
-0.105392
0.0949983
0.0739784
-0.0627347
-0.00967024
-0.0359092
0.0137138
0.00680232
-0.0238888
0.0185475
0.0337652
0.0727359
0.0277424
-0.0764911
0.0401778
0.0426458
-0.0523805
-0.0129013
-0.0237403
-0.00408785
-0.0150939
0.01778
-0.029845
-0.0468104
-0.0730102
-0.106403
-0.00968823
-0.00943599
0.0307862
0.0319948
-0.0296116
-0.0709896
0.0132181
0.0309354
0.00998326
-0.0729128
-0.029473
0.0240136
-0.0141585
0.01723
0.00456435
-0.0145729
0.0116237
-0.0360322
-0.0589897
0.123917
0.00252914
-0.0715336
-0.00938762
0.0869827
0.0760679
0.00917902
0.121965
-0.11378
-0.0585326
0.0233291
-0.0487825
-0.0623752
0.0873028
-0.0923779
0.0135215
0.0352724
-0.0244085
0.0120755
0.00725807
0.047908
-0.0669975
0.0415666
0.0111521
-0.0667298
-0.0497562
-0.00617162
0.129641
0.051736
-0.0585907
-0.0920104
-0.0397997
0.00414109
0.0969255
0.00817807
-0.0182317
0.0157873
0.0128029
-0.00273496
0.0674241
0.0399292
-0.0559232
-0.0414547
0.0226367
-0.0449516
-0.00724715
-0.0870807
-0.0744218
0.0670841
0.023646
-0.0209803
0.0225016
0.0379473
0.0602178
0.0435033
0.000884695
-0.0588263
-0.110016
0.0602824
0.0622541
-0.0667818
0.0143423
-0.0500718
0.101763
0.0327014
-0.00539285
0.0101781
-0.0741866
-0.0470346
0.0520499
0.0262319
-0.00746229
0.0336333
0.0338071
0.0207658
0.109777
-0.00455292
0.00881892
-0.0164607
0.0501142
0.0505897
-0.0136386
-0.00287901
0.0430487
-0.0119665
0.0425494
0.0229019
-0.064181
0.0553335
0.0692551
0.0305753
0.0604059
0.00494952
0.117703
-0.0192787
-0.0120782
0.0226197
0.0151489
0.0338629
-0.038832
0.095608
0.0519981
0.0950047
0.053442
-0.0837107
-0.0724632
0.0656637
0.024005
-0.00363948
-0.0120138
0.00171379
0.0302048
0.00168221
0.058757
-0.0854177
-0.012274
-0.020459
0.0692787
-0.0274433
0.0417433
0.0225277
0.00367443
0.0389306
0.00799181
-0.00786663
0.0629617
0.046151
0.0716091
-0.0468639
0.0990119
-0.0563213
-0.0368463
0.0261902
-0.00144742
-0.0982355
-0.0107183
0.102976
-0.0584877
-0.0210561
0.0212189
0.05679
-0.0134853
-0.0785553
-0.0670301
0.0621331
0.11622
-0.0397334
-0.0364366
0.035745
-0.038884
-0.0353889
-0.00360764
-0.0517717
0.0676197
0.066188
0.0376605
-0.029013
-0.0337047
-0.0286796
-0.0365391
0.0780554
-0.0237446
-0.0550235
-0.111693
0.0416244
0.0186175
0.0305047
-0.0132864
-0.00543132
0.0294721
0.0962532
-0.0987964
-0.0472973
0.00751604
-0.0592012
0.0406746
0.0945438
-0.0406157
0.0343688
0.0178188
0.00841322
-0.108731
0.00614735
-0.0206741
-0.0148537
-0.0432733
0.0518924
-0.030583
-0.026553
-0.0561404
-0.0399806
-0.151038
0.0408663
-0.0230662
-0.0922178
0.0753659
0.0569054
0.0112409
0.0812527
-0.0535718
-0.0685471
0.00414312
-0.0102092
0.0514515
0.0857234
-0.00898977
-0.0072522
-0.0186635
0.0824712
-0.0281891
0.0165373
0.0610386
-0.0128769
-0.040948
0.00583867
0.00581171
-0.0142881
-0.003981
0.00188933
0.0115892
-0.0522444
-0.0151095
-0.0346599
-0.00979481
0.00487121
0.0218294
-0.0619206
-0.0191443
0.016422
-0.0253424
-0.0525873
-0.00287797
0.0753344
0.110917
-0.0326042
0.0677553
-0.040412
0.007535
0.0112297
-0.0021049
0.0115247
0.060437
-0.00257369
0.0260171
-0.0226663
-0.00060847
0.0381715
-0.0103619
0.00279083
0.0414801
-0.108444
0.0596001
-0.0126842
0.0702287
0.0101658
0.0972619
0.0452765
-0.134458
-0.0182133
0.0614003
0.0547881
0.00941237
-0.00420591
0.0413807
0.00294192
-0.049538
0.0259936
0.02267
0.16004
-0.0206354
0.0637919
-0.109112
0.0215337
0.0922672
-0.066321
0.0079804
-0.138798
-0.0188518
-0.11956
-0.0308988
0.0419267
0.0174342
0.0048939
-0.0370389
-0.0247025
-0.0901197
-0.0219373
0.0101715
0.0589903
-0.0582814
0.0377492
-0.0180527
-0.0374959
-0.0236457
-0.035483
0.089484
-0.065572
0.0579255
-0.0497285
0.0368682
-0.0159327
-0.0126967
0.0564841
0.00798291
-0.0225387
0.0384859
0.0409583
0.0344082
0.0365414
-0.108178
-0.0586844
-0.0563742
0.0306731
-0.0121071
0.116
-0.00766488
-0.00694685
0.0807275
-0.0355924
0.00549472
-0.0221403
-0.00774387
-0.000747317
-0.0077134
0.0953968
-0.0470067
-0.009868
0.0292999
0.0039293
-0.00782787
0.00557881
0.0232543
0.0153279
0.0210775
0.0879078
0.0642557
0.0589426
0.0212387
-0.000446308
0.000161576
0.0889629
0.0507067
-0.00201422
0.0163174
-0.0182976
0.00731699
0.0171463
-0.0531812
-0.046543
0.0739552
0.0680942
-0.0980277
-0.0216244
-0.0217724
-0.0278144
0.0241636
-0.0151852
0.02578
-0.0638636
-0.016585
0.0148269
0.0211012
0.0452154
-0.0609249
0.0453191
-0.0494117
0.0117573
0.0239331
-0.0172586
0.0240261
-0.00978944
0.000442065
-0.0153332
0.0155602
0.0244989
0.0257882
-0.0818115
0.000275987
-0.0822868
-0.00578141
-0.0363008
0.0158861
-0.0198862
0.00917741
0.000585927
-0.022134
-0.0444319
0.0251631
-0.0259936
-0.00558162
0.0135313
0.0171013
0.0358938
0.0700327
0.0485757
-0.0747869
-0.0720343
-0.033038
-0.0438759
0.00092328
-0.062811
0.126669
0.0596167
-0.0301764
-0.00838516
-0.0319124
0.0690058
0.0558907
-0.00175875
0.0147264
0.0474611
0.0457373
0.00032402
-0.0873966
0.0119886
-0.0626581
0.0613641
-0.0425034
-0.0476885
0.0176168
0.0407778
0.0366747
0.168907
-0.0265126
0.0169596
0.0141667
0.080088
0.0316857
-0.00895493
-0.070441
0.0326295
0.0021451
-0.0402095
-0.0456381
0.0407731
0.0606287
0.0358053
-0.105142
0.101776
-0.0276952
0.037796
-0.0353152
0.0254167
0.00634101
0.00736431
0.0371177
-0.0423681
-0.0351088
-0.0169121
0.0683241
-0.0187024
0.00325676
-0.0265099
0.0138202
-0.0358221
-0.0518655
-0.044809
0.0264231
-0.0452202
-0.0713659
0.031268
0.0622391
0.0282853
0.0924431
-0.00800058
-0.0206754
0.00032064
0.0642553
0.00169502
-0.0100061
0.0859107
-0.0628577
0.0400659
-0.000375972
-0.00343726
0.0430955
0.0638343
0.0377514
-0.176256
-0.0432786
0.0806703
-0.0277998
0.0655163
-0.0512866
0.0139195
-0.0248061
0.125413
-0.0134961
-0.00464889
0.0699597
-0.0201719
-0.00669334
-0.0990829
0.0131012
0.0626889
-0.00389593
-0.0211011
0.013281
-0.000184494
0.0499555
0.0800398
-0.0848324
-0.0545235
-0.0781968
-0.0872901
0.0311618
-0.0554424
0.010643
0.0265037
0.00426631
-0.00188889
-0.0213445
0.00942974
-0.0448052
-0.0500195
-0.00914999
-0.0150808
-0.0244531
-0.00293186
0.086516
-0.0198667
0.00814287
0.00256431
-0.00755495
-0.00539427
-0.011254
0.0677489
-0.0225344
-0.00739922
0.0388203
-0.0570513
0.0430198
-0.0427705
-0.0216863
0.0525844
0.00489666
-0.0247118
0.0538067
0.125176
-0.0900001
0.0349208
0.0800094
-0.0962182
-0.0845273
0.0153256
-0.00200769
0.0332038
0.0591741
0.0453563
0.00181116
-0.0423418
-0.049988
0.105691
0.00268706
-0.0293593
-0.0126522
0.0348154
-0.000885905
0.00392602
-0.00805287
0.060415
0.0524984
-0.0102555
0.028216
0.0339303
-0.0222666
0.0298322
-0.0191051
0.0910109
0.0458702
0.0460754
-0.0488494
-0.0364541
-0.0186106
-0.0379393
0.0198808
0.0555203
-0.0072282
0.0750471
-0.0339907
0.0330241
0.0016396
0.00258241
0.0926222
-0.0714128
0.0172554
0.0380935
0.0472023
0.0598071
-0.022466
0.0937849
0.0440853
0.0543724
0.0520481
0.0594158
-0.0148653
-0.0154757
0.0325609
0.107752
0.00567917
0.0884008
-0.0211482
0.0150305
0.0365601
0.0208814
-0.048967
-0.045197
0.134337
0.0752497
-0.0103981
-0.0135129
-0.0189765
-0.041603
-0.0111688
-0.0256901
0.0746815
-0.0185188
-0.00398101
0.0482067
-0.00964205
0.019827
-0.0392406
-0.048554
-0.00292134
0.0394292
-0.0124679
0.092564
0.0056164
-0.0151278
-0.0185616
-0.00339419
-0.00301289
0.0108258
0.00736231
0.0225021
-0.0564674
0.00051424
-0.0181421
0.0100312
0.0533639
-0.0504571
0.129609
0.0402785
0.0143031
-0.0377894
0.0597979
-0.0864207
0.065978
-0.00551375
-0.0412845
0.0766228
-0.0960587
0.0256828
0.0143963
-0.0548318
0.00315383
-0.0152876
-0.0236374
-0.084856
-0.072203
0.028648
0.0658073
0.0113943
0.020616
0.0393275
0.062626
0.0429397
-0.0472295
-0.0545278
-0.0880898
-0.038582
-0.0775443
0.0506702
0.0156136
-0.0562257
0.00509189
0.0362944
-0.0225272
-0.0310889
0.0182911
-0.0482258
0.0128498
-0.0217415
-0.0161289
0.017302
0.00158966
-0.0741857
0.0201235
-0.123015
-0.0193297
-0.00460672
0.0176625
0.0251597
0.0500536
0.0165505
-0.015545
-0.019396
0.0932809
-0.0371773
-0.0290499
0.0161794
0.00192571
-0.0790759
0.102348
0.0131911
-0.0552184
0.0344621
0.0887783
-0.0367447
-0.0165809
-0.0026935
-0.0526778
-0.0699084
0.0159641
0.0255329
-0.0329313
-0.0157802
0.031447
0.00886954
0.0360679
-0.065459
0.0510941
-0.0462249
0.0761755
-0.062402
0.109815
-0.0658647
-0.0125836
-0.0333933
0.00380339
0.0163374
-0.0468889
0.0709131
0.0151686
-0.0163785
-0.0366197
0.102145
0.0256617
0.00892274
0.0406296
0.0506875
-0.075941
-0.025361
0.0838306
-0.0141184
0.0964784
-0.0468596
-0.00916667
0.0178234
0.00464781
-0.0308108
0.00572693
-0.00623188
0.015626
-0.00981153
0.00140117
-0.00642564
0.0516481
-0.00451722
-0.0162487
-0.0236411
0.112203
0.0166352
0.047593
0.0757211
0.0598555
-0.0279724
-0.0147373
-0.0180124
0.0388267
0.0400717
0.0860687
0.0429268
-0.0622953
-0.0179635
-0.0266101
-0.0327542
0.0247863
-0.0163542
0.00403168
-0.051964
-0.0488145
0.0439114
-0.0499838
-0.0750504
0.029889
-0.0126227
0.0170877
-0.00308858
0.0229899
-0.055329
-0.010195
-0.0826774
0.0331552
-0.00549942
0.0178096
0.0520933
-0.0136856
0.0216343
-0.00725529
0.0255614
0.00598569
0.0487629
-0.124872
-0.0596626
-0.017228
-0.053556
-0.0257607
0.0132543
-0.0305047
0.00753342
0.017649
-0.00370512
0.0162698
0.0478364
-0.0622386
-0.0214083
0.00705859
0.056456
0.088838
-0.0531754
0.0636372
-0.0369572
0.00422041
-0.026876
0.0191055
-0.0596589
0.0326917
-0.0855852
-0.0848364
0.0234102
-0.0448873
-0.0532455
-0.00416676
0.0467577
0.0483388
-0.0141564
-0.0200892
0.0273651
-0.00267971
0.0230387
0.0443674
0.034628
-0.0323029
-0.00233211
-0.0132336
-0.0661987
-0.0594098
0.0135763
-0.0420914
-0.00485989
-0.0442037
0.0582176
-0.00469588
0.0263201
-0.0407346
-0.0983945
0.0814798
-0.00233463
0.0231659
0.0460833
-0.00386386
0.10531
-0.0511402
0.031828
0.0204195
-0.0676203
-0.0402091
-0.0420492
0.0619492
-0.0549083
-0.00445011
0.0957166
0.0400774
0.00434391
0.0162378
0.021819
0.0421889
0.0284691
-0.0585619
0.0842187
0.0395595
-0.0509012
0.0910545
0.0599868
-0.0160479
-0.0638966
-0.0145278
-0.00184745
-0.0379551
0.051927
0.0934359
-0.0375901
0.173161
0.0127567
0.0239168
-0.072795
0.06185
-0.0513867
-0.0157281
0.0526524
-0.034371
0.0228449
-0.0577711
0.0353411
-0.0324249
-0.0203529
0.0954075
0.0519763
-0.0465523
0.0594102
-0.0428774
0.00525523
-0.0582845
0.0956263
0.0295761
0.0653293
0.0238727
-0.0535977
0.0555081
-0.0141056
-0.0151096
-0.0153337
-0.011738
0.0132049
-0.0452292
0.126938
0.0150822
0.0297968
0.0153965
0.150706
-0.0567821
-0.0496893
0.0118249
-0.00859452
-0.0533381
-0.0217695
0.0178488
-0.105234
-0.0244793
0.00940025
0.00484678
-0.0244349
0.0593899
0.0621818
0.00458065
-0.0674082
-0.05289
0.0363522
-0.0224405
0.0144648
-0.0440884
-0.0361989
-0.0417771
-0.0769849
0.0556251
0.0810269
0.0470942
0.0390637
0.018114
-0.0032821
0.00709765
0.0755974
0.0499757
0.0341918
0.0180478
-0.0193892
0.0293642
0.0321296
0.0440996
-0.0328363
-0.0822852
-0.000894149
0.0207522
0.0254393
-0.0586852
0.0353902
0.0884951
0.0296772
0.0398292
-0.0333503
-0.0309133
0.00341226
-0.0389625
-0.0610896
0.0478082
0.0617992
-0.0158502
0.0362272
-0.0406723
-0.0307196
-0.0417764
-0.0051057
-0.0883119
-0.0102482
0.0221343
-0.0473091
-0.0118358
-0.0826339
-0.0316642
-0.088861
0.0327127
-0.103774
0.0216655
0.0123221
0.0672694
0.0380952
0.0647458
-0.0328963
-0.0801783
0.0861415
0.0569668
0.00145036
0.0317828
0.0388849
0.00535532
-0.0756789
0.00393626
-0.00261996
0.0115759
0.0288834
0.0528125
0.0433884
-0.00565396
0.0497775
-0.0121117
-0.0393076
-0.0826799
0.0285962
0.0948007
-0.113579
0.0326496
0.0386258
-0.0103473
0.0373405
0.0390142
0.123777
0.0378285
-0.0935041
-0.0464195
-0.074669
-0.0583329
0.0348747
0.0504598
-0.00555774
0.00107914
0.116711
-0.0541219
-0.00241005
-0.0432363
0.00969425
-0.056912
0.0475075
-0.0870227
0.0606442
0.00355008
0.05534
-0.00847274
-0.0291836
-0.199788
-0.0316946
0.0608436
0.0846028
0.0460099
0.00159786
0.0382133
-0.0822446
0.112655
-0.00808513
-0.0204908
-0.119999
-0.0367722
-0.0429783
0.090013
0.0794057
-0.019544
-0.0258991
-0.0226727
0.00678075
-0.0168084
0.0379596
-0.0139939
0.0474319
0.0303459
0.0941036
-0.0661357
-0.0198411
0.0556856
-0.0899966
0.0382431
0.0240263
0.103114
-0.00833465
-0.0115675
0.0180679
-0.0202236
0.0527657
0.00294257
-0.0283446
0.010096
-0.024725
-0.0370311
0.0424258
-0.062588
0.0795701
-0.11367
0.0176784
-0.0405984
-0.00433538
0.0225138
-0.0113514
0.0366058
-0.00101219
0.0662879
0.107419
0.00383841
-0.0094184
-0.0338124
-0.0479804
-0.00844852
0.041184
-0.0306343
-0.0117433
0.0199032
0.150092
-0.0188338
0.0269929
0.0424004
0.0118242
0.00154817
-0.076164
-0.0265617
0.0668915
-0.0923894
0.0107783
-0.0494051
0.00538987
-0.0334353
0.0667176
-0.11402
0.00340522
0.0152032
-0.0398072
-0.0836487
-0.0407787
0.0401537
-0.100191
-0.0047
0.0220585
-0.0333865
0.048949
-0.0387067
-0.0419436
0.0194637
0.00713921
0.0403485
-0.0659713
-0.0354331
-0.0444839
0.0324383
-0.0238712
0.0465497
-0.00456524
0.0784344
0.0207445
-0.0530256
-0.0519262
0.0152646
-0.0164969
-0.0858829
0.0077015
-0.0274432
0.055024
0.0495517
-0.111984
-0.00136595
-0.0199599
-0.00769727
-0.0788142
-0.014941
-0.0503814
0.0126267
-6.05114e-05
0.00746671
-0.00234385
-0.105286
-0.0790862
0.00637904
0.0116406
0.00209874
-0.0424498
0.0581236
-0.0858935
0.00163601
0.0679376
0.0275836
-0.0501226
-0.113915
0.0387867
0.0734519
0.00396208
0.0436869
-0.0768553
-0.0260172
-0.0606376
0.0484741
0.011801
0.0335233
0.0290582
0.0819609
0.060967
-0.0418915
0.0169376
0.00708178
-0.0269911
0.0231075
0.0364868
0.0583613
-0.025211
-0.0744006
0.00301551
0.0797699
0.130224
-0.0839039
-0.0586705
-0.0432312
0.0344439
-0.0535521
0.0609009
-0.0585657
0.00408838
-0.0760615
0.0240537
0.0364516
-0.00967646
-0.0982277
0.0104851
-0.0732341
0.0060275
0.0691807
0.0280473
0.0149162
-0.0986894
0.0626933
-0.0523101
0.0302082
0.0344908
-0.0369318
-0.0374732
-0.0910448
-0.0134917
-0.00667886
-0.0998206
0.043484
0.0404321
0.0626773
-0.0546015
-0.0409185
-0.00591795
-0.0134517
-0.00277726
-0.0622578
0.012684
0.0388137
0.015825
-0.00713874
0.0931274
0.059593
-0.0748624
-0.0422398
0.0939656
-0.0537396
-0.0816194
0.0705392
-0.011706
-0.0229815
0.202354
-0.0481934
0.0543668
-0.0789611
-0.0905675
-0.0204875
0.0887443
-0.00419414
0.0273227
-0.0375755
-0.0525036
-0.0831669
0.0466425
0.031602
0.00418275
-0.0191974
-0.00213018
-0.00103246
0.0135937
-0.0252965
0.0136682
-0.0255634
-0.0661902
0.00813805
-0.0283802
-0.0139677
0.0495158
-0.0127754
-0.0266802
-0.0386774
-0.117929
0.0722069
0.0198539
-0.0268357
0.0479312
-0.000193205
0.0284875
0.0821194
-0.0957345
-0.0244127
-0.0538786
-0.0346339
0.0217702
-0.0287284
0.0243983
0.0697253
0.0886772
-0.0921718
0.0315802
0.084219
-0.0396777
0.00871179
-0.0763197
0.023548
0.0268331
0.0511025
0.00663942
0.0402291
0.0306703
0.0502943
0.0051572
-0.0444881
-0.0293442
0.0626325
-0.0698423
0.0435522
-0.0342765
-0.0158107
0.0854808
0.0101964
0.026592
0.0423383
-0.0245762
0.0253852
-0.115752
-0.00664372
0.0501888
0.0746662
0.0967596
-0.0118452
0.0134781
0.00304054
0.000485611
0.0161411
0.0087295
-0.037786
-0.045107
-0.0095441
-0.131573
0.00124672
-0.00136711
-0.00544805
0.0262824
-0.0884142
0.0440839
-0.00733816
-0.0118496
-0.073879
0.016975
-0.0391614
0.0222989
-0.0813884
-0.0584288
0.0540297
-0.03154
-0.0906276
0.000771601
-0.00214824
-0.0347469
0.0553066
0.0303218
0.0705399
-0.0162215
-0.0543385
-0.0291542
-0.0517316
-0.115704
0.0432763
-0.0426
0.00390829
-0.0579357
-0.0627066
0.0408363
0.0828153
0.0438799
-0.0436982
-0.0755067
0.0914829
-0.00165531
-0.0484509
-0.0285043
-0.0813964
-0.0274646
-0.0125348
0.0983241
0.0284063
0.0382528
0.0302121
-0.0363716
0.0305997
-0.0509209
-0.0300101
0.00602088
0.0247239
0.0336023
0.014573
-0.0481096
-0.128173
-0.0318837
0.00671619
-0.0105339
0.0145253
0.0326354
-0.02529
-0.0795116
-0.00251172
-0.0281947
-0.0436333
0.026955
0.0309424
-0.0286247
0.00513577
-0.0349225
-0.0482319
-0.0163608
-0.0176904
0.00980223
-0.0932826
0.0338275
-0.0396645
0.0121938
0.0784311
-0.0515568
0.00551266
0.0462374
0.0956429
-0.0856976
0.0159975
0.0681481
-0.026374
-0.0207399
-0.0167278
-0.0152521
0.0629018
0.0135005
0.13865
-0.0516443
-0.0066947
-0.00214648
0.0569482
-0.0102647
0.0933349
-0.0386155
-0.0616821
0.0425439
-0.00368801
-0.0382571
0.0061098
0.0115495
-0.0963176
0.0662828
0.00458622
0.0475426
-0.0397543
0.00125896
-0.000862133
-0.0141864
0.0225143
0.0189719
0.0162373
-0.0249841
-0.00153336
0.0655702
0.00896391
0.07682
0.0027015
-0.0508986
-0.00710016
0.00477809
0.00861763
-0.0153902
-0.0566426
-0.067029
0.017326
-0.0455952
0.0906932
-0.0219973
-0.0343145
-0.0161957
-0.0652603
0.0455285
0.0744374
0.0970841
-0.0286114
-0.0457839
0.0380986
0.0648372
0.0109174
0.000694634
-0.0651082
-0.00427825
-0.0576755
-0.0326249
-0.0230672
0.0122647
0.00998182
-0.0468513
-0.0134044
-0.0200065
-0.029838
0.0119892
0.0181072
-0.00245109
0.00129177
0.0346897
0.0422996
0.0516162
-0.0444401
-0.0197235
-0.0613595
-0.00701137
0.0341606
-0.0280524
0.033605
-0.0448887
0.0613037
0.0258461
-0.062246
0.0127539
0.0525453
-0.0175892
-0.102141
-0.0444794
0.0560183
0.0519111
-0.0451048
-0.0632208
0.112223
-0.155081
0.0349087
0.00373853
-0.0143561
0.00680101
0.0358835
0.0805924
0.0798363
-0.0907113
-0.0136872
-0.0297141
0.0898545
0.0153342
0.0599415
-0.0690932
0.0131573
-0.0423953
0.0263023
0.0386763
0.0256967
0.118374
-0.0843178
0.0409174
-0.0278613
0.0617754
-0.0211771
-0.00695175
-0.0623015
-0.0560631
-0.0505501
-0.0299537
0.00995147
0.00750838
-0.0449253
-0.0853435
0.0386859
-0.0698601
0.00361272
0.0130773
0.0657306
-0.0249733
-0.114894
0.0437215
-0.0127379
0.00383766
0.0880586
-0.0535266
0.00661841
0.157866
0.101861
-0.0511496
0.0122538
-0.0339806
-0.0229338
0.00486883
-0.0545458
0.0858116
0.00524038
-0.00651278
0.0294934
0.0573521
0.0111171
0.0497347
-0.022166
0.0408219
0.109915
-0.0526784
-0.0796145
0.0318096
-0.0166836
-0.0625375
0.0266904
-0.0727593
-0.0878668
0.027049
-0.120757
0.0134742
0.00779887
0.0489092
0.0713695
0.0624904
-0.0116077
0.0170908
-0.0880554
-0.0115625
-0.00274878
-0.0444344
0.0706064
0.0983222
-0.0933349
0.0263184
-0.0278589
0.0211734
-0.0238511
-0.0210341
-0.045872
-0.120216
0.0106645
0.0490756
0.0785946
-0.0501345
-0.00336675
-0.00792785
0.0718762
0.0820271
0.050062
-0.0422753
0.0280204
-0.00753492
0.0315161
0.0854558
-0.0387434
0.0175948
0.0204172
-0.00304609
0.157096
-0.0155234
-0.00779205
-0.0234649
0.0539071
-0.0258227
-0.0571212
-0.0254679
-0.0157703
-0.0200493
-0.0037546
0.0160379
0.0525593
0.0167549
0.0647567
0.0477928
-0.0137363
-0.0369163
0.00302049
0.0126577
-0.00426558
0.0370233
0.00272216
0.0269514
0.0129368
0.125798
0.00683531
-0.0178513
0.0633888
0.0399614
-0.00812788
-0.0680139
-0.0759039
0.0897703
-0.019757
0.0179078
-0.0178353
0.0747627
0.0755254
-0.0593346
0.0333182
-0.00202536
-0.00761594
0.0557418
-0.0885236
0.0707176
-0.00460104
0.093741
0.114479
0.0273385
0.055848
-0.00031068
0.0225335
0.00781711
-0.0708938
0.0162168
0.0315736
-0.0202638
-0.074338
0.0210497
0.0772912
0.0355062
-0.0620703
-0.0334782
0.00884324
-0.00748587
-0.0329771
-0.0113548
-0.0264244
-0.0415816
0.0117418
0.111425
0.0181539
0.0572055
0.0163892
-0.0503644
-0.0333274
0.0839726
0.0662947
0.00341009
-0.0995172
0.00364301
0.0575669
-0.0345222
0.00376492
0.110659
-0.00557094
0.00176077
0.0949187
-0.0339372
0.0216458
0.0591673
0.00326556
0.0501127
0.0824891
-0.0198998
-0.0403351
0.05839
0.0138789
0.0160822
-0.0508812
0.0432902
0.0185545
-0.0526034
-0.042232
-0.0280106
0.0506531
0.0153056
0.00261623
-0.0949252
-0.013263
0.0735247
0.0820535
0.0264801
0.0127594
0.0837097
0.0321338
0.0565298
0.00549216
0.0244306
-0.0228244
0.00224415
-0.133431
0.0732591
-0.00966671
0.0161846
-0.0328121
0.00990445
0.0379871
0.00372678
0.0513585
-0.100245
0.0283845
-0.0437415
-0.0189869
-0.0368529
-0.0406087
0.0374296
-0.0348869
-0.0563127
-0.0162498
-0.0539586
-0.0493553
-0.00369042
0.00612559
0.00765751
0.0138881
-0.0180753
0.032314
0.0139867
0.022224
-0.00712895
-0.00751823
0.0109391
0.0302261
-0.0486392
0.0518025
-0.00686505
-0.0474559
0.104445
0.0217652
0.0395278
-0.00813145
0.122465
-0.0177104
0.0162353
-0.00296818
-0.0557345
-0.0437754
0.0287417
0.0396507
-0.107544
0.0219052
0.0121733
3.4447e-05
0.0367947
-0.000298029
-0.0090124
-0.0634871
-0.0220258
-0.0692564
0.0267345
0.0377733
0.0285931
-0.0431221
-0.0120735
0.0156065
0.0343479
-0.0221036
-0.00199037
-0.0741525
0.0124062
-0.02886
-0.023364
0.0119714
0.0692678
-0.00848941
0.00417217
-0.0865566
-0.0118373
0.0140701
-0.0309759
0.0107457
0.0548226
-0.0672403
0.178285
-0.0325461
-0.0474031
0.00544194
-0.0472261
-0.0366255
-0.124075
0.0157323
0.0410607
-0.0810599
-0.0382934
0.0198708
0.0446777
0.0838273
-0.00274718
0.0148605
0.0341878
0.0902539
-0.0413861
0.0755268
-0.0659326
-0.0480157
-0.0213206
-0.0425358
-0.0799363
0.0499194
0.0182935
0.0348513
-0.0448961
0.00980787
-0.0500645
-0.0317411
-0.0170768
-0.0300295
0.0235134
0.0478631
-0.0486507
-0.00189624
-0.045289
0.0550642
0.0318261
-0.111192
0.0758045
0.0178627
-0.0149677
-0.0422372
0.0184152
0.0515184
-0.0411306
0.0254996
-0.0168426
0.051289
0.0406189
-0.0640587
0.0205923
-0.0191692
-0.00529193
-0.00572108
0.0123924
-0.000851484
-0.0359425
-0.0417446
0.00344519
-0.0282045
-0.0606655
0.0692311
-0.0159062
-0.0192443
-0.0660922
-0.0195865
0.00297337
0.0497477
0.0713348
-0.00105269
0.0616756
0.0875669
0.00205835
-0.0219114
-0.00639362
-0.0492259
-0.0958103
0.00530899
0.00290625
0.0649022
0.0153915
0.000769786
0.0239228
-0.0743735
-0.00231181
-0.00428463
0.000966477
-0.0155942
-0.0260981
-0.122112
-0.0759908
-0.0312136
0.0321996
0.0823345
-0.0296279
0.0620132
0.0352497
-0.000469227
-0.0663701
-0.0345242
0.0727932
0.0214793
-0.0344709
-0.00985007
-0.0424983
0.0112141
0.019253
0.0571444
0.0596166
0.0136249
0.0513355
0.00723775
0.0601567
0.0241313
-0.0581907
0.0851564
-0.0159143
0.0252401
-0.0450084
-0.101109
0.0347511
0.0383715
0.0474966
-0.00236607
-0.000198795
-0.0546454
-0.010994
-0.0125758
-0.0166168
-0.025538
-0.0512981
-0.0187346
0.0484248
0.0502958
-0.0315518
0.0239429
0.0603941
-0.000323783
-0.0239712
-0.083017
0.0543615
-0.0174686
-0.0176283
0.0894101
0.104436
0.0259909
-0.00367017
-0.017898
0.10487
0.00419431
0.030685
-0.030788
-0.0793053
0.0749717
-0.0413808
-0.00874491
0.0070955
0.00245998
0.0263231
0.103518
-0.015431
-0.00908786
0.0749887
0.000802828
-0.068827
0.107439
-0.119325
0.0126766
0.00661673
0.004196
0.0691189
0.0360185
0.00638254
0.0376987
0.00389312
-0.0303469
0.0823894
-0.0133294
-0.0620069
0.0383645
-0.0273793
-0.0719278
0.0211873
0.0407232
-0.00160434
0.00963552
-0.000614702
0.0887147
-0.066153
-0.0620065
0.0885568
-0.0484039
0.0878957
-0.0290484
-0.00393427
0.0427651
0.00475205
-0.00254556
0.0262924
0.0707453
0.0242362
0.0679254
-0.0545482
0.00854194
-0.0424488
0.0563741
0.0674995
0.00742331
0.108026
-0.10737
-0.0513922
0.00828299
-0.108748
0.000833489
0.0498419
-0.126534
-0.0178159
0.0342391
0.0568798
-0.0375025
0.054222
0.0200317
-0.0916395
0.13801
-0.00624849
0.0233367
-0.0150544
-0.0199395
-0.0507513
-0.0774932
0.0185124
-0.1291
-0.0482711
0.0263509
-0.0332006
0.0740863
-0.0323238
0.0589855
0.0182933
-0.0159128
-0.00686013
0.00550639
0.040151
-0.0279875
0.0542844
-0.0167723
0.0937824
0.0472428
0.0180695
0.155512
-0.0354314
-0.110578
0.0367757
-0.118195
0.0339535
0.0241732
-0.00130979
0.011851
-0.0601585
0.0202253
0.0441127
0.00722457
-0.0564194
-0.0400714
0.0229534
-0.0960758
-0.08139
-0.0431038
0.0581537
-0.0352854
0.085406
0.0226961
-0.00405401
-0.0148502
-0.0443806
0.0569701
-0.00557136
-0.023175
0.0209706
-0.0385166
-0.13477
0.0304869
-0.00852481
-0.0764746
0.00627225
0.0023529
0.0459556
0.0526576
0.0178615
-0.0261634
0.0429324
0.00924059
-0.07153
0.030075
0.0291504
-0.029028
0.052996
-0.0794941
0.0333242
0.0710957
-0.00598158
0.0183494
0.0207183
0.0177346
0.0196388
-0.0350629
0.011827
0.0444554
-0.0481889
0.00510776
0.0146008
0.0438835
-0.0438052
0.0191865
0.0317213
0.0251723
-0.0442087
-0.0309262
0.0230536
0.0723694
0.0308725
-0.0320105
-0.0364776
0.0613973
0.0116682
-0.0138322
-0.03737
0.0250446
0.0437475
-0.00454591
-0.0646966
-0.0509627
-0.101433
0.0713682
0.0406544
-0.0229506
-0.00745926
-0.0347168
-0.0536363
-0.0955798
0.0422279
0.0566181
-0.0771735
0.014663
0.00102918
-0.0545625
-0.0551778
-0.00297915
0.0965527
0.0536431
0.00471976
0.0696346
0.000983645
-0.0209063
-0.00602418
0.0154206
-0.0211843
-0.00657553
0.0421821
-0.0219078
-0.0597478
0.185054
0.0511926
0.058374
0.0723999
-0.0325522
-0.0401468
-0.0103874
0.0337327
-0.0170111
0.00578262
0.0914954
-0.0164286
0.0422778
-0.0710355
-0.0197418
-0.0707934
0.0788535
0.0137861
-0.105386
0.0685759
-0.0688648
-0.0330121
0.0659197
0.055725
0.0219535
-0.00776088
0.0903937
-0.0437514
-0.024984
-0.01627
0.0450029
0.0364026
-0.020031
-0.0386072
0.0257238
0.0284959
-0.00345033
0.0544466
-0.0451631
0.00312099
-0.00462043
0.007303
0.0752551
0.0228115
-0.0336012
0.0783328
0.0411084
-0.116258
0.00633496
0.00224693
-0.0507869
0.0463563
-0.0101634
0.0051767
0.0621058
-0.104871
-0.0785763
0.0360094
0.0197547
-0.0533383
0.0309344
0.108637
-0.0200068
-0.0329114
-0.068143
0.0692851
0.0110006
-0.0798233
0.0101851
-0.0683387
-0.0111939
0.0202656
-0.0730683
-0.0890378
0.02229
0.0319788
0.0178606
-0.00559916
0.0181655
0.111831
-0.0423201
0.116591
-0.0351685
-0.0274193
-0.0528099
-0.0440951
0.0663481
-0.0454211
0.0442003
-0.0166123
-0.00466708
0.0433047
-0.00131154
0.0383257
-0.0224818
-0.00478154
0.0712425
0.0294778
-0.0739472
-0.00290039
-0.0794762
0.077239
0.0772708
0.0537723
-0.00902925
-0.0925081
-0.097817
-0.0116514
-0.0066183
0.0269945
-0.00281873
0.0560916
0.000843183
-0.0665196
-0.0339786
0.114397
0.0672448
-0.0525862
0.00362187
-0.0507305
0.103986
-0.0345345
-0.0173877
-0.0622767
0.115875
0.00177011
0.00466245
-0.0809133
0.138642
0.113878
0.0174035
-0.0585175
0.0113533
0.00169508
-0.0351359
0.0907022
-0.0701332
-0.0492461
0.103055
0.0582617
0.0257348
-0.0236011
0.00588814
0.0194317
0.054466
-0.0464774
0.0526867
0.0710939
-0.0791414
0.0131781
0.00998802
-0.0439292
-0.0502871
-0.0952219
-0.0465461
0.0235515
0.014332
0.0461539
0.0989283
0.0512295
-0.15256
-0.0520461
-0.0189893
-0.0343486
0.0518558
0.0271763
0.0125789
-0.0350909
-0.118443
-0.0221177
0.0621614
0.152076
-0.0423608
0.0238638
-0.00205443
0.0592878
-0.0162857
0.0449101
0.110855
-0.0272094
0.00743792
-0.0863448
0.144433
-0.145146
-0.0055654
0.0945275
0.0929805
-0.0198956
0.105854
-0.0258396
0.0916864
-0.0835967
0.0464803
-0.0165447
0.115442
-0.0639994
0.054497
0.037512
-0.052889
-0.0453399
-0.0125938
-0.0518772
0.00228991
0.00216968
0.0129527
0.0244023
0.0194349
0.107825
-0.0319244
0.0973571
-0.0297045
-0.016638
0.0388905
0.0831004
-0.0566063
-0.0159491
-0.0374834
0.000145396
0.084491
0.14647
-0.00692044
0.0195079
-0.0381203
-0.0158453
0.0172103
-0.0619721
-0.0521501
-0.0171669
0.0527963
0.0319687
0.0410157
0.0219665
-0.0486424
-0.0448619
-0.0014829
-0.0734262
-0.0574701
-0.0128425
-0.0508269
0.0303651
-0.0783735
-0.0513725
-0.0267042
0.0560183
-0.0143059
-0.0736492
0.111809
-0.139231
0.0246139
-0.0700116
0.100594
0.0506772
-0.116171
-0.0747693
0.0401966
-0.0601287
0.0929425
-0.0128994
-0.120965
0.0670595
-0.0901505
-0.00368527
-0.0218342
0.0382517
-0.00391236
-0.029349
0.064077
0.044759
0.0051935
-0.00974321
-0.0682893
0.0452387
0.0441344
0.0049786
-0.0524773
0.0168213
-0.017151
-0.0666591
-0.00690593
-0.0149601
-0.0232879
0.00234359
0.0646076
0.0445452
-0.0884754
-0.0187037
0.0502169
-0.0764683
0.0345623
0.00279088
0.000654729
0.0453142
-0.0354749
0.0202213
0.00837142
0.00801923
-0.0121301
0.0965656
-0.0208918
-0.11141
-0.0286829
0.00920613
-0.0522315
-0.0604026
-0.0222142
0.0243641
-0.0554024
0.0603198
0.00386329
0.0309676
0.0800944
-0.0629439
0.0495667
0.109097
0.0813911
-0.142885
0.0411537
-0.00939539
0.00430155
-0.00304181
-0.055199
-0.0536203
0.0145514
0.0242052
-0.117199
-0.0280643
0.0220451
-0.0584325
0.0336027
0.0480991
-0.0277027
0.0441735
-0.0559098
0.0516836
0.0512252
0.0557307
-0.0435425
-0.089592
0.0487244
-0.0833997
-0.0366243
0.0755815
0.0721084
0.0481477
-0.00950502
0.0281498
0.0691762
0.0490873
-0.101043
0.000147807
-0.0861946
0.0421851
0.0229479
-0.114898
-0.0374386
0.0299058
-0.0243895
-0.00887126
0.038038
0.0124246
-0.0173216
-0.0219708
-0.0279103
0.0401433
0.0429801
-0.0653153
0.0603643
0.105648
-0.101118
0.0431845
0.0606351
-0.0084585
-0.0639457
-0.0223593
-0.0274597
0.0381221
0.0113835
-0.0355377
0.0764663
0.0447196
-0.0451572
-0.0187659
-0.0080031
-7.29591e-06
0.133769
0.0683964
-0.015297
-0.0201673
-0.0264163
-0.00227254
-0.032181
0.014508
0.00199409
-0.0305623
0.0271903
-0.00880044
0.0729905
0.0514743
-0.00637014
-0.00498556
0.0352285
0.0606147
0.0692151
0.0920068
0.0740614
-0.000102283
0.0130853
0.0615417
0.0991374
0.0615665
0.0928512
0.066763
0.034424
-0.0110253
0.0438858
0.0943708
0.00221093
0.0283823
0.0427041
0.0175508
-0.0135946
0.0600256
-0.0853435
0.0171553
0.0356577
0.0487786
-0.0172907
-0.0320135
-0.0134331
0.00188144
0.00824913
0.012388
0.0487996
-0.0496862
-0.0748117
0.00124206
0.0337287
-0.0562787
0.0340951
-0.00545063
0.0118536
0.036582
0.0664097
-0.0683057
0.0344924
-0.0883571
-0.0938548
-0.107828
-0.0605203
-0.0326098
-0.0187717
-0.0210769
-0.00325213
0.0371322
-0.0238179
-0.0962971
0.0161647
0.0479463
0.0315357
-0.0297192
0.0234849
0.0331769
-0.0136719
-0.00498059
0.00741816
0.0385582
0.076302
-0.0125694
0.098533
0.0998062
-0.0111376
0.0929016
-0.0528626
-0.0153962
0.0356538
0.0752618
-0.0296778
0.00975261
-0.0395792
0.0618829
0.0401038
-0.0532228
0.0469543
-0.044846
0.0566338
0.0203652
0.0731638
-0.0584002
-0.0741636
0.0659012
0.0142335
0.00901957
-0.0320968
0.0142171
-0.0698144
-0.0707521
0.0323167
0.0537897
0.0177247
0.045111
0.0526135
0.0259167
0.0248948
-0.00496413
0.0715998
0.0145939
-0.15031
0.00592565
0.0630821
-0.00144019
0.00714322
-0.0492928
-0.0477121
0.0323903
-0.079517
-0.0487859
0.0167401
-0.0630937
0.1528
0.0521238
0.0284444
-0.0336396
0.12677
-0.00569817
-0.0147881
0.0923949
-0.0694232
0.00479499
-0.0607384
-0.00600865
-0.0250506
0.0791702
0.0887172
-0.0123419
0.00842172
-0.0538156
-0.0306702
-0.103132
-0.0880558
0.0230257
-0.0165249
-0.00118352
-0.0328122
0.0200716
-0.0459451
0.0642495
0.0209584
0.0545599
-0.00873576
0.0449115
-0.0862264
0.0856466
0.0277716
-0.0293416
0.0182492
0.0815357
0.0334405
0.00239108
0.127092
-0.0246069
-0.0210397
0.0270919
-0.0684651
0.046043
0.036324
-0.0498836
0.0938848
-0.0724761
0.0458058
-0.0990247
-0.00322192
0.0428231
-0.0172857
0.0210626
-0.0686594
-0.0387308
0.0379633
0.032114
-0.0976142
-0.0648073
-0.0544446
-0.0433888
0.0586476
0.0367732
0.046765
-0.0790834
-0.0790957
-0.0640903
-0.0357738
-0.0170399
0.0639839
0.0526792
0.0608391
-0.0662922
-0.0514137
-0.0600384
-0.0130759
0.0096346
-0.0762615
-0.0736511
0.0113012
-0.0159537
0.0930503
-0.0100509
-0.0888916
0.024231
0.0234011
0.0631585
0.0164794
-0.0314586
0.0272155
0.00709241
0.00118887
0.0583736
-0.0740651
0.0766076
-0.0406413
0.0478322
-0.00264242
-0.00617085
0.0877614
-0.0185843
-0.0244733
-0.0200899
0.0342234
-0.0219166
-0.0291929
0.0156739
0.0202476
-0.0560432
0.0912112
0.0178344
0.0240279
0.0451848
-0.0199007
-0.0235943
0.0314608
-0.00764291
0.0489924
-0.0481179
0.0392567
-0.0034988
-0.00204174
-0.00288826
0.0118724
0.0827951
0.100467
-0.0814894
0.0247652
0.0377761
-0.0682003
-0.0419048
-0.0477276
0.0786236
0.0170991
0.0428268
0.033888
0.00267791
-0.0148679
0.0436311
-0.0410607
0.0348305
-0.0199853
0.0636326
-0.0251872
-0.0922078
0.0258869
-0.0170935
0.0317159
-0.0651982
-0.0133955
0.00211013
-0.145518
-0.00459544
-0.062022
0.00556049
0.0323863
0.0446509
-0.0204378
0.0805531
-0.0198405
-0.0233644
-0.0645341
0.0492432
-0.0559914
0.0193703
0.0235234
-0.0132051
0.0548356
-0.0935597
0.0325696
0.0608965
-0.0212176
0.0705108
0.0292529
-0.0069088
-0.00942559
0.0113551
-0.0175394
-0.0334064
0.0414492
-0.052565
-0.0502879
0.0475484
0.00684504
0.0533286
0.029402
0.0072391
0.0712069
-0.0124139
0.0229946
0.121714
0.0381466
0.0281442
-0.0279321
-0.0315633
-0.0781834
-0.0184063
-0.00311774
-0.00552105
0.0458447
0.00432766
-0.0210075
-0.0392613
-0.0220846
0.0803635
-0.000295847
-0.0452745
0.0295248
0.0106109
0.0476602
0.0147547
-0.100841
0.0372107
0.0216656
0.0388323
0.0189214
-0.0785874
-0.0152234
-0.0779306
0.00852082
-0.0427563
0.100276
-0.0292654
0.0820332
0.0917374
0.0471074
0.0249407
0.0117208
-0.0707677
0.0795101
-0.0515028
0.0175605
-0.00563252
0.0363627
0.0499353
0.109903
-0.0014143
-0.0878864
-0.0187533
0.0574456
-0.0595959
0.0356867
0.0775209
0.0399688
0.134946
0.00165652
0.0227616
0.0121007
-0.0342483
-0.0349592
-0.0843453
0.0482657
0.0053181
-0.0993536
-0.0213317
-0.0269957
-0.0362724
0.0448335
-0.0428983
-0.0750906
0.0115801
-0.0170148
0.0868272
0.0998565
0.0320012
0.0238879
0.00258285
-0.0425998
-0.0343077
0.0795354
0.0312403
0.0751958
0.00194187
0.0166451
0.0242105
-0.0508822
-0.0999008
0.0425932
0.0200657
-0.00511317
0.0864945
-0.0576205
0.157517
0.03826
0.0686695
-0.0259219
-0.045187
-0.0904824
0.0612393
0.0441408
0.0982991
-0.0649778
-0.0375135
0.0130994
0.00819438
-0.0203214
-0.0246201
0.0435882
0.0414171
0.0849465
0.0670019
-0.0160367
0.07986
-0.00882527
0.00785549
0.0773418
0.0688397
0.0415418
0.0598082
-0.10529
-0.0132561
-0.00163347
0.00542516
-0.0403857
-0.046391
-0.0628145
0.101639
-0.0989403
-0.00282347
-0.0157032
-0.0498074
0.0182312
-0.0542803
0.0424361
-0.026361
0.0330148
0.00761062
-0.0202536
0.103568
0.0642392
-0.0241116
-0.0067893
0.0656332
0.0208533
0.0294088
0.024365
-0.073805
0.0448174
-0.0491927
0.00708736
-0.0254443
0.039206
-0.0570762
0.0105073
0.0900377
0.0117506
0.0571329
-0.104325
-0.0151585
-0.0367546
-0.0232033
-0.0320151
-0.0376563
-0.025733
0.0221973
0.02426
0.0303845
0.0732196
-0.0242137
-0.0721125
0.00696832
-0.0429309
0.0230572
-0.0285086
0.017836
-0.0636527
0.0116284
0.0156736
-0.0265104
0.028413
0.0896371
-0.00827381
-0.031333
0.0215675
0.0375087
0.0157845
0.0950687
0.04379
-0.00379404
0.0345107
-0.00521723
0.0593261
0.0453739
0.0532792
0.00690548
-0.0387711
0.00914592
0.00428288
0.0353061
-0.0280716
-0.0484966
0.000387288
0.072756
-0.0632134
0.0670959
0.0380955
0.0611312
-0.0340749
0.100916
-0.0691941
0.0246291
0.0720569
0.0408099
0.00475731
0.0402544
0.0283389
0.0469017
-0.0170914
-0.0282777
-0.0218002
0.00488779
0.00544645
0.0210913
-0.0840273
-0.0359913
0.0105132
-0.0292184
0.0665318
-0.0263956
-0.0113855
-0.0258823
-0.0922108
-0.0841508
0.0265988
-0.017407
-0.00633887
-0.0799133
0.0785771
0.0321835
0.0126857
-0.0244509
-0.00953642
-0.0575848
0.133625
-0.0443982
0.170862
-0.0804968
0.0108126
0.0976895
-0.0155787
0.02922
-0.115083
-0.0963478
0.064141
-0.0319245
-0.0470599
0.0765411
0.0255473
-0.0593472
0.0209414
0.118697
-0.0319752
-0.0652573
-0.0651662
-0.0402619
0.0357388
0.0126998
0.0313575
0.0019536
-0.0113734
0.0247817
0.0166321
0.00815022
-0.0434235
-0.0304859
0.0284251
-0.00432154
0.00938033
-0.140889
-0.0541816
-0.0124233
0.0242096
-0.0736132
-0.0601871
-0.0218638
-0.016156
0.0959794
0.094331
0.00955043
0.00920259
-0.030974
0.00597478
0.0638955
-0.0449372
-0.0630953
-0.02154
-0.0249978
-0.0299036
-0.0125516
0.0548281
0.0706697
-0.000598037
-0.0412635
0.19845
0.0187646
-0.0013876
-0.0749174
0.0759512
0.0354363
0.0177589
-0.0108601
-0.0299706
0.0635968
0.030112
0.0688467
-0.134999
0.0521352
-0.0414848
0.100519
0.0764388
-0.0458937
-0.0881703
0.00946661
0.0466071
0.0121607
0.0270693
0.01289
0.0791805
-0.0124182
-0.0331175
0.0116902
0.0227335
0.0117087
-0.0134481
-0.0510749
-0.000711473
0.00576
-0.039357
0.0211962
0.0666843
-0.0173725
0.0197577
0.00803714
0.102184
-0.00151422
0.0988239
-0.00517333
-0.026031
-0.003284
0.0449902
-0.0793659
0.069551
-0.0547928
-0.0497506
-0.000788339
0.0252692
-0.0163173
-0.0712252
-0.0346989
0.068452
0.0251099
0.0131118
0.00878478
0.0171668
0.0276428
-0.00632282
0.0294094
0.00548544
0.0252939
-0.00909629
-0.010788
0.0729091
0.0493277
0.0734353
0.0726327
0.00531439
0.0411796
0.0680232
0.0809868
-0.0455885
-0.0188849
0.00515643
-0.117226
-0.0121473
-0.111634
-0.03586
-0.0949661
0.0085414
0.0504457
-0.0511133
0.00550246
-0.00522844
0.0225951
0.0356357
0.0197074
0.0482557
-0.0674051
-0.0559569
0.00628223
-0.0385526
-0.00524995
0.0642084
-0.0542983
0.0174104
-0.0426611
0.0475627
-0.000701354
0.0140271
-0.0127236
-0.0385862
0.020178
-0.14278
-0.095244
-0.00393411
0.0498062
0.0700541
0.0791076
0.0312356
-0.0293245
-0.0917556
0.0032507
0.0632933
0.0715975
0.0780632
-0.0223299
0.0113753
-0.0255108
0.024371
-0.0518715
-0.0365751
-0.0322872
0.0373116
0.0122974
-0.021982
0.00519837
-0.114443
0.0174621
-0.068248
0.0528075
0.0834786
-0.0353598
0.0637838
-0.00113003
0.038612
0.029633
0.0110406
-0.0269166
-0.0473797
-0.0524223
-0.0070691
0.0362428
0.0922646
0.0419822
-0.0689478
-0.055444
-0.00630543
-0.00819546
-0.00361434
-0.035636
-0.0367122
0.0475024
-0.0927688
-0.022303
-0.0130964
-0.0415485
0.0469297
0.08184
-0.0740361
-0.00345004
0.0153196
0.0534273
-0.0235042
0.0302301
0.00425994
-0.0145661
0.0223331
0.0111925
0.0162936
-0.0588932
0.0208645
-0.044719
-0.0975782
-0.115531
0.0169906
0.0598002
-0.0229049
0.0223955
-0.0367043
0.0276731
-0.131297
-0.000871228
-0.0710713
0.0846147
-0.123904
0.0644714
0.0686166
-0.0118427
0.0790942
-0.0258238
-0.0655199
0.00899051
-0.00426005
-0.0527454
-0.0122032
0.113465
0.0608477
-0.066165
-0.0524117
-0.0109235
0.0232344
0.0797516
0.0665073
0.00914604
-0.0681795
-0.0469805
-0.023028
0.0124896
-0.0819574
0.000301242
0.00845311
-0.0362019
-0.0102734
-0.0456631
-0.0341753
0.0140569
-0.0474635
0.0585693
0.0103358
0.0146709
0.0379878
0.00334147
-0.0934363
-0.0911357
-0.0625525
-0.0211742
-0.0597512
-0.0682626
0.0400403
0.015944
0.00191193
-0.0889834
0.078368
-0.0380991
-0.00237114
0.0877783
-0.011977
0.0192593
-0.0143784
0.057098
0.0623358
-0.0010435
-0.0418324
0.0722905
0.0445156
-0.00336921
-0.0511715
0.0113724
0.0785914
0.0797996
0.0760382
-0.0887554
0.0192842
0.0545372
-0.00715015
0.0268897
0.153759
-0.031096
0.0678442
0.00107345
-0.0363229
0.0348474
0.0146559
0.0354699
0.00942497
-0.00865998
-0.0366485
-0.0248302
0.0734998
0.0928466
-0.0441892
0.0799696
0.0642557
0.0265892
0.0513331
0.0400465
-0.014687
0.0329479
0.0725953
-0.00729145
0.00208371
-0.000488161
-0.0469579
-0.0874038
-0.0399461
0.0625572
-0.0253617
0.0183827
0.0123263
0.0679992
0.0225778
0.0727718
0.00505344
0.0446156
-0.0687339
0.00206641
-0.0625798
-0.0551485
0.0927368
0.00107615
-0.0827886
-0.0203878
-0.00409543
-0.0319395
0.0330303
0.0395058
0.0307164
-0.0460118
0.0536761
-0.00635479
-0.00533567
0.0806658
0.0138072
0.010373
-0.0213904
-0.0592314
-0.00490795
-0.0130654
-0.0865767
0.0459943
-0.013952
-0.024158
0.0357183
-0.0357422
0.0593048
0.0718816
0.0172024
0.0442785
-0.0861806
0.0279611
0.0130535
-0.093921
-0.0240062
0.016983
-0.0385129
0.0625494
-0.0255628
-0.00633042
0.0887146
0.0932582
0.00378658
0.0421415
0.027795
-0.0617621
-0.0347847
0.0228963
0.069575
0.00743243
0.0962651
-0.000411547
0.00904206
-0.0113296
-0.143616
0.0075402
-0.0689655
-9.65426e-05
0.0274482
-0.0139027
0.0378386
0.0532744
0.0969328
0.0418013
-0.0476603
-0.0168452
0.0624975
0.0289391
-0.124388
-0.0577218
0.0113762
-0.00852109
0.0579952
0.0757763
-0.123878
-0.016008
-0.0447811
0.0227725
0.0807019
-0.0485819
-0.0195726
0.026275
0.0518078
-0.0472932
0.0428372
-0.0845433
-0.0572126
-0.0120557
0.00393115
0.0553316
0.0365274
-0.0503884
-0.010785
0.08854
0.0106429
0.0375759
0.0147488
0.0145349
0.0496208
-0.069441
-1.01372e-05
0.14492
-0.101058
0.0844743
-0.0265716
-0.0428896
0.0807812
-0.0648168
0.0714343
-0.0236588
0.0718821
-0.0731001
0.017278
-0.0126578
0.0443575
-0.0345133
-0.0205035
0.0172309
-0.0622583
-0.0627651
-0.0401107
-0.0680284
0.0112007
0.00816113
-0.00932882
0.013747
0.0369816
0.108377
0.011296
0.00975079
-0.0655415
0.00921326
-0.0312324
-0.0170769
0.0322644
-0.0251727
-0.0585107
0.00145744
-0.0674097
0.0234575
0.00636745
0.0224105
-0.037831
0.0176031
0.0365535
-0.027164
0.0363962
-0.0807745
-0.0463171
0.0196899
-0.0229475
-0.0286371
-0.028874
0.000703223
-0.00437735
-0.016381
0.0844071
0.0478076
-0.0489012
0.0581991
-0.0553508
-0.0380152
-0.0029418
-0.0285336
-0.068286
0.0393977
0.0109811
-0.0083345
-0.00987924
-0.0263177
-0.0413745
-0.0639955
-0.000335747
0.00817622
-0.0721288
-0.131098
0.0383872
0.0227116
-0.000675037
0.00447339
0.0357858
0.0113416
-0.00632257
-0.060683
-0.0787987
0.0685006
0.013984
-0.050351
-0.0276262
-0.0170854
-0.0748767
-0.0695018
-0.0941036
-0.0121662
0.00775862
-0.0779997
-0.0178711
-0.0283771
-0.0633502
-0.0857675
0.0208755
-0.0303181
-0.0533095
-0.0150456
0.00844628
0.027672
0.0309796
0.0292533
-0.0137899
0.00830967
0.0620031
0.0903751
-0.00520456
0.0420621
0.041693
-0.00588131
-0.0514609
0.0344982
0.0106444
0.11743
0.0570104
0.0364673
0.107738
0.021582
-0.0419976
0.0517165
0.000582422
0.0346477
0.0745838
0.0149383
-0.00246756
-0.00804226
-0.023014
-0.0416101
0.0737611
-0.0904276
-0.0402597
0.00301622
-0.023491
0.0026909
0.0517804
-0.0163175
-0.0310175
-0.0215928
-0.0782454
-0.00821876
-0.0156515
0.0401409
0.0994096
0.00648303
0.0295174
0.0297859
0.059967
-0.0675926
0.0931906
0.0611803
0.0793896
0.0363535
-0.121832
0.00347278
0.0358847
0.0517735
-0.0477412
-0.0661022
0.070969
-0.0526656
0.093269
0.00340431
-0.0256399
0.0186466
-0.0808381
-0.0356536
-0.0370152
-0.0401062
-0.000721517
0.0268443
0.0471907
0.0135065
0.0175878
0.0327874
0.0563657
0.0121473
0.0127413
-0.00754224
-0.0164858
-0.0222768
-0.0483004
0.00294573
-0.0191725
0.0265326
-0.0673898
-0.0482033
-0.0377653
-0.0485449
0.0124181
0.0846596
-0.0266985
-0.00287557
0.0156409
0.151194
-0.0555836
-0.082853
-0.0121676
-0.0310056
-0.037093
-0.00047639
-0.0806066
0.0120279
0.073443
0.0978878
-0.052039
0.0124339
-0.0717847
0.00042158
0.0179935
0.0431328
0.0307078
0.0227048
-0.0391365
0.00365001
0.0172463
0.0132794
-0.018635
-0.0202939
-0.043575
0.0170783
-0.0490364
-0.047417
0.0757191
-0.0120063
-0.0679028
0.0685108
-0.0218757
-0.0332212
-0.0939857
0.00120324
0.0900507
-0.0457035
-0.0464507
-0.00952477
0.0142995
-0.024928
-0.00344931
-0.0777521
0.037167
0.0656193
0.0435887
-0.102014
0.068952
-0.0866076
0.0109288
0.0205965
-0.0644151
-0.0187005
-0.0234317
-0.0820518
0.00986497
-0.0174964
0.0129473
-0.0268204
-0.0653676
0.0904532
-0.0142259
-0.0560203
0.0122757
0.0254543
0.0824569
-0.0157707
0.0785939
0.024749
-0.00762326
0.0347813
0.036484
-0.00131732
0.0458597
0.0892319
-0.0878026
-0.00272226
-0.017797
0.0387612
-0.0463392
0.0254922
-0.0533236
0.0523596
-0.0401661
-0.0191106
0.0691772
-0.0765711
0.012381
-0.041839
-0.0447271
-0.0322531
-0.080275
0.0600514
0.0677227
-0.0784812
-0.0274704
0.0963508
-0.0198794
0.0505605
-0.0305566
-0.0048453
-0.00403416
-0.00912416
-0.0149472
-0.0618807
-0.0406263
-0.0155307
-0.0392517
0.154568
0.0601225
0.0324904
0.0879259
0.0535887
0.0728329
-0.124502
0.011975
-0.0446979
0.0304201
0.0191668
-0.0827318
0.00794295
0.01564
-0.0603356
0.0957922
-0.00278158
-0.0168991
-0.0336708
0.0414258
0.0280594
0.0225111
0.0366464
-0.0436653
0.0173749
0.00771016
-0.025912
0.0390001
-0.0123811
0.0143858
-0.0505613
-0.0832157
-0.0785693
-0.069774
-0.00733399
0.0117649
-0.0214652
-0.052451
0.00107487
0.0393584
0.0126821
0.0525285
-0.0299312
-0.00247746
-0.0879734
0.0690432
-0.0625408
-0.000705661
0.048057
0.0766602
0.0848983
0.101603
0.0380006
0.0129703
-0.037916
-0.0219135
0.0224365
0.0768279
-0.00713052
-0.00838033
-0.0211941
0.0186199
0.00567541
0.0256869
0.0582759
0.0656907
-0.0398311
0.0253628
-0.0232342
0.0777197
-0.00550409
0.0290974
-0.0308625
-0.0160171
-0.00479893
-0.0568052
0.0280811
0.00887009
0.00532548
-0.0243988
0.00274663
-0.0180236
-0.0700386
-0.0413973
-0.0321598
-0.00874012
-0.00132621
-0.0917885
-0.0613517
0.0700299
-0.0131092
-0.0524926
0.0506713
0.0314193
0.135637
-0.0142629
-0.0538127
0.0361256
0.0585629
-0.0573034
-0.0734512
-0.0121512
0.0580876
0.0425888
0.00977081
-0.0556025
-0.00314132
0.00618585
0.118851
-0.0511943
0.0980774
0.0233576
0.0223947
-0.0232066
0.0105011
-0.0384441
-0.046281
-0.0182996
0.0255934
-0.0149584
-0.0404178
-0.0271677
-0.00305229
-0.0210837
-0.0405943
-0.00919469
0.0676765
0.0378884
-0.0468467
-0.0211502
-0.0425365
-0.0423003
-0.00691873
0.00523677
-0.0415175
-0.014777
0.00487618
0.0368506
-0.0277807
-0.0356281
0.0307492
-0.0721543
0.0393728
0.0187297
0.0482034
-0.00521477
0.037328
-0.0153905
0.117791
0.0310674
0.0426875
0.00156265
-0.0807077
0.0347638
-0.00750735
0.0269509
0.0366834
0.0230251
0.00752513
0.0674496
-0.00444586
-0.000379343
0.0126197
-0.140035
0.0313608
0.0484853
-0.00545983
-0.0134832
0.0699684
0.0405475
-0.0521158
0.0400736
-0.0901896
0.000431685
0.020277
0.116749
0.0390504
0.0312161
-0.0539463
0.0893462
-0.0520907
0.0288998
0.00335018
-0.020119
-0.00737725
0.0274174
-0.0588948
-0.00400839
-0.000106199
0.0135097
-0.0336508
0.000722171
0.00074423
0.0462495
-0.0214829
-0.0287469
-0.034168
-0.0551774
0.0349705
0.0204524
0.0190617
0.0490141
-0.088249
-0.0585478
0.0937535
0.0405773
0.0369138
-0.034736
-0.0666659
-0.0605055
-0.023745
-0.0645973
0.145194
0.00828357
0.0696068
-0.0788211
-0.0700126
0.00097756
0.0647179
0.0202048
-0.0564708
0.020141
0.0482739
-0.0566351
0.0541251
0.0557667
0.0736636
-0.000932578
0.112307
-0.00197068
0.0404064
0.0373386
-0.0824037
0.0386674
0.105174
0.0917296
0.0624831
-0.0085541
-0.039776
-0.0259587
0.0150747
0.0202309
-0.14207
-0.0108634
0.0358717
0.0436886
0.0442373
-0.084446
-0.0900126
0.00839027
0.007125
0.0892198
-0.0225985
0.000359115
-0.0247506
0.0995061
0.0453129
0.0139563
-0.0614673
0.0140368
-0.020797
0.0467389
-0.0822345
-0.0103134
-0.0766118
0.0685512
0.0717489
0.0114771
-0.0865141
0.00267587
0.0684478
-0.0439055
-0.00776958
-0.069741
0.0177988
-0.0755627
-0.00626231
-0.00233441
0.000650037
0.0250945
0.00415411
0.0357968
0.00625773
0.0504836
0.0396219
-0.0274232
0.0415982
0.14413
0.0238365
0.00819152
0.00923554
0.0123765
-0.0303765
0.000695125
0.0674161
-0.0309461
-0.105499
0.0205044
-0.0343627
0.013929
-0.0317071
0.0530488
0.0071468
0.0132092
0.0351058
-0.117561
-0.112589
0.0562058
0.0574013
-0.142237
-0.0248925
-0.0347594
0.00593308
0.000500679
0.027676
-0.0306915
0.0425016
0.0570196
-0.0113882
-0.0627495
0.0118321
-0.0688978
0.0487961
0.0468957
0.00658425
-0.0145247
-0.101157
-0.0616409
0.01508
0.0256169
0.0686141
-0.0521562
-0.0295154
0.0252886
-0.00559288
0.00695839
0.0438819
0.00844734
-0.0250105
0.0462921
0.0401205
0.0365357
0.127933
-0.00638882
-0.00876508
-0.0528579
-0.0489846
-0.0405774
0.035135
-0.0487039
-0.0529104
0.0375969
0.0494768
-0.0809596
-0.0242627
-0.0624263
0.0289607
-0.0392008
0.00393566
0.0366424
0.0193062
0.0237362
-0.0355187
0.00643403
-0.0339301
-0.0580875
-0.0333367
0.109717
-0.0125651
0.0184239
-0.0321371
0.0474719
-0.0254028
-0.0194358
0.0448517
0.0406037
0.0281425
0.120938
0.000320508
0.0264501
-0.0046328
-9.83756e-05
-0.0366754
-0.015154
-0.0194043
-0.1228
0.0815281
0.0572509
0.0370892
-0.0322451
0.0506811
-0.0556251
-0.00094287
-0.0271692
0.086407
0.0763291
-0.0873197
-0.0258626
-0.0291393
-0.0495514
-0.0451404
0.0977995
-0.0587995
0.0502171
-0.0513546
0.0417209
-0.0278134
-0.0427324
-0.0179224
-0.100902
0.0133886
0.0502324
0.0317506
-0.000202048
-0.0368145
0.0298648
-0.00782037
0.0231301
-0.0572109
-0.00894722
0.0175701
0.0059378
-0.0306202
-0.0412967
0.0588815
-0.00739049
0.0978286
-0.0604366
-0.0358097
0.101657
0.0165053
0.00567231
0.0614231
-0.0573406
0.103302
-0.0381774
0.072843
0.053465
0.0583279
-0.0160879
-0.0687337
-0.0169617
0.04855
-0.0189537
0.0402109
0.0244752
-0.0614038
-0.108472
0.0651144
-0.0793091
-0.045521
-0.0791912
0.00874661
0.0706363
-0.036284
-0.0279947
-0.00298632
0.0268477
0.120586
-0.0609911
-0.0178041
0.054929
-0.0172873
0.05669
-0.0284437
0.0867749
-0.00558907
-0.0811915
0.0172254
-0.0586902
-0.000555138
-0.014092
-0.0371448
0.0859361
-0.0055909
0.00614917
0.0275623
0.000968641
0.0651134
-0.0654774
0.00245095
0.013206
0.114256
0.0441495
0.0479634
0.00374588
0.0101636
0.0187654
-0.0244118
-0.109939
-0.0649442
0.0443031
0.0702526
-0.00079583
0.0805397
0.00808194
-0.00607221
-0.0107547
0.0434276
-0.0760705
0.0538802
-0.0317627
-0.0622883
-0.0645338
-0.0709352
-0.0429207
-0.0537194
0.0100282
-0.0329334
-0.0275398
0.00199343
-0.0658098
-0.00353775
0.0371888
-0.0202559
0.0095998
0.0307462
-0.0327341
0.0122011
-0.0661315
0.0424196
0.00876955
0.0166655
0.0319675
0.0303126
-0.0156417
0.00634784
0.113081
0.0559497
-0.0164963
-0.167478
0.00722333
0.0217099
0.0134029
-0.0210925
0.0608009
0.102848
-0.00618756
0.0231788
-0.0221458
0.0251561
-0.00589958
-0.0453174
0.0323823
-0.00514534
-0.0387858
-0.113603
-0.024579
0.0126236
0.0342963
0.0456793
0.0452818
-0.0114483
-0.00960039
0.121893
0.0678232
0.0964424
-0.000707943
-0.118115
-0.024606
-0.0332369
-0.0474182
-0.00465174
0.0476481
-0.0583633
-0.020064
0.0216367
-0.0382569
0.048006
0.0854109
0.0123759
-0.0546006
0.041423
0.0368233
-0.0933242
-0.0886512
-0.101346
-0.0122409
0.0849115
0.0616556
0.0118637
-0.0458386
0.00298305
0.0789926
0.0155658
-0.0256175
0.128356
0.0177023
-0.00977227
0.0176503
0.0606704
-0.011053
-0.056493
-0.00340964
-0.0343277
-0.00548486
0.032321
0.0535912
0.0515417
0.00629121
-0.0777992
0.0443203
-0.0473907
0.0035368
0.0732456
0.0458115
-0.000899816
0.098052
-0.00856891
0.0286651
-0.0852387
-0.0664236
-0.0150192
0.00602854
-0.0180227
-0.0946117
0.0327673
-0.012154
0.0562485
-0.0546765
0.0359194
-0.0566709
0.0466905
-0.0667856
-0.0284601
0.0645811
-0.0291662
0.0447346
-0.0289801
0.00147456
0.0366666
-0.0489973
0.00570638
-0.00782902
-0.0832352
-0.0709792
0.0436216
0.0793647
-0.0125426
0.0549209
0.0844662
-0.0263613
0.0166342
0.0305858
-0.00545679
-0.00370098
-0.0549685
-0.0893788
-0.0611645
-0.0471281
0.052664
0.0693123
-0.00655766
0.027906
-0.0373696
0.0770807
-0.00288271
0.0720162
0.0152838
-0.0613811
0.0599144
0.0274353
0.0118447
0.0650126
-0.00219544
0.0101221
0.0205127
-0.0138966
-0.0943692
0.0756013
-0.00504654
-0.0202104
0.0107684
0.0507096
-0.0410093
-0.0236517
0.12196
-0.0427922
-0.0431954
0.00706777
0.0351257
-0.0589687
-0.0110722
-0.0516635
0.0189787
-0.0942612
-0.0353311
0.0902857
0.0480369
-0.100361
0.0115238
0.013328
-0.00622189
-0.0126964
-0.112199
0.0345461
0.043066
-0.067072
-0.0359233
-0.102725
-0.0703993
0.0850617
0.00546418
-0.0558962
0.00960367
-0.0387914
-0.0813322
-0.0718014
-0.0668875
0.0259855
-0.147056
-0.0369922
-0.0215769
0.0498607
0.0122551
-0.046803
0.163035
0.0445388
-0.0704285
0.116449
-0.0538623
0.00718262
-0.0184215
-0.035788
-0.0709886
0.0548999
0.0578289
-0.03584
-0.0523163
0.033783
-0.0319586
-0.109228
0.0911197
-0.0668391
-0.00637418
-0.0560388
0.0887558
0.0986626
0.0285962
0.0129438
-0.0211248
-0.00053262
0.00916304
0.0702284
0.051101
0.0463047
-0.077388
0.0534105
0.00523065
0.0368507
0.00984677
0.02348
0.0476377
0.00564223
0.010116
0.122752
-0.0218993
-0.0389411
-0.0596376
0.0438769
-0.0570059
-0.0431945
-0.00363034
0.0199079
-0.0227773
0.0199631
0.0325328
-0.00170476
-0.0419109
0.0827216
-0.0795618
-0.0899539
0.0526391
0.0174038
-0.00898954
-0.0978178
-0.0318561
-0.00558158
0.0725498
-0.081344
-0.054616
0.0419905
-0.0223554
0.0235497
0.0236795
0.107879
-0.00436732
0.05943
0.0152313
-0.0455419
0.0259226
0.0275046
-0.00456718
-0.027371
0.0225736
-0.11264
0.00859664
-0.00101037
-0.0470317
0.119729
-0.0439218
-0.0261791
-0.0184017
-0.0428234
0.0899722
0.0248111
-0.00504675
-0.0148204
-0.0867257
0.0382415
-0.0281258
-0.0854125
0.0815053
-0.0501002
-0.0366809
0.0330637
0.0543498
-0.0535996
0.0210512
0.0335225
-0.0092006
-0.0547592
-0.021478
-0.0545782
-0.00461674
0.0846518
0.0609511
-0.00657677
-0.0161494
-0.0409845
-0.0791203
-0.0338831
0.00590482
-0.0156025
-0.0466594
0.0874794
-0.00224518
-0.04233
0.0144413
-0.0432396
-0.0289544
-0.0471041
-0.0198102
0.0891912
-0.0790767
0.00586233
-0.0235617
0.0180163
-0.0100847
-0.0145196
0.0342832
0.0303109
0.016352
-0.0618397
0.075386
-0.0252737
-0.056357
-0.0310092
-0.0283965
0.0566607
0.0642169
0.00502928
-0.0183572
0.0451142
0.049144
-0.0537068
0.0231579
-0.00427366
0.0735715
-0.0251159
-0.0789988
-0.0135077
-0.00792599
-0.0337703
0.067246
-0.0222134
0.0397238
-0.0247886
-0.00520955
-0.0163773
0.093894
-0.00595078
0.0318849
-0.0587478
-0.0472948
0.00220973
0.0172228
-0.0455232
-0.00734275
-0.0244322
0.0101094
0.00206912
-0.0638089
-0.0639116
0.0391013
-0.0557718
-0.029712
0.0141664
-0.00707285
0.0228315
-0.0840385
0.0160221
-0.0679558
0.0636663
0.0202063
-0.0461758
-0.0918206
-0.0643378
-0.0436513
-0.0143372
-0.00319998
-0.0291237
-0.0286464
0.0123296
-0.0775468
0.0464479
-0.0370446
0.031919
-0.00514887
-0.0125412
-0.0278944
0.00269701
0.0267257
0.061866
0.0618796
-0.00936292
0.0264062
0.0111489
0.0284562
0.020223
-0.0691452
0.0501687
-0.069101
-0.038776
0.0868921
-0.0353068
0.00866727
0.0248958
-0.0809044
0.0464308
4.24841e-05
0.0106916
0.0645321
-0.067169
0.00827142
0.0352346
-0.00896104
0.0252787
0.0403077
-0.0849873
0.0549767
-0.0096593
-0.0426468
-0.0122807
-0.0515018
0.0518855
0.0767254
0.0491184
-0.0394204
0.0731052
-0.0483265
0.0365813
0.0212966
-0.0217601
-0.0208029
-0.0328908
-0.00239386
-0.0784743
-0.0501816
0.0090019
0.00116832
0.00515991
-0.0084609
-0.04708
0.0145562
-0.0487162
-0.0859745
-0.0635302
0.101136
-0.0664002
0.104119
0.0604801
-0.00537397
-0.0541671
0.0935072
-0.0778453
0.0507606
-0.00893128
-0.0129872
0.0379567
0.0364569
0.0294914
-0.0152612
0.0121122
-0.00613843
-0.0353735
0.030787
0.0844162
-0.0126685
0.00852283
0.0846838
-0.0607463
0.0448381
0.102156
0.0299689
-0.11375
-0.0142233
0.0766161
-0.113577
0.0299416
-0.0389909
0.144247
-0.0106161
-0.0403852
0.0238438
0.0137522
-0.00755937
0.0420001
-0.00462979
0.0389731
-0.0772935
-0.0436485
-0.0377808
-0.0072495
0.0689557
-0.0396734
0.0453754
0.0547951
-0.0788507
-0.0561364
-0.0518289
-0.0445039
0.00379958
-0.042817
0.0329575
0.0182415
0.00216963
-0.0143097
-0.0649227
-0.0323488
-0.0595295
-0.0168708
0.0727128
0.0088667
-0.0267175
-0.0274
0.0555872
-0.0311244
-0.0253649
-0.00132912
-0.056533
0.0563391
0.0815506
-0.00891718
0.0770138
-0.0541322
-0.0401561
0.0163606
-0.0463297
-0.00125446
-0.033138
-0.00295784
0.0944221
0.0526897
0.0519302
0.0320721
0.0154646
0.0641116
-0.0979353
-0.0614763
-0.116729
-0.0764166
-0.00967035
0.0313724
-0.124937
-0.127639
-0.00502367
-0.0171984
-0.0601419
0.0136392
-0.0115026
-0.0216415
0.042107
0.0277172
-0.0576181
-0.023226
-0.10245
0.0288762
-0.129242
-0.0166756
0.00513907
0.0616431
-0.0324462
-0.0256622
-0.0654395
-0.04543
0.0265568
0.00226162
0.000252374
-0.0510061
0.00316851
0.0351264
0.0399381
-0.0356445
-0.0453902
0.0610975
0.0515879
-0.17936
0.108836
-0.103246
-0.00156176
0.040104
0.0136634
0.0142121
-0.166248
-0.0642105
0.0361123
0.0496664
-0.0330675
0.0343291
-0.0234172
-0.0544951
-0.0586303
-0.0789888
0.144977
-0.0552681
0.00194585
0.0562987
-0.0960212
-0.116104
-0.0134963
0.0174184
0.0762555
-0.0343069
-0.0122615
0.0801721
0.0440292
-0.0464188
-0.0990328
-0.0109662
0.0364597
0.0484348
0.0810471
0.0216017
-0.00995185
-0.0197293
0.0391159
0.0753951
-0.107697
0.0524492
0.0185426
-0.0115511
0.0057357
-0.0827175
-0.00792179
0.0347437
-0.0826916
0.013391
-0.056509
0.0150342
-0.0190547
-0.0866001
0.00324802
0.0492792
-0.085392
0.00423632
-0.0951467
-0.0796139
0.0157535
0.00984212
0.0782668
0.00528201
-0.105249
-0.0271602
-0.0105943
-0.100595
0.0335036
0.0493813
0.109479
0.056114
0.0929389
-0.0738823
-0.0628981
-0.030589
-0.0827875
0.0332369
-0.0420027
-0.151191
-0.0920118
0.0870116
0.0204402
0.000590644
0.115992
0.052002
-0.0511934
-0.056818
-0.120703
-0.01087
-0.0936283
0.0196118
0.050894
-0.036076
-0.00934582
-0.0376711
0.184131
-0.0438258
-0.132855
0.0747458
-0.0260171
0.0111004
-0.0126985
-0.0568573
0.0445897
-0.0767987
-0.0612425
-0.00248794
-0.115584
0.0586966
0.0800541
0.149386
-0.0454607
-5.35682e-05
0.0130783
-0.0086121
0.0364827
-0.0568052
-0.0345588
0.0837953
-0.0743711
0.0185006
-0.0302767
0.0955615
-0.0834402
0.000614347
0.0336234
-0.118924
0.0691285
-0.0658762
-0.0772563
-0.0293463
0.033004
0.0209854
-0.0432506
-0.0502182
0.0280177
0.0369903
-0.0101007
0.0416829
0.0140149
-0.0152613
-0.0660314
0.00464552
0.138165
0.137879
-0.0030148
-0.00572142
-0.0767301
-0.092518
0.0423366
0.0462495
0.0527249
-0.0413386
-0.0411857
0.027392
-0.101635
0.0118552
-0.0843743
0.0472728
0.026717
0.00310927
0.064764
0.169555
-0.0776143
0.0651326
0.0449329
0.0481825
0.051643
0.106056
0.0700681
-0.0830534
-0.0622272
-0.00851728
0.107642
0.0176193
-0.0569187
-0.113385
-0.0917039
0.0850751
0.0152316
-0.0496003
0.0204513
0.0786725
0.0900457
0.0280382
-0.0173503
0.0136074
0.0333193
-0.0931779
-0.0231936
-0.0308013
-0.0804661
-0.16852
0.0251456
-0.0594349
-0.103544
0.0644937
-0.0120382
0.117633
0.0987283
0.0388368
-0.0508597
-0.130433
0.0106166
0.0399249
-0.151679
-0.0413787
-0.0642196
0.0646387
0.170102
-0.128242
0.107572
-0.0447638
0.00733875
-0.0133632
-0.0407882
-0.046435
-0.113112
-0.0445677
-0.0418298
-0.0320915
-0.0797586
-0.00246558
0.184264
0.198474
-0.0142044
0.0560406
0.119713
-0.0535262
0.00973686
0.0922451
0.0442916
-0.0377172
-0.0502173
0.0142199
-0.064047
0.0360828
0.101734
0.0867953
0.00424438
-0.00230438
0.0371919
-0.0158202
0.00804367
-0.0413994
0.0522466
0.209403
0.0610724
0.013965
0.0575369
0.0902729
0.0041943
0.167248
-0.0111131
-0.0419777
0.176946
-0.0646245
0.0200345
-0.0355909
0.00979512
-0.0763744
-0.0476415
-0.0334349
-0.0506885
0.02318
0.0158809
0.0947165
-0.00460317
0.127944
0.0122496
-0.114614
0.120225
0.0995329
-0.0249408
-0.0363544
-0.0254811
-0.0127269
0.0217889
0.0673997
0.142105
-0.076644
-0.0215651
-0.0319056
-0.0465219
-0.121442
-0.0357023
-0.100409
-3.76541e-05
0.0252295
0.0204711
0.119384
0.0684546
-0.0101946
0.0494205
0.190726
-0.0223754
0.0747351
-0.0367006
0.037143
-0.0544029
-0.0359921
0.129538
-0.0149404
-0.0667523
-0.044388
-0.115148
0.00395224
0.0219447
-0.10254
0.0108593
0.0982091
-0.0295156
-0.0746344
-0.109458
0.00884096
-0.042324
-0.189075
0.0647542
0.0434409
-0.108974
-0.0191513
0.0463055
-0.0570053
-0.0249272
0.0528929
-0.00783369
0.22138
0.114528
0.0226841
-0.105755
-0.184232
-0.078934
0.0722173
-0.190816
-0.0899979
-0.0313887
0.0443877
0.0966666
0.00443248
0.0868818
-0.0897737
-0.059519
-0.0987655
-0.0353377
-0.0812946
-0.0616489
0.052291
-0.0592984
-0.023057
-0.0707186
0.0138258
0.213814
0.0907321
-0.10919
0.246109
-0.0561916
0.0278246
-0.0216234
0.0193738
0.0365171
0.0616058
-0.0929939
0.0247728
-0.108964
0.0496324
0.00772037
0.177751
-0.0647207
-0.0302629
0.0249412
-0.0967091
-0.0463408
-0.0260675
-0.0412395
0.196541
-0.0219784
-0.0729651
0.160651
0.144446
-0.14451
0.163381
0.0831375
-0.107159
0.304822
-0.13973
-0.0567581
0.0884281
-0.021539
-0.109493
-0.0300555
-0.0686903
-0.0231276
-0.157181
0.0352594
0.149668
-0.0625784
0.0552806
0.0453809
-0.109116
0.235
0.132503
0.0110772
-0.141127
0.0202118
0.0316254
0.0190927
0.16959
0.0918988
-0.104492
0.0247915
0.0539156
-0.118613
-0.114841
-0.0474044
-0.0184995
-0.0336998
0.0687063
0.0709423
0.201275
-0.0376089
-0.126072
0.140888
0.198877
-0.0802626
0.169331
-0.0528965
-0.0467151
-0.0621899
0.000946216
0.163186
-0.0334556
-0.120675
-0.0709165
-0.0233229
0.0258857
0.211497
-0.190262
-0.0483194
0.123908
-0.0411749
-0.0616954
-0.0149473
-0.0256702
-0.00306416
-0.0248739
-0.0232135
0.0117688
-0.0760008
-0.0415716
0.164741
-0.0651974
-0.0162916
0.0638103
-0.0872812
0.17075
0.187407
0.0314514
0.000884782
-0.164814
-0.030516
-0.00946452
-0.203488
-0.147834
-0.0708829
-0.0027976
0.114938
-0.0253366
0.169478
-0.0595871
0.0335539
-0.0859148
0.00563661
-0.0639335
-0.0657749
-0.0354362
-0.122521
0.105639
-0.0776981
-0.000827788
0.245955
-0.0340349
0.00231586
0.19197
0.0212644
0.152536
-0.137943
0.0879359
0.0180194
-0.0092802
0.055166
0.0378083
-0.0882355
0.161737
0.0916999
0.286547
-0.0440862
0.0285972
0.030406
-0.0521131
0.0234671
-0.0939258
-0.100741
0.176806
0.017454
0.0178359
0.236674
0.114806
0.0360649
0.258664
0.0697654
-0.113154
0.333196
-0.16478
-0.101587
-0.0437412
0.016307
0.0919154
-0.203751
-0.012642
-0.0530678
-0.00360435
-0.0399611
0.226072
0.133695
-0.00010343
0.0573549
-0.13674
0.341168
0.278121
0.0441399
-0.0832088
0.00416798
-0.193599
-0.0717297
0.148939
0.147013
-0.125721
-0.159639
0.220226
-0.0894534
-0.219828
-0.0935263
0.0293611
0.00877163
-0.00866556
0.0575554
0.301665
-0.121389
-0.134925
0.179869
0.411218
-0.148752
0.208984
0.0616115
-0.105514
-0.0369876
-0.0879209
0.268565
0.112074
-0.0529653
-0.108262
0.0298153
0.0254195
0.226153
-0.106155
-0.0692565
0.218777
0.0646826
-0.119365
-0.120102
0.14499
-0.0834748
-0.0211104
0.035339
-0.103176
-0.0557677
-0.0278106
0.175488
-0.0184462
0.101086
-0.0368996
-0.0321294
0.279383
0.227816
0.00449364
0.035409
-0.126971
-0.11788
0.111328
-0.278441
-0.231456
-0.0217653
0.0135761
0.191653
0.109685
0.29075
-0.00909975
-0.0452659
-0.069377
-0.118504
-0.163609
0.00537247
-0.0250577
0.00968547
0.203981
-0.120458
-0.10222
0.361561
0.0260971
-0.116421
0.404293
-0.0695597
-0.0874482
-0.206442
0.0717866
0.106562
-0.0292045
0.0468838
-0.00380943
-0.228518
0.311093
0.115462
0.321065
-0.0698384
-0.0190514
-0.00996321
-0.137536
-0.0532708
-0.126054
-0.0226461
0.29288
0.00792276
0.0234437
0.353634
0.284449
-0.045757
0.134327
0.108499
-0.0905893
0.334564
-0.163384
-0.128117
0.000410234
-0.0645232
-0.0805318
-0.186032
-0.0602083
-0.0263223
-0.147047
-0.0738276
0.282476
0.0421288
0.0331118
0.0599051
-0.100938
0.218837
0.284791
0.272618
-0.235068
-0.0782808
-0.146843
-0.0328676
0.121506
0.0814185
-0.0984061
-0.0259186
0.274175
-0.107432
-0.141613
-0.0855304
-0.0454659
0.0917442
0.0463259
0.203105
0.262681
-0.197026
-0.0931791
0.376491
0.385983
-0.166198
0.281846
-0.0493303
-0.0106819
-0.17323
0.0969394
0.19459
0.0273242
-0.0459628
-0.0655711
0.126294
-0.0138387
0.225981
-0.182428
-0.0193732
0.171769
0.0333347
-0.129494
-0.085752
0.057027
-0.0873336
-0.147058
0.105363
-0.145152
-0.124582
-0.0101315
0.275691
-0.131293
0.0607528
0.00702798
0.00634681
0.427729
0.224407
0.0105811
-0.130361
-0.155314
-0.110081
0.230281
-0.281878
-0.115133
0.0146272
-0.0733952
0.251603
0.00881214
0.322575
0.00370385
-0.0609922
0.0351461
0.0109075
-0.074214
0.0356492
0.0506848
-0.106887
0.260711
-0.0741071
-0.0405008
0.38044
0.0277544
0.0420747
0.365043
-0.0107143
-0.0144522
-0.0631669
0.214892
0.210624
-0.0656243
-0.0827316
-0.0253393
-0.160791
0.276974
0.0173069
0.331776
-0.0609543
-0.0344613
-0.0503067
-0.132264
-0.0807082
-0.136739
-0.0508233
0.248185
-0.0215593
-0.0496463
0.437589
0.327458
-0.00371903
0.365956
0.102993
-0.129797
0.459961
-0.0583952
-0.137929
0.0317081
-0.0810779
-0.0908996
-0.139596
0.0211582
0.157414
0.0477103
-0.0634413
0.157357
0.131908
0.0882361
0.104402
-0.223182
0.303086
0.354536
0.328658
-0.0247352
-0.0324093
-0.198637
-0.00131253
0.0882624
0.134744
-0.0184307
-0.0130442
0.301394
-0.294017
-0.243096
-0.0323924
-0.0665971
0.146075
0.0181686
0.0913214
0.327303
-0.0623031
-0.0832255
0.417663
0.334429
-0.227491
0.280732
-0.0208492
-0.0722639
-0.17248
-0.130964
0.312626
0.0109662
-0.0423172
0.0103651
0.131816
-0.0525899
0.38122
-0.134181
-0.0573365
0.162239
-0.0756754
-0.114026
-0.0290413
-0.0226325
-0.080634
-0.204057
0.204691
-0.120886
-0.0877213
0.0300426
0.258046
-0.275388
0.0244487
-0.0469876
-0.0327363
0.431749
0.245634
0.11745
-0.195097
-0.167646
-0.00599251
0.28182
-0.399593
-0.188626
-0.0258558
-0.0501191
0.231402
-0.0182122
0.366743
-0.0690255
0.0413611
0.0157284
0.0514645
-0.00264887
-0.0286795
0.0775969
-0.0435128
0.26304
-0.168933
0.0440292
0.319692
-0.00390283
-0.174005
0.373158
-0.0110745
0.078808
-0.0357761
0.315737
0.208953
0.0412624
-0.014999
-0.0676038
-0.17606
0.361036
-0.0661482
0.428072
-0.0121929
-0.104402
0.0118468
-0.201622
-0.0619077
-0.113627
-0.145238
0.392757
-0.0380173
-0.149076
0.519553
0.448061
-0.0300669
0.368027
0.110288
-0.0795773
0.420845
-0.0861161
-0.0896884
0.0923638
-0.0384697
-0.0718117
-0.072741
0.0708182
0.236892
-0.0624551
-0.194456
0.225938
0.129567
0.171692
0.0322487
-0.171232
0.252454
0.304018
0.354761
-0.0702125
-0.152045
-0.175519
0.00151092
0.039856
0.226284
-0.0257594
0.0390139
0.256021
-0.1087
-0.218128
-0.0422295
-0.136322
0.0990868
0.169876
0.131484
0.339829
-0.0478388
-0.115923
0.40054
0.351189
-0.13368
0.249344
-0.0643501
0.0486952
-0.273963
0.0533729
0.271522
0.0647816
-0.158502
-0.108063
0.0963611
-0.106908
0.472409
-0.132304
-0.0375524
0.14775
-0.0412848
-0.189625
-0.0592737
-0.0769576
0.0601599
-0.148512
0.0156969
-0.198486
-0.117745
0.0165339
0.351899
-0.106528
0.0645271
-0.11649
-0.00814288
0.393672
0.177453
0.183333
-0.1132
-0.273793
-0.012113
0.404835
-0.364138
-0.19525
0.0127905
-0.145929
0.430535
-0.00880767
0.321934
0.00315229
0.0713248
0.00548228
0.0986081
-0.179246
-0.0456982
0.0294716
-0.130248
0.271227
-0.131993
0.00829523
0.461951
0.0295922
-0.0281199
0.296105
0.000489048
0.168568
-0.19728
0.296796
0.181638
0.251356
-0.126484
-0.0971272
-0.157566
0.271625
-0.0502826
0.307338
0.0108647
-0.0767528
-0.00795335
-0.190545
-0.0211815
-0.274808
0.0101568
0.383793
-0.0559938
-0.0411987
0.478609
0.329616
-0.0726256
0.481031
0.00756471
0.025601
0.498925
-0.208019
-0.0229325
0.126038
-0.0544023
-0.0875695
-0.0627794
0.0279284
0.111906
-0.0432108
-0.111605
0.315039
0.220665
0.069428
-0.0188183
-0.121653
0.182217
0.331419
0.382965
-0.0316209
-0.03255
-0.145795
-0.0185739
0.0873537
0.131874
-0.135155
-0.00578698
0.317587
-0.217796
-0.231264
-0.0812222
-0.124696
0.0902431
0.234646
0.2212
0.282451
-0.0244631
-0.0820037
0.468154
0.449929
-0.171825
0.308416
-0.0278539
-0.122062
-0.32995
-0.0386692
0.254901
0.0726493
-0.0903867
0.0215343
0.194059
0.0275037
0.301391
-0.141769
-0.0958874
0.0841076
-0.075218
-0.175272
-0.167419
-0.0903963
-0.0385033
-0.0600237
0.155374
-0.190061
-0.158791
0.0137943
0.367707
-0.165693
0.0439973
-0.0375368
-0.115863
0.470718
0.128462
0.267044
-0.145313
-0.211146
-0.12038
0.318107
-0.349845
-0.200503
-0.0516334
-0.125015
0.315307
-0.042617
0.293713
-0.00278877
0.00139619
0.0218937
-0.00277257
-0.0385177
-0.00613507
-0.0113113
-0.188165
0.332044
-0.189315
-0.0970066
0.411654
0.16673
-0.0100549
0.442894
-0.108059
0.188428
-0.142562
0.224215
0.27589
0.427581
-0.021323
-0.154635
-0.122621
0.44923
-0.00488211
0.323192
0.00413787
-0.125032
-0.150278
-0.103341
0.0285662
-0.226148
0.0580549
0.336921
0.0426954
-0.0168124
0.516883
0.27485
-0.14377
0.424053
-0.041165
-0.0645613
0.447658
-0.062685
-0.127095
0.10561
-0.0766013
0.0103678
-0.120497
-0.0828608
0.152265
-0.0901872
-0.175179
0.310039
0.146532
0.168864
0.0141248
-0.0752727
0.117767
0.307365
0.399959
-0.0738253
-0.116641
-0.189053
-0.10219
-0.0604694
-0.0428015
-0.0612053
-0.064762
0.245128
-0.170037
-0.239318
-0.105096
-0.201423
0.0156309
0.171291
0.366972
0.26526
-0.0937085
-0.087554
0.51884
0.385556
-0.174152
0.221001
-0.0698922
-0.00702991
-0.19089
0.0422318
0.328145
0.0104433
-0.0949856
0.05116
0.206759
-0.102426
0.327662
-0.26611
-0.123113
0.152073
-0.0553465
-0.111806
-0.143358
-0.0796783
0.020572
-0.225024
0.132524
-0.151096
-0.212068
-0.0229638
0.308868
-0.028142
-0.0505003
0.0693866
-0.0815866
0.440092
0.13067
0.171339
-0.0918311
-0.244028
-0.0162377
0.267673
-0.327294
-0.23426
-0.0184283
0.00909343
0.342517
0.0221893
0.242453
-0.076646
-0.0218759
0.0641598
0.061851
-0.0831274
-0.083693
-0.0443658
-0.145504
0.250893
-0.145147
-0.0706592
0.555929
0.135238
-0.0771076
0.39918
-0.036439
0.134009
-0.0794708
0.278944
0.376942
0.450742
-0.0241282
-0.1088
-0.070484
0.371013
0.0312481
0.279118
0.0912965
-0.153781
-0.0815601
-0.130939
-0.0417601
-0.339158
-0.0545515
0.388378
-0.0197542
-0.00976699
0.486115
0.286046
-0.12337
0.33519
0.0444956
-0.0404039
0.39951
-0.0438226
-0.0838178
0.0199921
-0.0579667
-0.10445
-0.0676907
-0.00356082
0.144838
-0.073265
-0.10349
0.289783
0.15185
0.0594301
-0.0962194
-0.0339934
-0.0149082
0.339197
0.288683
-0.093053
-0.0581757
-0.114537
-0.0321498
-0.0886253
-0.0101771
0.00416265
-0.0378292
0.214861
-0.186793
-0.23034
-0.0679366
0.00229808
-0.0188635
0.250334
0.313577
0.356224
-0.168851
-0.0351745
0.456136
0.363827
-0.18949
0.161605
-0.0268256
-0.032552
-0.106048
0.0662787
0.310128
0.0878154
-0.149065
0.00123478
0.217062
-0.0541674
0.210561
-0.036218
-0.17156
0.101452
-0.0526399
-0.00331375
-0.0731425
0.0465142
0.0531246
-0.136873
0.115051
-0.135726
-0.193135
-0.0665069
0.32947
-0.057526
0.102077
0.0142413
-0.157898
0.423806
0.0722711
0.194559
-0.0498171
-0.23198
-0.0479287
0.212309
-0.333301
-0.25947
-0.0296141
-0.158995
0.30196
-0.0143031
0.312406
0.0498181
0.0537103
0.103692
-0.0677326
-0.0615788
-0.124945
-0.0328915
-0.0722835
0.248425
-0.164239
-0.0294418
0.34492
0.089711
-0.0208062
0.393607
-0.0498542
0.138145
-0.264698
0.351983
0.314303
0.343045
0.00159314
-0.16283
-0.0146811
0.300987
0.0745644
0.284834
0.0596843
-0.0610141
-0.0842876
-0.154215
-0.0732334
-0.26319
-0.126327
0.350613
-0.0171577
0.0038202
0.259151
0.249502
-0.0571824
0.400504
-0.0107032
-0.119682
0.401332
-0.0472143
-0.0578224
0.239744
0.0588303
-0.0671919
-0.119471
-0.0322104
0.0928814
-0.0248138
-0.199906
0.25525
0.185673
0.0167264
0.0678116
-0.0788698
0.0825814
0.318901
0.3357
-0.0557873
-0.094755
-0.123826
-0.0807249
0.0442083
-0.00909442
0.0710391
-0.0029259
0.164805
-0.252949
-0.110735
-0.0898853
-0.0685831
-0.00671346
0.249316
0.414552
0.191035
0.0195756
-0.106307
0.329875
0.41672
-0.302349
0.251692
-0.0810596
0.000227003
-0.23617
0.00813137
0.183479
0.0738693
-0.052117
0.0845204
0.2584
0.0247464
0.225809
-0.138651
-0.172417
-0.0143722
-0.0807994
-0.107914
-0.135985
-0.0275207
0.0172539
-0.153829
0.171579
-0.107352
-0.228911
-0.00458854
0.31544
-0.0675785
0.0143907
0.134605
-0.105563
0.426596
0.0409221
0.115284
-0.0703829
-0.157174
-0.0588571
0.254426
-0.293486
-0.215505
-0.0636001
-0.0105537
0.234279
-0.0248638
0.291269
-0.158005
-0.0689131
-0.0549041
0.0631408
-0.0395813
-0.0319597
0.0482857
-0.0672242
0.227662
-0.16503
-0.132128
0.371261
